tree
version=v3
num_class=1
num_tree_per_iteration=1
label_index=0
max_feature_idx=12
objective=regression
feature_names=CRIM ZN INDUS CHAS NOX RM AGE DIS RAD TAX PTRATIO B LSTAT
feature_infos=[0.0063200000000000001:73.534099999999995] [0:95] [0.46000000000000002:27.739999999999998] [0:1] [0.38500000000000001:0.871] [3.5609999999999999:8.7799999999999994] [6:100] [1.1295999999999999:12.1265] [1:24] [187:711] [12.6:22] [0.32000000000000001:396.89999999999998] [1.73:37.969999999999999]
tree_sizes=1014 1018 939 936 1023 1023 1115 1027 1113 1112 1037 1037 1116 1114 1033 951 958 1126 957 1128 1042 1210 1048 1045 972 1124 1053 1046 1052 1137 1060 1058 1142 1055 1143 1053 1141 1141 1143 1138 1148 1050 1142 1140 1134 1052 1143 1145 1150 1137 1063 1145 1058 1056 1152 1148 1151 1064 1054 1054

Tree=0
num_leaves=11
num_cat=0
split_feature=12 12 5 4 12 12 7 5 12 7
split_gain=149.165 39.425 17.389 16.4965 5.045 3.1249 1.22944 0.943543 0.495308 0.580861
threshold=18.905000000000005 10.160000000000002 6.6700000000000008 0.67500000000000016 16.040000000000003 4.6500000000000012 3.5392000000000006 6.1525000000000007 14.095000000000001 3.7156500000000006
decision_type=2 2 2 2 2 2 2 2 2 2
left_child=1 2 6 -2 8 -4 -1 -8 9 -3
right_child=3 4 5 -5 -6 -7 7 -9 -10 -11
leaf_value=0.059531597235808059 -0.089143757507060328 0.014387090407214706 0.1417347063206906 -0.20314924321918756 -0.045608668676242324 0.092776171920457784 0.013252159223528494 0.040480004305721039 -0.011907046901425435 -0.0063490546835324839
leaf_weight=20 22 35 22 30 32 32 20 35 20 22
leaf_count=20 22 35 22 30 32 32 20 35 20 22
internal_value=0 0.320409 0.694533 -1.54916 -0.122362 1.12722 0.382997 0.30579 0.0163283 0.0638367
internal_weight=0 238 129 52 109 54 75 55 77 57
internal_count=290 238 129 52 109 54 75 55 77 57
shrinkage=1


Tree=1
num_leaves=11
num_cat=0
split_feature=12 12 5 4 12 12 7 5 6 12
split_gain=120.823 31.9343 14.0851 13.3622 4.08645 2.53117 0.995847 0.76427 0.418066 0.188249
threshold=18.905000000000005 10.160000000000002 6.6700000000000008 0.67500000000000016 16.040000000000003 4.6500000000000012 3.5392000000000006 6.1525000000000007 68.950000000000003 13.395000000000001
decision_type=2 2 2 2 2 2 2 2 2 2
left_child=1 2 6 -2 8 -4 -1 -8 -3 -10
right_child=3 4 5 -5 -6 -7 7 -9 9 -11
leaf_value=0.0535784387588501 -0.080229381895200777 0.010207472126057838 0.12756123461506583 -0.18283431674043338 -0.041047802628600041 0.083498554234392952 0.011926943250000478 0.03643200301698276 0.0015815896690701662 -0.011357292355122893
leaf_weight=20 22 32 22 30 32 32 20 35 23 22
leaf_count=20 22 32 22 30 32 32 20 35 23 22
internal_value=0 0.288368 0.62508 -1.39425 -0.110126 1.0145 0.344697 0.275211 0.0146955 -0.0474409
internal_weight=0 238 129 52 109 54 75 55 77 45
internal_count=290 238 129 52 109 54 75 55 77 45
shrinkage=0.1


Tree=2
num_leaves=10
num_cat=0
split_feature=12 5 7 12 12 12 7 10 2
split_gain=83.3617 21.057 18.2676 5.50538 3.50515 3.25167 1.51257 0.511366 0.370004
threshold=16.040000000000003 6.6700000000000008 2.1067500000000003 23.880000000000003 9.5450000000000017 5.2200000000000015 4.4583000000000004 17.850000000000005 9.1250000000000018
decision_type=2 2 2 2 2 2 2 2 2
left_child=1 4 3 -2 6 -3 -1 -6 -9
right_child=2 5 -4 -5 7 -7 -8 8 -10
leaf_value=0.055043457075953484 -0.088704518635164611 0.10983493289639873 -0.028141684586714424 -0.15867655354997387 0.015957837351239647 0.063652511431525158 0.023136204227996181 -0.01012387307593599 0.005804626336321235
leaf_weight=24 22 31 35 23 26 30 39 25 35
leaf_count=24 22 31 35 23 26 30 39 25 35
internal_value=0 0.376323 -0.823252 -1.24468 0.173713 0.871223 0.352913 0.0424382 -0.00832248
internal_weight=0 210 80 45 149 61 63 86 60
internal_count=290 210 80 45 149 61 63 86 60
shrinkage=0.1


Tree=3
num_leaves=10
num_cat=0
split_feature=12 5 7 12 12 12 7 7 7
split_gain=67.5229 17.0562 14.7967 4.45935 2.83917 2.72647 1.22518 0.415617 0.412014
threshold=16.040000000000003 6.6700000000000008 2.1067500000000003 23.880000000000003 9.5450000000000017 4.6500000000000012 4.4583000000000004 4.4281000000000015 2.9118500000000003
decision_type=2 2 2 2 2 2 2 2 2
left_child=1 4 3 -2 6 -3 -1 8 -6
right_child=2 5 -4 -5 7 -7 -8 -9 -10
leaf_value=0.049539112010582663 -0.079834067245776019 0.10377982318401338 -0.025327516500838101 -0.14280889753414236 0.0012584661623757138 0.060792134841904044 0.02082258373594437 -0.0080375904534858746 0.017595279075276967
leaf_weight=24 22 25 35 23 38 36 39 22 26
leaf_count=24 22 25 35 23 38 36 39 22 26
internal_value=0 0.338691 -0.740927 -1.12021 0.156342 0.7841 0.317622 0.0381944 0.078953
internal_weight=0 210 80 45 149 61 63 86 64
internal_count=290 210 80 45 149 61 63 86 64
shrinkage=0.1


Tree=4
num_leaves=11
num_cat=0
split_feature=12 0 5 5 12 11 7 5 0 4
split_gain=53.6982 15.8718 14.3086 2.67177 2.3643 2.02232 1.08074 0.619596 0.258547 0.241515
threshold=16.040000000000003 9.2096600000000013 6.6700000000000008 7.3455000000000004 10.160000000000002 377.67500000000007 3.5949000000000004 6.1525000000000007 0.13773500000000002 0.58450000000000013
decision_type=2 2 2 2 2 2 2 2 2 2
left_child=2 5 4 -4 6 -2 -1 -8 -6 -10
right_child=1 -3 3 -5 8 -7 7 -9 9 -11
leaf_value=0.046383324015187105 -0.050851519139749668 -0.11429951661783788 0.056991532974337282 0.10214659485965967 0.0096287202827321991 -0.010103954274030724 0.0052131335425656296 0.027519057025060512 -0.0096430022591868277 0.004424570784296678
leaf_weight=20 21 36 38 20 24 29 20 33 26 23
leaf_count=20 21 36 38 20 24 29 20 33 26 23
internal_value=0 -0.636707 0.305432 0.725622 0.138506 -0.272179 0.265761 0.191017 0.0112516 -0.0303986
internal_weight=0 86 204 58 146 50 73 53 73 49
internal_count=290 86 204 58 146 50 73 53 73 49
shrinkage=0.1


Tree=5
num_leaves=11
num_cat=0
split_feature=4 0 5 12 5 12 7 10 5 2
split_gain=44.5496 18.1109 16.458 3.77895 2.83487 1.69938 0.820384 0.561334 0.362545 0.170454
threshold=0.6695000000000001 9.2096600000000013 6.6700000000000008 17.980000000000004 7.1705000000000014 9.5450000000000017 4.4583000000000004 18.650000000000002 6.3110000000000008 9.1250000000000018
decision_type=2 2 2 2 2 2 2 2 2 2
left_child=2 -2 3 5 -4 6 -1 -7 -8 -9
right_child=1 -3 4 -5 -6 7 8 9 -10 -11
leaf_value=0.041045104500583629 -0.02300222507910803 -0.13312875862632478 0.047069035793344177 -0.028296142083127054 0.091311682760715496 0.012633331962493494 0.0079309143192533935 -0.010754064032807946 0.026743495063856246 0.0016317668966948987
leaf_weight=22 32 28 30 26 28 38 21 20 20 25
leaf_count=22 32 28 30 26 28 38 21 20 20 25
internal_value=0 -0.743946 0.223621 0.0682844 0.684276 0.130835 0.254668 0.0368409 0.171078 -0.0387305
internal_weight=0 60 230 172 58 146 63 83 41 45
internal_count=290 60 230 172 58 146 63 83 41 45
shrinkage=0.1


Tree=6
num_leaves=12
num_cat=0
split_feature=12 0 12 5 12 12 2 0 12 7 10
split_gain=39.4147 9.94322 9.7732 3.67889 2.86108 0.856187 0.848452 0.787575 0.321233 0.291366 0.0565572
threshold=16.040000000000003 5.5111050000000015 4.4750000000000005 6.5995000000000008 23.255000000000003 9.5450000000000017 4.2200000000000006 0.053660000000000006 14.095000000000001 3.9968000000000004 19.900000000000002
decision_type=2 2 2 2 2 2 2 2 2 2 2
left_child=2 -2 -1 5 -3 7 -5 -4 9 10 -7
right_child=1 4 3 6 -6 8 -8 -9 -10 -11 -12
leaf_value=0.085504902834477647 -0.017951580094853165 -0.065404677108206133 0.0029794682582308142 0.056033872990381151 -0.11461929338318962 0.013856989378109575 0.028232489720634791 0.027752325813652889 -0.0087319900769562957 -0.0040681534513298959 0.0065094442665576931
leaf_weight=23 37 27 21 21 21 22 23 33 21 21 20
leaf_count=23 37 27 21 21 21 22 23 33 21 21 20
internal_value=0 -0.569075 0.240844 0.163225 -0.869361 0.0829446 0.415013 0.181184 0.0197904 0.0554939 0.103582
internal_weight=0 85 205 182 48 138 44 54 84 63 42
internal_count=290 85 205 182 48 138 44 54 84 63 42
shrinkage=0.1


Tree=7
num_leaves=11
num_cat=0
split_feature=12 0 12 5 12 12 0 7 12 7
split_gain=31.9259 8.05401 7.91629 2.99618 2.31747 0.930454 0.492148 0.4678 0.245222 0.262118
threshold=16.040000000000003 5.5111050000000015 4.4750000000000005 6.8060000000000009 23.255000000000003 10.160000000000002 0.06653000000000002 3.8973000000000004 14.095000000000001 3.7156500000000006
decision_type=2 2 2 2 2 2 2 2 2 2
left_child=2 -2 -1 5 -3 6 -4 -8 9 -7
right_child=1 4 3 -5 -6 8 7 -9 -10 -11
leaf_value=0.076954411715269094 -0.016156421770417206 -0.058864210104500804 0.0069891230591262385 0.04416124207963204 -0.10315736255475455 0.010315862893784311 0.034455356374382975 0.014209820438176394 -0.0078587913309179618 -0.0036926345518705525
leaf_weight=23 37 27 30 29 21 34 21 25 21 22
leaf_count=23 37 27 30 29 21 34 21 25 21 22
internal_value=0 -0.512168 0.21676 0.146902 -0.782425 0.0910424 0.169537 0.234523 0.0135671 0.0481252
internal_weight=0 85 205 182 48 153 76 46 77 56
internal_count=290 85 205 182 48 153 76 46 77 56
shrinkage=0.1


Tree=8
num_leaves=12
num_cat=0
split_feature=12 12 5 0 11 7 11 5 5 12 6
split_gain=30.1539 10.6818 4.46213 3.03775 2.18572 1.23562 0.841569 0.781197 0.48523 0.37003 0.206646
threshold=21.620000000000005 9.6550000000000029 7.1705000000000014 6.1325850000000006 356.14000000000004 3.2759000000000005 372.28500000000003 6.7095000000000011 5.9390000000000009 7.5450000000000008 74.100000000000009
decision_type=2 2 2 2 2 2 2 2 2 2 2
left_child=1 2 5 6 -2 -1 -3 9 -8 -7 -10
right_child=4 3 -4 -5 -6 7 8 -9 10 -11 -12
leaf_value=0.045121094244532291 -0.10455613680183889 -0.017116291610443073 0.068546202459505629 -0.039117330864071848 -0.057804401796311147 0.017457628388409363 -0.0066353357011953804 0.033989911011885858 0.018058165172114969 0.00047718605381392298 0.0052479719883515782
leaf_weight=20 20 23 28 25 20 33 26 20 20 21 34
leaf_count=20 20 23 28 25 20 33 26 20 20 21 34
internal_value=0 0.123324 0.335052 -0.0784791 -0.811803 0.230675 -0.00258244 0.17107 0.0458845 0.108541 0.0999249
internal_weight=0 250 122 128 40 94 103 74 80 54 54
internal_count=290 250 122 128 40 94 103 74 80 54 54
shrinkage=0.1


Tree=9
num_leaves=12
num_cat=0
split_feature=0 5 12 11 4 9 10 12 2 8 10
split_gain=25.1764 9.12081 4.24197 3.93545 1.49232 1.04716 1.0142 0.676296 0.372635 0.351002 0.125659
threshold=9.3647600000000022 6.8675000000000006 14.200000000000001 348.00500000000005 0.60100000000000009 302.00000000000006 19.150000000000002 4.7150000000000007 4.8950000000000005 4.5000000000000009 18.450000000000003
decision_type=2 2 2 2 2 2 2 2 2 2 2
left_child=1 2 4 -4 5 8 -5 -3 -1 -7 -10
right_child=-2 7 3 6 -6 9 -8 -9 10 -11 -12
leaf_value=0.027227507963437925 -0.078773535172351528 0.066935180928558116 -0.054537202136790641 0.014674146440811456 0.036405610507686752 -0.0088509568246081475 -0.015538076141849162 0.041240955250603811 0.01649743224538508 0.0060793773271143438 0.0054219255829229956
leaf_weight=22 36 20 21 20 21 32 25 21 21 31 20
leaf_count=22 36 20 21 20 21 32 25 21 21 31 20
internal_value=0 0.105833 0.0226942 -0.187917 0.117254 0.0761206 -0.0211042 0.537747 0.167284 -0.0150428 0.110947
internal_weight=0 254 213 66 147 126 45 41 63 63 41
internal_count=290 254 213 66 147 126 45 41 63 63 41
shrinkage=0.1


Tree=10
num_leaves=11
num_cat=0
split_feature=12 12 4 12 5 5 0 10 5 2
split_gain=24.1155 5.42129 4.7764 1.84053 1.11769 0.876901 0.360373 0.335479 0.319296 0.0745922
threshold=18.905000000000005 5.2200000000000015 0.67500000000000016 11.730000000000002 6.8530000000000006 6.2260000000000009 0.049565000000000005 18.350000000000005 5.9015000000000013 9.7950000000000017
decision_type=2 2 2 2 2 2 2 2 2 2
left_child=1 -1 -2 4 6 8 -3 -8 -5 -9
right_child=2 3 -4 5 -6 -7 7 9 -10 -11
leaf_value=0.047027880532314652 -0.027929945728233593 -0.0017719669186550637 -0.089275054195895792 -0.0075612675398588182 0.034636322799183071 -0.022758129725910046 0.021378444728476029 0.0030729721935296604 0.0064529394907121736 0.011511081582866609
leaf_weight=37 22 23 30 29 21 22 27 22 37 20
leaf_count=37 22 23 30 29 21 22 27 22 37 20
internal_value=0 0.118508 -0.633214 0.053754 0.138199 -0.0546815 0.0906837 0.126818 0.00295182 0.0709112
internal_weight=0 238 52 201 113 88 92 69 66 42
internal_count=290 238 52 201 113 88 92 69 66 42
shrinkage=0.1


Tree=11
num_leaves=11
num_cat=0
split_feature=12 12 7 12 5 11 2 4 10 11
split_gain=19.5336 4.39124 4.23912 1.5367 0.977865 0.929501 0.531172 0.364731 0.254713 0.136125
threshold=18.905000000000005 5.2200000000000015 1.8625500000000004 12.365000000000002 6.5425000000000013 368.65500000000003 13.360000000000001 0.49600000000000005 19.650000000000002 393.75500000000005
decision_type=2 2 2 2 2 2 2 2 2 2
left_child=1 -1 -2 4 6 -5 7 9 -7 -3
right_child=2 3 -4 5 -6 8 -8 -9 -10 -11
leaf_value=0.042325092590338481 -0.079561548680067068 0.0011545669054612519 -0.02087349185720086 -0.024054644478573688 0.025443558057619109 0.008112689957022667 0.020218291510827841 -0.0085403762676793601 -0.0052690479534000835 0.012553584093058651
leaf_weight=37 32 20 20 21 37 25 20 23 33 22
leaf_count=37 32 20 20 21 37 25 20 23 33 22
internal_value=0 0.106657 -0.569892 0.0483786 0.118739 -0.0602796 0.0596715 0.0158218 0.00498943 0.0712548
internal_weight=0 238 52 201 122 79 85 65 58 42
internal_count=290 238 52 201 122 79 85 65 58 42
shrinkage=0.1


Tree=12
num_leaves=12
num_cat=0
split_feature=4 4 5 0 10 12 6 7 10 4 5
split_gain=11.0239 6.21232 4.8838 1.68454 2.93308 1.18215 0.386685 0.38961 0.281939 0.418017 0.182321
threshold=0.6695000000000001 0.70650000000000002 7.096000000000001 4.6013800000000007 19.650000000000002 14.200000000000001 22.600000000000005 4.4583000000000004 17.500000000000004 0.49600000000000005 6.1045000000000007
decision_type=2 2 2 2 2 2 2 2 2 2 2
left_child=2 -2 3 4 6 -6 -1 8 -8 -10 -9
right_child=1 -3 -4 -5 5 -7 7 10 9 -11 -12
leaf_value=0.022360841664688096 -0.078944346715103503 -0.010746570739566405 0.050264819120538651 0.031314909504726533 -0.0046279073477937622 -0.036965883492957805 0.022149025474905298 -0.005605907587423211 0.018476914775092154 -0.0019685530359856785 0.0067202658691842641
leaf_weight=23 22 34 29 24 26 20 23 21 20 20 28
leaf_count=23 22 34 29 24 26 20 23 21 20 20 28
internal_value=0 -0.375386 0.118544 0.0642074 0.0311986 -0.186879 0.105506 0.0812534 0.133269 0.0825418 0.0143762
internal_weight=0 56 234 205 181 46 135 112 63 40 49
internal_count=290 56 234 205 181 46 135 112 63 40 49
shrinkage=0.1


Tree=13
num_leaves=12
num_cat=0
split_feature=4 4 5 0 10 12 5 12 10 5 6
split_gain=8.92938 5.03198 3.96058 1.30108 2.50917 0.957538 0.398734 0.383094 0.27253 0.19966 0.187497
threshold=0.6695000000000001 0.70650000000000002 7.2045000000000012 4.6013800000000007 19.650000000000002 14.200000000000001 6.5425000000000013 12.965000000000002 17.350000000000005 6.0615000000000014 43.600000000000001
decision_type=2 2 2 2 2 2 2 2 2 2 2
left_child=2 -2 3 4 6 -6 7 9 -8 -1 -11
right_child=1 -3 -4 -5 5 -7 8 -9 -10 10 -12
leaf_value=-0.0045304176242401207 -0.071049911461093213 -0.0096719135283766435 0.049152527625362083 0.028183417984594901 -0.0041651166635207262 -0.033269294979982079 0.026220382829861985 0.017742302124995901 0.010463875256802726 0.013179252233923132 0.00078430808901500245
leaf_weight=24 22 34 24 24 26 20 21 23 23 23 26
leaf_count=24 22 34 24 24 26 20 21 23 23 23 26
internal_value=0 -0.337847 0.10669 0.0627085 0.0344342 -0.168191 0.101011 0.064881 0.17984 0.0294226 0.0660234
internal_weight=0 56 234 210 186 46 140 96 44 73 49
internal_count=290 56 234 210 186 46 140 96 44 73 49
shrinkage=0.1


Tree=14
num_leaves=11
num_cat=0
split_feature=4 0 5 5 0 10 9 11 5 10
split_gain=8.92404 5.71083 2.77128 0.840897 0.788267 0.862134 0.42704 0.264104 0.204101 0.134049
threshold=0.6695000000000001 9.3647600000000022 6.5425000000000013 7.2045000000000012 3.6856650000000006 19.650000000000002 278.00000000000006 392.90500000000003 5.9015000000000013 17.700000000000006
decision_type=2 2 2 2 2 2 2 2 2 2
left_child=2 -2 4 7 5 6 -1 -4 -8 -10
right_child=1 -3 3 -5 -6 -7 8 -9 9 -11
leaf_value=0.015679635535925628 -0.0053973198073970921 -0.067655878757628116 0.027014683879425995 0.041898622229695322 0.021989489141851667 -0.011838066341498725 -0.0068394073462557234 0.012166473113000393 0.010246840676215167 -0.00043660372536143534
leaf_weight=30 34 26 23 25 20 39 21 25 24 23
leaf_count=30 34 26 23 25 20 39 21 25 24 23
internal_value=0 -0.32376 0.109292 0.270269 0.0344426 0.00736929 0.0574126 0.192812 0.0135669 0.0501877
internal_weight=0 60 230 73 157 137 98 48 68 47
internal_count=290 60 230 73 157 137 98 48 68 47
shrinkage=0.1


Tree=15
num_leaves=10
num_cat=0
split_feature=4 0 5 7 0 7 6 12 6
split_gain=7.22847 4.62577 2.26404 1.41713 0.857747 0.325688 0.266305 0.16517 0.135298
threshold=0.6695000000000001 9.3647600000000022 7.003000000000001 1.9406500000000002 0.61913000000000007 6.488900000000001 33.150000000000013 12.365000000000002 68.15000000000002
decision_type=2 2 2 2 2 2 2 2 2
left_child=2 -2 3 -1 5 6 -5 8 -8
right_child=1 -3 -4 4 -6 -7 7 -9 -10
leaf_value=0.031007110280916097 -0.0048575879155096655 -0.060890291172724514 0.034077458591623741 0.017518701659551321 -0.011893874668021455 -0.003084268589348843 0.0072834151145070788 0.011626361818476157 -0.0025723934066123689
leaf_weight=20 34 26 33 26 32 30 30 33 26
leaf_count=20 34 26 33 26 32 30 30 33 26
internal_value=0 -0.291384 0.0983627 0.0577557 0.0292454 0.0619482 0.0861545 0.060145 0.027075
internal_weight=0 60 230 197 177 145 115 89 56
internal_count=290 60 230 197 177 145 115 89 56
shrinkage=0.1


Tree=16
num_leaves=10
num_cat=0
split_feature=11 12 12 5 7 6 5 7 10
split_gain=6.37521 2.50788 1.8922 0.687087 0.476173 0.342729 0.392189 0.25298 0.156753
threshold=99.070000000000007 4.4750000000000005 20.000000000000004 6.8060000000000009 2.1691500000000006 68.950000000000003 5.9605000000000006 5.6044500000000008 19.050000000000004
decision_type=2 2 2 2 2 2 2 2 2
left_child=-1 -2 3 4 -3 6 -6 -8 -7
right_child=1 2 -4 -5 5 8 7 -9 -10
leaf_value=-0.054052331261336808 0.036043495328530024 0.015090119326487184 -0.019007215364591074 0.01899063869289333 -0.0057631393911343858 0.0011788658564910294 0.014001797875205644 0.0012004704639996188 -0.0091980014285827812
leaf_weight=20 23 27 38 31 26 24 38 26 37
leaf_count=20 23 27 38 31 26 24 38 26 37
internal_value=0 0.0446028 0.0151933 0.0525143 0.0285865 0.00671561 0.0459377 0.0880126 -0.051153
internal_weight=0 270 247 209 178 151 90 64 61
internal_count=290 270 247 209 178 151 90 64 61
shrinkage=0.1


Tree=17
num_leaves=12
num_cat=0
split_feature=11 12 10 7 5 12 10 0 9 9 0
split_gain=5.16392 2.07355 1.55997 1.37841 1.21264 0.891103 0.285676 0.244608 0.163974 0.203555 0.132778
threshold=99.070000000000007 14.200000000000001 19.150000000000002 2.1171500000000001 7.096000000000001 20.000000000000004 18.350000000000005 0.046750000000000007 361.00000000000006 302.00000000000006 0.092150000000000024
decision_type=2 2 2 2 2 2 2 2 2 2 2
left_child=-1 3 -3 -2 6 -4 7 -5 9 -8 -9
right_child=1 2 5 4 -6 -7 8 10 -10 -11 -12
leaf_value=-0.048647097572684289 0.034747515292838219 0.014010573491792789 -0.0055802935706169322 -0.00011343401451797589 0.027728386483310413 -0.029393433102717005 0.0016017901547322119 0.018092080616307529 0.0056088343850345928 -0.011356432841752064 0.0069753598056974762
leaf_weight=20 20 22 33 23 24 30 27 22 26 22 21
leaf_count=20 20 22 33 23 24 30 27 22 26 22 21
internal_value=0 0.0401425 -0.0891435 0.0995442 0.0694919 -0.169199 0.0341231 0.082106 -0.0081018 -0.0421619 0.12663
internal_weight=0 270 85 185 165 63 141 66 75 49 43
internal_count=290 270 85 185 165 63 141 66 75 49 43
shrinkage=0.1


Tree=18
num_leaves=10
num_cat=0
split_feature=12 12 11 5 6 8 5 9 5
split_gain=6.19543 1.7803 1.03494 0.371621 0.177657 0.361994 0.232616 0.208869 0.0954002
threshold=23.880000000000003 5.2200000000000015 288.69000000000005 5.870000000000001 94.350000000000009 7.5000000000000009 6.6185000000000009 346.50000000000006 6.128000000000001
decision_type=2 2 2 2 2 2 2 2 2
left_child=1 -1 -3 -4 5 6 7 8 -5
right_child=-2 2 3 4 -6 -7 -8 -9 -10
leaf_value=0.02459605537342692 -0.042041142017842509 -0.018916821864474079 -0.006362577676190995 0.0008477763663376532 -0.0021744220231014947 0.01747060869104014 0.013121001688220228 -0.0061785957654533182 0.0084656159706979189
leaf_weight=38 32 23 32 31 26 26 24 23 35
leaf_count=38 32 23 32 31 26 26 24 23 35
internal_value=0 0.0460866 0.011563 0.0349986 0.0541257 0.0683173 0.0438384 0.0202775 0.0488754
internal_weight=0 258 220 197 165 139 113 89 66
internal_count=290 258 220 197 165 139 113 89 66
shrinkage=0.1


Tree=19
num_leaves=12
num_cat=0
split_feature=0 11 12 12 10 9 8 4 7 5 12
split_gain=5.26552 2.25618 1.5198 1.04344 0.474313 0.415565 0.513494 0.238244 0.188947 0.17295 0.0520615
threshold=14.143450000000003 348.00500000000005 17.115000000000006 4.4750000000000005 15.250000000000002 291.00000000000006 6.5000000000000009 0.68600000000000005 4.5215000000000005 6.0615000000000014 9.2050000000000018
decision_type=2 2 2 2 2 2 2 2 2 2 2
left_child=1 2 -1 -3 -5 8 9 -8 -6 -7 -11
right_child=-2 3 -4 4 5 6 7 -9 -10 10 -12
leaf_value=0.00085937665542587635 -0.048711779642672766 0.02683570043494304 -0.038125196397304537 0.019036023132503035 0.015323076356622962 -0.010800904731149787 0.015078685995346557 0.00030065515777096154 0.0043687697994755584 -0.0043659221070508165 0.0024519562277765502
leaf_weight=20 21 24 20 21 31 32 24 20 32 24 21
leaf_count=20 21 24 20 21 31 32 24 20 32 24 21
internal_value=0 0.0327991 -0.186329 0.0710747 0.0479782 0.0317281 -0.00256351 0.083614 0.0975898 -0.0518078 -0.0118425
internal_weight=0 269 40 229 205 184 121 44 63 77 45
internal_count=290 269 40 229 205 184 121 44 63 77 45
shrinkage=0.1


Tree=20
num_leaves=11
num_cat=0
split_feature=12 4 7 5 5 10 6 0 6 1
split_gain=4.74749 1.19348 0.969828 1.02448 0.463134 0.19333 0.320519 0.131024 0.12264 0.0388917
threshold=23.880000000000003 0.67500000000000016 2.0330500000000007 7.2045000000000012 5.870000000000001 17.500000000000004 73.000000000000014 0.065025000000000013 54.20000000000001 15.000000000000002
decision_type=2 2 2 2 2 2 2 2 2 2
left_child=1 2 -1 4 -4 7 8 -6 9 -7
right_child=-2 -3 3 -5 5 6 -8 -9 -10 -11
leaf_value=0.026606235932558776 -0.039215303783615429 -0.013578224552819798 -0.012162720209554487 0.02442872832928385 0.0015620756591670218 -0.00091997934784740206 -0.0067962609972853812 0.011819573943362091 0.010819845680486072 0.0049963132682023575
leaf_weight=20 30 38 23 21 20 25 38 33 22 20
leaf_count=20 30 38 23 21 20 25 38 33 22 20
internal_value=0 0.0279771 0.056008 0.0352106 0.0109531 0.0302527 0.00540052 0.0794882 0.0470095 0.0170948
internal_weight=0 260 222 202 181 158 105 53 67 45
internal_count=290 260 222 202 181 158 105 53 67 45
shrinkage=0.1


Tree=21
num_leaves=13
num_cat=0
split_feature=0 10 12 7 5 9 8 0 7 5 0 0
split_gain=4.07502 1.15876 1.86125 0.602166 0.496886 0.270433 0.273176 0.209771 0.177046 0.184718 0.176628 0.0809743
threshold=14.143450000000003 18.650000000000002 19.530000000000005 2.1691500000000006 7.2045000000000012 291.00000000000006 4.5000000000000009 4.6013800000000007 3.0992500000000005 6.0615000000000014 0.056895000000000008 0.38474500000000006
decision_type=2 2 2 2 2 2 2 2 2 2 2 2
left_child=1 4 3 -3 5 10 -7 8 -5 -10 -1 -8
right_child=-2 2 -4 7 -6 6 11 -9 9 -11 -12 -13
leaf_value=0.0047794950474053625 -0.0427670639177615 0.01572984989986501 -0.029804151264640196 0.0075743092600965792 0.021955675475866254 -0.0080263291392475376 0.0021274112928658727 -0.011488031906386217 -0.010732175456359983 0.0020508133752558094 0.017387626972049475 0.010550527629398164
leaf_weight=20 22 22 24 21 23 20 25 21 20 26 25 21
leaf_count=20 22 22 24 21 23 20 25 21 20 26 25 21
internal_value=0 0.0200271 -0.0457279 0.00932238 0.0857822 0.0580631 0.017306 -0.0276717 -0.000337592 -0.0350701 0.11784 0.0597275
internal_weight=0 268 134 110 134 111 66 88 67 46 45 46
internal_count=290 268 134 110 134 111 66 88 67 46 45 46
shrinkage=0.1


Tree=22
num_leaves=11
num_cat=0
split_feature=12 4 7 5 10 6 7 5 12 12
split_gain=1.82298 0.795602 1.62367 0.793733 0.282212 0.239575 0.15076 0.143285 0.161617 0.103043
threshold=23.880000000000003 0.67500000000000016 2.0330500000000007 7.2045000000000012 17.500000000000004 73.000000000000014 3.0793000000000004 5.9015000000000013 9.0950000000000006 8.4700000000000006
decision_type=2 2 2 2 2 2 2 2 2 2
left_child=1 2 -1 4 9 7 -7 -6 -9 -4
right_child=-2 -3 3 -5 5 6 -8 8 -10 -11
leaf_value=0.031374963433178062 -0.022850507228369163 -0.0098127440924549274 0.011299464420881124 0.021748945633659051 -0.0056780197145417342 -0.0016484046055536185 -0.013630917739300502 -0.00021385705460690791 0.010252294266596436 0.0029304270963034324
leaf_weight=23 28 36 28 21 20 21 21 36 25 31
leaf_count=23 28 36 28 21 20 21 21 36 25 31
internal_value=0 0.0399429 0.0619364 0.0334058 0.0121654 -0.0151071 -0.0763966 0.0166726 0.0407555 0.0690217
internal_weight=0 262 226 203 182 123 42 81 61 59
internal_count=290 262 226 203 182 123 42 81 61 59
shrinkage=0.1


Tree=23
num_leaves=11
num_cat=0
split_feature=4 4 0 7 4 0 9 12 0 10
split_gain=1.49571 1.75962 0.994503 1.55113 1.33634 0.638051 0.434997 0.206554 0.211001 0.152217
threshold=0.67500000000000016 0.71550000000000014 0.27447500000000008 1.9406500000000002 0.53500000000000014 0.61913000000000007 225.00000000000003 7.5450000000000008 0.068995000000000015 17.500000000000004
decision_type=2 2 2 2 2 2 2 2 2 2
left_child=2 -2 4 -4 6 -5 -1 9 -9 -8
right_child=1 -3 3 5 -6 -7 7 8 -10 -11
leaf_value=0.016367237942970611 -0.028685172874247655 0.008567958543564947 0.03763858582824469 0.017303243898121375 -0.023636579094454647 -0.0025910718783148027 0.011628135455691297 -0.011434488159138709 0.0012551454637248658 0.00055753001512062771
leaf_weight=22 32 21 20 28 21 38 23 20 38 27
leaf_count=22 32 21 20 28 21 38 23 20 38 27
internal_value=0 -0.139245 0.0465831 0.132419 -0.00230349 0.0584894 0.0355066 0.00939872 -0.0312059 0.0565001
internal_weight=0 53 237 86 151 66 130 108 58 50
internal_count=290 53 237 86 151 66 130 108 58 50
shrinkage=0.1


Tree=24
num_leaves=10
num_cat=0
split_feature=0 11 7 2 10 12 7 2 0
split_gain=1.97718 0.716069 0.864631 0.482416 0.408883 0.248395 0.0973278 0.0935114 0.107186
threshold=14.143450000000003 340.26000000000005 1.8951000000000002 2.9600000000000004 16.500000000000004 14.545000000000002 5.7265000000000006 9.7950000000000017 0.10379500000000001
decision_type=2 2 2 2 2 2 2 2 2
left_child=1 -1 -3 -4 -5 6 7 8 -6
right_child=-2 2 3 4 5 -7 -8 -9 -10
leaf_value=-0.0094829789996664568 -0.028216389371525676 0.023647410843598969 0.016352705695093252 0.012063752324320377 -0.0038935504155233505 0.0074410440778592607 -0.0080289923008531328 -0.0052968664872671736 0.0046872540965449778
leaf_weight=36 21 24 26 32 24 32 25 33 37
leaf_count=36 21 24 26 32 24 32 25 33 37
internal_value=0 0.0364289 0.0567092 0.0360663 0.0179571 -0.00380297 -0.0248351 -0.0100865 0.013112
internal_weight=0 269 233 209 183 151 119 94 61
internal_count=290 269 233 209 183 151 119 94 61
shrinkage=0.1


Tree=25
num_leaves=12
num_cat=0
split_feature=4 0 0 10 2 5 2 10 0 6 9
split_gain=1.68463 1.9914 1.19111 0.686403 0.36704 0.328203 0.30333 0.240773 0.153987 0.144855 0.104386
threshold=0.6695000000000001 9.3647600000000022 3.6856650000000006 19.650000000000002 2.9600000000000004 6.0955000000000004 10.300000000000002 16.250000000000004 0.27447500000000008 62.350000000000009 291.00000000000006
decision_type=2 2 2 2 2 2 2 2 2 2 2
left_child=2 -2 3 4 -1 -5 7 -6 9 10 -9
right_child=1 -3 -4 5 6 -7 -8 8 -10 -11 -12
leaf_value=0.016901214141398668 0.0022110252065056769 -0.034553493122355297 0.025702287897467615 -0.018158887624740602 0.010717131328281193 -0.00025949215826888883 0.012429610576170187 0.0039931923189821346 0.0056584456372850891 -0.010547724242011707 -0.005788779516879004
leaf_weight=24 34 26 25 20 21 21 30 24 24 21 20
leaf_count=24 34 26 25 20 21 21 30 24 24 21 20
internal_value=0 -0.137203 0.0509508 0.0258201 0.0547524 -0.089909 0.035165 0.0108565 -0.0118695 -0.0371448 -0.00453159
internal_weight=0 60 230 205 164 41 140 110 89 65 44
internal_count=290 60 230 205 164 41 140 110 89 65 44
shrinkage=0.1


Tree=26
num_leaves=11
num_cat=0
split_feature=11 10 4 7 6 12 9 6 8 5
split_gain=1.84589 0.56042 0.524087 1.69072 0.525074 0.176778 0.15763 0.144513 0.192089 0.0446918
threshold=99.070000000000007 15.250000000000002 0.68600000000000005 1.7962000000000002 92.500000000000014 13.395000000000001 253.00000000000003 35.800000000000004 4.5000000000000009 6.3110000000000008
decision_type=2 2 2 2 2 2 2 2 2 2
left_child=-1 -2 3 -3 5 6 -5 -8 -9 -10
right_child=1 2 -4 4 -6 -7 7 8 9 -11
leaf_value=-0.028996366095962001 0.014293997561825172 0.030314498660154645 -0.010372543185561274 0.0071289727518048423 -0.015612927540787497 0.0092986088059842584 0.0039705022097085464 -0.01052733565946775 -0.003083105526457075 0.0030855894088745121
leaf_weight=20 35 20 36 26 20 25 33 28 24 23
leaf_count=20 35 20 36 26 20 25 33 28 24 23
internal_value=0 0.0248875 0.00730526 0.0273912 -0.00341926 0.0157895 0.0013872 -0.0154412 -0.0397055 -0.000643825
internal_weight=0 270 235 199 179 159 134 108 75 47
internal_count=290 270 235 199 179 159 134 108 75 47
shrinkage=0.1


Tree=27
num_leaves=11
num_cat=0
split_feature=11 11 7 7 11 10 11 6 0 2
split_gain=1.49517 0.505639 1.14992 0.809923 0.409729 0.237183 0.151093 0.157112 0.138936 0.095035
threshold=99.070000000000007 379.55500000000006 1.8217500000000002 1.8148500000000001 373.23000000000008 15.750000000000002 390.24000000000007 62.350000000000009 0.28957500000000008 5.160000000000001
decision_type=2 2 2 2 2 2 2 2 2 2
left_child=-1 2 -2 -3 -4 -5 -7 9 -9 -8
right_child=1 3 4 5 -6 6 7 8 -10 -11
leaf_value=-0.026096729568671435 0.029780179653316738 -0.018478506795046003 -0.0052059294493643181 0.012127808206714691 0.012933112042956055 -0.0052245588813509269 0.011161871114745738 -0.0051481593928828437 0.0045019510090351109 0.0028194305102159788
leaf_weight=20 20 22 33 20 20 35 22 37 25 36
leaf_count=20 20 22 33 20 20 35 22 37 25 36
internal_value=0 0.0223988 0.0934891 -0.00394432 0.0163899 0.01879 0.00556568 0.0224273 -0.0125699 0.059838
internal_weight=0 270 73 197 53 175 155 120 62 58
internal_count=290 270 73 197 53 175 155 120 62 58
shrinkage=0.1


Tree=28
num_leaves=11
num_cat=0
split_feature=12 7 5 5 0 10 11 0 7 2
split_gain=1.93514 0.426295 0.715113 0.323781 0.0871845 0.167866 0.0694242 0.132708 0.170559 0.0519556
threshold=25.295000000000005 1.7538500000000001 5.7440000000000007 7.4025000000000007 0.049565000000000005 17.850000000000005 396.02500000000003 5.5111050000000015 3.0992500000000005 6.3050000000000006
decision_type=2 2 2 2 2 2 2 2 2 2
left_child=1 -1 -3 4 -4 9 7 8 -7 -6
right_child=-2 2 3 -5 5 6 -8 -9 -10 -11
leaf_value=0.015258126451887869 -0.028306058170678824 -0.015667943097651005 -0.0029452719976409123 0.014641063306480646 0.0096791098779067403 0.010125428806238164 -0.0042158056275054282 -0.00486723811507387 -0.00077866521023679531 0.0033618382502185263
leaf_weight=22 23 24 39 20 30 26 28 23 32 23
leaf_count=22 23 24 39 20 30 26 28 23 32 23
internal_value=0 0.019238 0.0072643 0.0250681 0.0129943 0.023213 0.000766498 0.0156046 0.0410938 0.0693765
internal_weight=0 267 245 221 201 162 109 81 58 53
internal_count=290 267 245 221 201 162 109 81 58 53
shrinkage=0.1


Tree=29
num_leaves=12
num_cat=0
split_feature=0 11 7 12 12 9 10 0 12 7 9
split_gain=1.72582 0.749268 0.651073 0.548971 0.335611 0.156622 0.176181 0.119879 0.159376 0.0713568 0.043124
threshold=14.143450000000003 348.00500000000005 2.1171500000000001 18.570000000000004 4.6500000000000012 291.00000000000006 17.850000000000005 0.06186500000000001 12.020000000000001 2.5261500000000008 322.00000000000006
decision_type=2 2 2 2 2 2 2 2 2 2 2
left_child=1 2 -1 4 -3 6 -6 -7 10 -10 -9
right_child=-2 3 -4 -5 5 7 -8 8 9 -11 -12
leaf_value=-0.023656888231635094 -0.028036261296698024 0.012208578201631706 0.0018592530908063056 0.019762388900853696 0.012049218030138449 -0.008197366685739586 0.00085739171168265442 0.00046907783485949044 -0.0077000723155215391 0.00010874269911172715 0.0064637996578433866
leaf_weight=20 21 30 20 20 22 21 39 20 25 22 30
leaf_count=20 21 30 20 20 22 21 39 20 25 22 30
internal_value=0 0.0172905 -0.108988 0.0393479 0.0242019 0.00779678 0.0489379 -0.0134711 0.00135939 -0.0404488 0.0406591
internal_weight=0 269 40 229 209 179 61 118 97 47 50
internal_count=290 269 40 229 209 179 61 118 97 47 50
shrinkage=0.1


Tree=30
num_leaves=11
num_cat=0
split_feature=6 11 12 9 12 0 10 12 11 11
split_gain=2.43436 0.264196 0.324391 0.191053 0.131198 0.171918 0.108138 0.0754481 0.0747395 0.0741998
threshold=97.950000000000017 340.26000000000005 18.095000000000002 225.00000000000003 7.6500000000000012 0.068995000000000015 17.500000000000004 12.020000000000001 392.79000000000002 392.19000000000005
decision_type=2 2 2 2 2 2 2 2 2 2
left_child=1 -1 3 -3 6 -6 -5 8 -7 -9
right_child=-2 2 -4 4 5 7 -8 9 -10 -11
leaf_value=-0.0061607194460324343 -0.028419510253394644 0.01053059623386203 0.014792525342532567 0.0080873358857763162 -0.0094017618505114874 0.0075680533339354122 0.00022325315254016054 -0.006895520574721559 -0.00087837845319882035 0.0012062252463343054
leaf_weight=37 30 22 21 34 22 22 36 20 20 26
leaf_count=37 30 22 21 34 22 22 36 20 20 26
internal_value=0 0.0166507 0.0296352 0.0173377 0.00658605 -0.0149507 0.0404295 0.00481603 0.0354594 -0.0231627
internal_weight=0 260 223 202 180 110 70 88 42 46
internal_count=290 260 223 202 180 110 70 88 42 46
shrinkage=0.1


Tree=31
num_leaves=11
num_cat=0
split_feature=6 11 11 7 2 10 5 12 0 9
split_gain=1.97183 0.213999 0.306263 0.624403 0.19618 0.100032 0.147896 0.0855003 0.1171 0.0573537
threshold=97.950000000000017 340.26000000000005 382.62000000000006 3.6584500000000006 3.3900000000000006 16.500000000000004 6.6305000000000005 7.6500000000000012 0.17073000000000002 431.00000000000006
decision_type=2 2 2 2 2 2 2 2 2 2
left_child=1 -1 3 -3 -4 -6 7 -7 -9 -10
right_child=-2 2 4 -5 5 6 -8 8 9 -11
leaf_value=-0.0055446470936609286 -0.025577559343849622 0.020197273289354948 0.008771274303301024 -0.0029865559046378452 0.0054303270562187488 0.0051772152610204143 -0.0094037788853581477 -0.0062222037313725146 0.0050533321979658111 -0.0018019970309419129
leaf_weight=37 30 26 26 21 23 23 21 34 23 26
leaf_count=37 30 26 26 21 23 23 21 34 23 26
internal_value=0 0.0149856 0.0266717 0.0983854 0.00752085 -0.00637907 -0.0173688 -0.00217965 -0.0171301 0.0141581
internal_weight=0 260 223 47 176 150 127 106 83 49
internal_count=290 260 223 47 176 150 127 106 83 49
shrinkage=0.1


Tree=32
num_leaves=12
num_cat=0
split_feature=7 6 12 11 5 7 6 9 2 9 7
split_gain=0.946953 1.81685 0.381455 0.203024 0.265162 0.130879 0.157413 0.0733237 0.0566974 0.0936419 0.0468154
threshold=1.5313500000000002 97.950000000000017 19.530000000000005 361.21000000000009 7.2580000000000009 3.0793000000000004 84.90000000000002 332.00000000000006 4.8950000000000005 274.50000000000006 5.4972000000000003
decision_type=2 2 2 2 2 2 2 2 2 2 2
left_child=-1 2 3 -2 5 6 -5 8 -7 -10 -11
right_child=1 -3 -4 4 -6 7 -8 -9 9 10 -12
leaf_value=0.022071988596580924 -0.0075313267968595034 -0.026158794149756432 0.015376069406047464 0.012085317216115074 0.012950456899125129 0.0046144186438491141 0.00028488888548543824 -0.0047783638734151335 -0.0064653604418881952 0.0037388587603345517 -0.002392549066571519
leaf_weight=20 25 25 20 20 20 26 26 34 21 33 20
leaf_count=20 25 25 20 20 20 26 26 34 21 33 20
internal_value=0 -0.00479036 0.0214135 0.00964928 0.0202696 0.00813238 0.0541551 -0.00766647 0.00597337 -0.0081407 0.0142512
internal_weight=0 270 245 225 200 180 46 134 100 74 53
internal_count=290 270 245 225 200 180 46 134 100 74 53
shrinkage=0.1


Tree=33
num_leaves=11
num_cat=0
split_feature=7 7 4 4 7 5 5 4 11 11
split_gain=0.767032 1.60026 0.265127 0.304494 0.226065 0.16023 0.114515 0.0937963 0.0665908 0.028687
threshold=1.5313500000000002 1.8625500000000004 0.58450000000000013 0.53500000000000014 3.8973000000000004 6.3110000000000008 6.8675000000000006 0.70650000000000002 392.79000000000002 396.02500000000003
decision_type=2 2 2 2 2 2 2 2 2 2
left_child=-1 -2 3 4 5 -3 8 -4 -6 -10
right_child=1 2 7 -5 6 -7 -8 -9 9 -11
leaf_value=0.019864788921549918 -0.023064098515481288 0.015033333427272739 0.012265047980151302 -0.0077006237732397537 -0.0048705162631498804 0.0030247099921107291 0.0067372696800157422 0.0038136966060847047 0.0036591420811600984 -0.0012302201411997279
leaf_weight=20 28 20 29 37 37 25 20 24 20 30
leaf_count=20 28 20 29 37 37 25 20 24 20 30
internal_value=0 -0.00431133 0.0218756 0.00434782 0.0241511 0.0836188 -0.000858642 0.0843802 -0.016544 0.00725525
internal_weight=0 270 242 189 152 45 107 53 87 50
internal_count=290 270 242 189 152 45 107 53 87 50
shrinkage=0.1


Tree=34
num_leaves=12
num_cat=0
split_feature=12 7 2 12 0 5 10 0 6 0 12
split_gain=0.894757 0.699477 0.192318 0.14774 0.150386 0.0960322 0.137282 0.125882 0.111623 0.0703665 0.0409357
threshold=24.275000000000002 1.6727500000000004 2.9600000000000004 18.095000000000002 4.823900000000001 5.8825000000000012 16.500000000000004 0.52375500000000008 60.600000000000009 0.10379500000000001 10.250000000000002
decision_type=2 2 2 2 2 2 2 2 2 2 2
left_child=1 -1 -3 4 5 -4 -7 8 9 -8 -10
right_child=-2 2 3 -5 -6 6 7 -9 10 -11 -12
leaf_value=0.020654262946918606 -0.018314119640060449 0.009350682381325616 -0.0053017302049109 0.0076701748572910837 -0.0086387098811212034 0.0066672751912847166 -0.0018197100976425592 0.0068019059847574687 -0.0090985945565626031 0.0055850903719796667 -0.0027771165489130431
leaf_weight=20 22 26 26 24 21 36 33 20 20 21 21
leaf_count=20 22 26 26 24 21 36 33 20 20 21 21
internal_value=0 0.0266431 0.012135 0.00260502 -0.0063764 0.00311639 0.0127818 -0.00408841 -0.0192689 0.0105993 -0.0586076
internal_weight=0 268 248 222 198 177 151 115 95 54 41
internal_count=290 268 248 222 198 177 151 115 95 54 41
shrinkage=0.1


Tree=35
num_leaves=11
num_cat=0
split_feature=0 6 11 4 9 5 11 4 4 10
split_gain=0.766762 0.518499 0.293785 0.434394 0.192853 0.131464 0.166041 0.122629 0.126753 0.0981646
threshold=14.143450000000003 98.15000000000002 340.26000000000005 0.62750000000000006 282.50000000000006 6.1445000000000007 388.48500000000007 0.47800000000000004 0.44395000000000007 17.500000000000004
decision_type=2 2 2 2 2 2 2 2 2 2
left_child=1 2 -1 4 7 6 -6 8 -4 -7
right_child=-2 -3 3 -5 5 9 -8 -9 -10 -11
leaf_value=-0.0079508426178607258 -0.017437830035175596 0.017893354666884988 0.0076384775619953871 0.015451001974187143 -0.012309183366887737 0.0050408158797418355 -0.00094508404985794601 0.010615337382142362 -0.003361136665229093 -0.0024024984696606067
leaf_weight=31 21 20 20 23 20 37 36 26 22 34
leaf_count=31 21 20 20 23 20 37 36 26 22 34
internal_value=0 0.0240225 0.0115799 0.0245328 0.00920215 -0.0138096 -0.0500369 0.0521799 0.0187677 0.0147641
internal_weight=0 269 249 218 195 127 56 68 42 71
internal_count=290 269 249 218 195 127 56 68 42 71
shrinkage=0.1


Tree=36
num_leaves=12
num_cat=0
split_feature=11 11 7 7 6 10 5 9 11 5 5
split_gain=0.609036 0.501405 0.863551 0.397637 0.246045 0.0995678 0.136564 0.117348 0.128778 0.0495707 0.0267213
threshold=99.070000000000007 379.55500000000006 1.8217500000000002 1.8148500000000001 82.550000000000011 15.750000000000002 6.7275000000000009 284.50000000000006 390.84000000000009 5.971000000000001 6.3110000000000008
decision_type=2 2 2 2 2 2 2 2 2 2 2
left_child=-1 2 -2 -3 -4 -5 7 -7 -9 -10 -11
right_child=1 3 4 5 -6 6 -8 8 9 10 -12
leaf_value=-0.016611579256132245 0.026258222158066932 -0.01382082027954642 0.0090822625197470187 0.0070836853655055175 -0.004566578058126782 0.0056095283359019581 -0.0068763659853074283 -0.0076679995833811437 0.0051731113610523089 -0.0029076347146183255 0.0018709217251109132
leaf_weight=20 20 22 25 20 28 38 27 22 21 25 22
leaf_count=20 20 22 25 20 28 38 27 22 21 25 22
internal_value=0 0.0147363 0.0855283 -0.0114962 0.0187155 0.00443329 -0.00413491 0.00949772 -0.0101768 0.0113389 -0.00670864
internal_weight=0 270 73 197 53 175 155 128 90 68 47
internal_count=290 270 73 197 53 175 155 128 90 68 47
shrinkage=0.1


Tree=37
num_leaves=12
num_cat=0
split_feature=11 6 6 10 5 6 6 0 7 11 6
split_gain=0.493319 0.473731 0.315591 0.266532 0.110615 0.141804 0.21319 0.328881 0.0871553 0.0827148 0.0282264
threshold=99.070000000000007 98.450000000000017 96.950000000000017 15.250000000000002 5.7075000000000005 70.500000000000014 80.550000000000011 3.8123400000000003 3.8973000000000004 390.24000000000007 40.350000000000001
decision_type=2 2 2 2 2 2 2 2 2 2 2
left_child=-1 2 3 -2 -5 8 -7 -8 -6 -10 -11
right_child=1 -3 -4 4 5 6 7 -9 9 10 -12
leaf_value=-0.014950421368703247 0.01029871276114136 0.015389942484431563 -0.011649732109868811 0.0064002620461194419 0.0061571793663980703 -0.013159487531520426 -0.0072979209828190512 0.009048823877510586 -0.0050812227074056868 0.0038301257206307306 -0.00098843246232718242
leaf_weight=20 28 22 21 23 28 20 32 20 25 31 20
leaf_count=20 28 22 21 23 28 20 32 20 25 31 20
internal_value=0 0.0132627 0.000786878 0.011637 -0.00121633 -0.00973926 -0.0438537 -0.0101071 0.0138784 -0.00369281 0.019405
internal_weight=0 270 248 227 199 176 72 52 104 76 51
internal_count=290 270 248 227 199 176 72 52 104 76 51
shrinkage=0.1


Tree=38
num_leaves=12
num_cat=0
split_feature=12 8 5 11 4 5 0 5 0 11 9
split_gain=1.04758 0.357702 0.387241 0.241658 0.334916 0.0991139 0.0621436 0.0735122 0.0851705 0.0502998 0.0354088
threshold=25.295000000000005 7.5000000000000009 5.7200000000000015 387.03500000000003 0.67500000000000016 7.096000000000001 0.049565000000000005 6.315500000000001 0.22082500000000002 393.41000000000003 298.00000000000006
decision_type=2 2 2 2 2 2 2 2 2 2 2
left_child=1 2 -1 4 -3 6 -4 8 10 -9 -8
right_child=-2 3 5 -5 -6 -7 7 9 -10 -11 -12
leaf_value=-0.013923059998168834 -0.021044990436538406 0.020465438271110709 -0.0041624561757115383 1.6943064207832017e-05 0.0033837926418830953 0.0065749922706543106 0.0044159045082051308 0.0072094931494740945 -0.00591192355630203 0.00052122128722460379 -0.0014633577060608549
leaf_weight=21 23 22 35 30 24 23 20 22 26 23 21
leaf_count=21 23 22 35 30 24 23 20 22 26 23 21
internal_value=0 0.0119696 -0.0111189 0.0699946 0.115533 0.00470667 -0.00484432 0.00664951 -0.0143466 0.0379104 0.0140458
internal_weight=0 267 191 76 46 170 147 112 67 45 41
internal_count=290 267 191 76 46 170 147 112 67 45 41
shrinkage=0.1


Tree=39
num_leaves=12
num_cat=0
split_feature=0 7 7 12 5 5 0 7 12 7 2
split_gain=0.885868 0.395407 0.874187 0.317957 0.161868 0.104495 0.100936 0.0925575 0.0818781 0.110599 0.0336893
threshold=14.143450000000003 1.7409500000000002 1.9406500000000002 18.095000000000002 7.2580000000000009 5.9390000000000009 0.049565000000000005 2.5071500000000007 9.2050000000000018 3.5392000000000006 6.3050000000000006
decision_type=2 2 2 2 2 2 2 2 2 2 2
left_child=1 -1 -3 4 5 -4 -7 -8 10 -10 -9
right_child=-2 2 3 -5 -6 6 7 8 9 -11 -12
leaf_value=0.014561813852051273 -0.0202915252762891 -0.020102250017225744 -0.0053136713057756434 0.013743874458596112 0.0088724591192745044 -0.0039729249517300299 -0.00312628227715882 0.0030160765991442736 0.011317132320255042 0.0013798548280084064 -0.0023989200778305533
leaf_weight=20 21 20 35 20 21 35 26 27 24 21 20
leaf_count=20 21 20 35 20 21 35 26 27 24 21 20
internal_value=0 0.010339 -0.000526758 0.0169838 0.005457 -0.00384417 0.0074319 0.0214204 0.0363091 0.0667974 0.00711823
internal_weight=0 269 249 229 209 188 153 118 92 45 47
internal_count=290 269 249 229 209 188 153 118 92 45 47
shrinkage=0.1


Tree=40
num_leaves=12
num_cat=0
split_feature=6 6 4 12 8 2 4 5 6 7 5
split_gain=1.24248 0.223863 0.469067 0.18109 0.124363 0.152674 0.0806704 0.0882321 0.0301624 0.0246018 0.0285089
threshold=97.600000000000009 93.700000000000003 0.68600000000000005 14.545000000000002 2.5000000000000004 3.4250000000000003 0.5485000000000001 6.0105000000000013 70.500000000000014 6.0212500000000011 6.378000000000001
decision_type=2 2 2 2 2 2 2 2 2 2 2
left_child=1 2 3 4 -1 -6 7 -7 9 10 -9
right_child=-2 -3 -4 -5 5 6 -8 8 -10 -11 -12
leaf_value=-0.0068531002553010537 -0.019395675625213805 0.0083813648338296586 -0.013743516171108123 0.0091224055773077104 0.0091051514881352585 -0.0071874990966171032 0.0055818015554298965 1.1643754842225464e-05 -0.0026882597478106621 -0.0015171154215931895 0.0052282599308951343
leaf_weight=22 34 35 23 26 21 20 21 20 26 20 22
leaf_count=22 34 35 23 26 21 20 21 20 26 20 22
internal_value=0 0.00950605 -0.00226213 0.0134398 0.00168171 0.0119796 -0.000892606 -0.0119197 0.00170654 0.0136955 0.0274416
internal_weight=0 256 221 198 172 150 129 108 88 62 42
internal_count=290 256 221 198 172 150 129 108 88 62 42
shrinkage=0.1


Tree=41
num_leaves=11
num_cat=0
split_feature=6 6 0 12 12 6 8 7 9 2
split_gain=1.01631 0.164424 0.461492 0.219594 0.214312 0.277939 0.0920789 0.118297 0.041424 0.0497005
threshold=97.950000000000017 82.950000000000017 0.61913000000000007 22.670000000000005 11.250000000000002 92.500000000000014 2.5000000000000004 3.6584500000000006 298.00000000000006 5.160000000000001
decision_type=2 2 2 2 2 2 2 2 2 2
left_child=1 2 6 4 -3 -6 -1 -8 9 -9
right_child=-2 3 -4 -5 5 -7 7 8 -10 -11
leaf_value=-0.0053476257855072616 -0.01871903537772596 0.0097726085847667007 -0.014338739362099898 0.013044909687180604 0.0054112031375272915 -0.00907464422456946 0.0074226398789323869 0.0057683818929252176 -0.0023380585482013169 -0.00049247315182583413
leaf_weight=20 30 22 23 21 26 27 30 21 38 32
leaf_count=20 30 22 23 21 26 27 30 21 38 32
internal_value=0 0.00719549 -0.0120447 0.0400642 0.0147564 -0.0196838 0.00937995 0.0197694 0.00181656 0.0198824
internal_weight=0 260 164 96 75 53 141 121 91 53
internal_count=290 260 164 96 75 53 141 121 91 53
shrinkage=0.1


Tree=42
num_leaves=12
num_cat=0
split_feature=7 7 4 4 4 8 10 5 6 11 7
split_gain=0.672016 0.996527 0.270782 0.174493 0.16412 0.124408 0.0928789 0.0628157 0.0612379 0.0406736 0.0541735
threshold=1.5313500000000002 1.8625500000000004 0.58450000000000013 0.51250000000000007 0.47800000000000004 4.5000000000000009 16.050000000000004 6.416500000000001 93.700000000000003 388.71500000000009 5.164950000000001
decision_type=2 2 2 2 2 2 2 2 2 2 2
left_child=-1 -2 3 4 6 -5 -3 -6 -4 -8 -11
right_child=1 2 8 5 7 -7 9 -9 -10 10 -12
leaf_value=0.018621489289216697 -0.018236220536553965 0.0056195403728634121 0.0050311500627625121 -0.010384781397474202 0.01122639483306557 -0.00086210809565861438 -0.0059161120292264974 0.0033007600537530383 0.011889560520648957 -0.0046923804748803385 0.0019420746102696285
leaf_weight=20 28 20 30 23 20 34 20 20 23 20 32
leaf_count=20 28 20 30 23 20 34 20 20 23 20 32
internal_value=0 -0.00375818 0.0169067 -0.000806942 0.0191599 -0.0470459 -0.00409051 0.0726358 0.0800744 -0.0208366 -0.00609639
internal_weight=0 270 242 189 132 57 92 40 53 72 52
internal_count=290 270 242 189 132 57 92 40 53 72 52
shrinkage=0.1


Tree=43
num_leaves=12
num_cat=0
split_feature=7 6 12 11 7 6 6 0 9 11 7
split_gain=0.544333 0.817338 0.329781 0.100422 0.162721 0.146898 0.08623 0.107875 0.0574346 0.101797 0.032871
threshold=1.5313500000000002 97.950000000000017 19.530000000000005 361.21000000000009 3.0793000000000004 84.050000000000011 71.65000000000002 0.17388500000000004 329.50000000000006 395.72000000000008 5.6044500000000008
decision_type=2 2 2 2 2 2 2 2 2 2 2
left_child=-1 2 3 -2 5 -5 7 8 9 10 -6
right_child=1 -3 -4 4 6 -7 -8 -9 -10 -11 -12
leaf_value=0.016759340353310111 -0.0056499418532475832 -0.017562160357832909 0.01372500508558005 0.012342203298716672 0.0062462664654721386 0.0015099360141903164 -0.0054055167827755215 0.007096964727887619 -0.0047261396422982223 -0.0042577313581624856 0.00077410390423167321
leaf_weight=20 25 25 20 21 23 31 30 21 27 26 21
leaf_count=20 25 25 20 21 23 31 30 21 27 26 21
internal_value=0 -0.00338237 0.0141931 0.00325467 0.0107239 0.0588451 -0.00618349 0.00598727 -0.00808108 0.00703133 0.0363455
internal_weight=0 270 245 225 200 52 148 118 97 70 44
internal_count=290 270 245 225 200 52 148 118 97 70 44
shrinkage=0.1


Tree=44
num_leaves=12
num_cat=0
split_feature=12 7 7 7 6 5 6 5 8 0 4
split_gain=0.492256 0.504911 0.116089 0.171543 0.177466 0.396379 0.13191 0.0652322 0.0522614 0.0686951 0.0183521
threshold=24.275000000000002 1.6727500000000004 3.0793000000000004 2.6741000000000006 93.700000000000003 6.2260000000000009 70.500000000000014 5.9605000000000006 4.5000000000000009 0.086855000000000002 0.42700000000000005
decision_type=2 2 2 2 2 2 2 2 2 2 2
left_child=1 -1 3 4 5 -3 7 -4 10 -10 -9
right_child=-2 2 6 -5 -6 -7 -8 8 9 -11 -12
leaf_value=0.017398252898128703 -0.0134464440274645 0.0062217326628425246 -0.004422392423730344 0.011334087987515061 0.0066776284920599532 -0.01322979741729796 -0.0062429962195788644 0.0063069957530214674 -0.0046152888204563751 0.0032872465523806488 0.0024525832446912928
leaf_weight=20 22 22 20 22 34 20 35 21 22 22 30
leaf_count=20 22 22 20 22 34 20 35 21 22 22 30
internal_value=0 0.0211377 0.00881154 0.0355787 0.0130686 -0.030409 -0.00867635 0.00768345 0.0186113 -0.00664021 0.0403969
internal_weight=0 268 248 98 76 42 150 115 95 44 51
internal_count=290 268 248 98 76 42 150 115 95 44 51
shrinkage=0.1


Tree=45
num_leaves=11
num_cat=0
split_feature=12 7 7 7 6 5 6 5 7 11
split_gain=0.398727 0.408978 0.0940322 0.138949 0.143748 0.321067 0.106847 0.0528381 0.0456476 0.0656756
threshold=24.275000000000002 1.6727500000000004 3.0793000000000004 2.6741000000000006 93.700000000000003 6.2260000000000009 70.500000000000014 5.9605000000000006 5.7265000000000006 395.72000000000008
decision_type=2 2 2 2 2 2 2 2 2 2
left_child=1 -1 3 4 5 -3 7 -4 9 -9
right_child=-2 2 6 -5 -6 -7 -8 8 -10 -11
leaf_value=0.01565842722542584 -0.012101798783987761 0.0055995592683426697 -0.0039801533147692681 0.010200679025993767 0.0060098655165775738 -0.011906817356721149 -0.0056186967439550376 0.0061536414024054211 -0.0010694632558403787 -0.00072524233356766087
leaf_weight=20 22 22 20 22 34 20 35 35 37 23
leaf_count=20 22 22 20 22 34 20 35 35 37 23
internal_value=0 0.019024 0.00793039 0.0320208 0.0117618 -0.0273681 -0.00780871 0.0069151 0.0167502 0.0342581
internal_weight=0 268 248 98 76 42 150 115 95 58
internal_count=290 268 248 98 76 42 150 115 95 58
shrinkage=0.1


Tree=46
num_leaves=12
num_cat=0
split_feature=6 0 6 12 6 4 12 7 9 10 1
split_gain=0.311602 0.41518 0.160152 0.199023 0.0738752 0.0742835 0.124819 0.125657 0.0513817 0.0546547 0.0250139
threshold=98.250000000000014 8.7544350000000026 95.850000000000009 17.115000000000006 89.40000000000002 0.48850000000000005 9.2050000000000018 3.3692000000000006 298.00000000000006 17.850000000000005 34.500000000000007
decision_type=2 2 2 2 2 2 2 2 2 2 2
left_child=1 2 3 4 5 8 -7 -8 9 -1 -10
right_child=-2 -3 -4 -5 -6 6 7 -9 10 -11 -12
leaf_value=0.0075171704509888184 0.010265764437748917 -0.013089514095801861 -0.008102585286833346 0.010501302109055576 0.0058623412003119789 -0.0074594655729015363 -0.0034259394375663818 0.0064692450354674044 -0.0032579554170793432 0.00068306981399655345 0.0016284403322788421
leaf_weight=22 28 25 20 21 21 32 33 21 22 25 20
leaf_count=22 28 25 20 21 21 32 33 21 22 25 20
internal_value=0 -0.00832861 0.00460035 0.0124922 0.00257922 -0.00414608 -0.0251052 0.00422188 0.0161065 0.0388201 -0.009311
internal_weight=0 262 237 217 196 175 86 54 89 47 42
internal_count=290 262 237 217 196 175 86 54 89 47 42
shrinkage=0.1


Tree=47
num_leaves=12
num_cat=0
split_feature=11 6 6 5 5 11 6 11 12 8 2
split_gain=0.268806 0.474764 0.233547 0.258733 0.148986 0.125254 0.107851 0.0757825 0.0751493 0.0731144 0.0555275
threshold=99.070000000000007 98.250000000000014 96.65000000000002 5.6395000000000008 5.870000000000001 382.62000000000006 58.95000000000001 390.61500000000007 9.0950000000000006 5.5000000000000009 6.080000000000001
decision_type=2 2 2 2 2 2 2 2 2 2 2
left_child=-1 2 3 -2 -5 -6 7 -7 -8 -10 -9
right_child=1 -3 -4 4 5 6 8 10 9 -11 -12
leaf_value=-0.010971467602066695 0.011266051392227555 0.014468623498881547 -0.010098079346723601 -0.0081643465038558297 0.0055702980106266649 -0.003320424142847991 -0.0083759449564082458 0.0063172305912964737 0.0023988489723706153 -0.0057878208236070358 -0.00026062744159606243
leaf_weight=20 21 24 22 22 39 21 23 33 24 20 21
leaf_count=20 21 24 22 22 39 21 23 33 24 20 21
internal_value=0 0.0104347 -0.00266296 0.00699325 -0.00393784 0.00550704 -0.00827917 0.0177689 -0.0374374 -0.0132236 0.0375917
internal_weight=0 270 246 224 203 181 142 75 67 44 54
internal_count=290 270 246 224 203 181 142 75 67 44 54
shrinkage=0.1


Tree=48
num_leaves=12
num_cat=0
split_feature=12 8 11 5 4 6 4 2 7 12 12
split_gain=0.615914 0.272071 0.304636 0.266253 0.162796 0.0769518 0.0534117 0.0957496 0.0839424 0.0478929 0.0275604
threshold=26.545000000000005 7.5000000000000009 364.02000000000004 6.1125000000000016 0.65100000000000013 86.90000000000002 0.48850000000000005 4.8950000000000005 5.7265000000000006 9.9500000000000011 8.9100000000000019
decision_type=2 2 2 2 2 2 2 2 2 2 2
left_child=1 2 -1 -3 -5 6 7 8 -4 -8 -9
right_child=-2 3 5 4 -6 -7 9 10 -10 -11 -12
leaf_value=-0.012821008979032437 -0.017603623201139271 0.01380793690466537 0.0078497599000516144 0.0075453757929305242 -0.003588721144077336 0.0048418700475142233 -0.0063632454906058095 -0.00070113932597450914 -0.00037134026211720929 -4.5748810849285552e-05 -0.0057274360815063119
leaf_weight=21 20 26 23 24 29 27 28 24 27 21 20
leaf_count=21 20 26 23 24 29 27 28 24 27 21 20
internal_value=0 0.00583416 -0.0145812 0.0551927 0.0145313 -0.00054464 -0.00978947 0.00416407 0.0341037 -0.0365575 -0.0298582
internal_weight=0 270 191 79 53 170 143 94 50 49 44
internal_count=290 270 191 79 53 170 143 94 50 49 44
shrinkage=0.1


Tree=49
num_leaves=12
num_cat=0
split_feature=0 0 6 9 7 0 6 2 10 0 6
split_gain=0.539194 0.25766 0.50778 0.407295 0.347726 0.559419 0.0783693 0.0779863 0.0535425 0.0385612 0.0165333
threshold=14.143450000000003 0.24217000000000002 80.550000000000011 394.50000000000006 2.1691500000000006 3.6856650000000006 90.550000000000026 3.2850000000000006 16.500000000000004 0.092150000000000024 46.500000000000007
decision_type=2 2 2 2 2 2 2 2 2 2 2
left_child=1 3 -3 7 5 -4 -6 -1 -9 10 -10
right_child=-2 2 4 -5 6 -7 -8 8 9 -11 -12
leaf_value=0.0047447595046833163 -0.016036412563352361 -0.0070552051480438915 0.0028188182002243899 -0.014134814714392027 0.0054035977989604529 0.024410076866236828 -0.003136960217463119 0.0031961482849770361 -0.0026132867616113454 1.9420047685729738e-05 -0.006630709165765439
leaf_weight=28 21 31 24 24 22 24 21 21 21 33 20
leaf_count=28 21 31 24 24 22 24 21 21 21 33 20
internal_value=0 0.00601002 0.0399824 -0.0221847 0.077637 0.136144 0.0123263 0.00106667 -0.0126035 -0.0252503 -0.0457301
internal_weight=0 269 122 147 91 48 43 123 95 74 41
internal_count=290 269 122 147 91 48 43 123 95 74 41
shrinkage=0.1


Tree=50
num_leaves=11
num_cat=0
split_feature=6 5 5 5 9 11 5 12 10 5
split_gain=0.872622 0.150613 0.226655 0.117773 0.0568007 0.11549 0.0773584 0.0435506 0.042233 0.0279692
threshold=97.600000000000009 5.6395000000000008 5.870000000000001 5.9605000000000006 407.00000000000006 379.55500000000006 6.1045000000000007 9.0950000000000006 16.250000000000004 6.6305000000000005
decision_type=2 2 2 2 2 2 2 2 2 2
left_child=1 -1 -3 -4 6 -6 -5 8 -8 -10
right_child=-2 2 3 4 5 -7 7 -9 9 -11
leaf_value=0.0085045616735111591 -0.01645711706745822 -0.010330170601664577 0.0075620461149019718 -0.0040527368302439122 0.0017393215972168201 -0.0087602122462703859 0.0042731687972554942 0.0049951964465435594 0.0013899856936939829 -0.0027992061044399938
leaf_weight=22 34 20 23 26 22 20 25 34 34 30
leaf_count=22 34 20 23 26 22 20 25 34 34 30
internal_value=0 0.00593996 -0.00149733 0.0080171 -0.000123618 -0.0326046 0.00903209 0.0195081 0.00787781 -0.00573698
internal_weight=0 256 234 214 191 42 149 123 89 64
internal_count=290 256 234 214 191 42 149 123 89 64
shrinkage=0.1


Tree=51
num_leaves=12
num_cat=0
split_feature=7 12 12 0 7 11 6 12 5 5 1
split_gain=0.73741 1.10351 0.191864 0.150013 0.0787639 0.0567009 0.0364235 0.0671096 0.0411336 0.033663 0.0183001
threshold=1.8625500000000004 23.880000000000003 18.095000000000002 4.823900000000001 3.0793000000000004 391.38500000000005 57.20000000000001 9.2050000000000018 6.0615000000000014 6.7275000000000009 20.500000000000004
decision_type=2 2 2 2 2 2 2 2 2 2 2
left_child=1 -1 3 4 5 -2 8 -8 -6 10 -10
right_child=2 -3 -4 -5 6 -7 7 -9 9 -11 -12
leaf_value=-0.00018251376847426098 0.0067615167872810914 -0.030507232076488436 0.0093286807439289989 -0.0079556498986979324 -0.003129264619201422 0.00029354541076590185 -0.0069874587195226925 0.00054221743846247943 0.0016029857448302211 -0.00073353688198107272 0.0057824940251355829
leaf_weight=30 33 20 25 21 20 23 20 29 20 27 22
leaf_count=30 33 20 25 21 20 23 20 29 20 27 22
internal_value=0 -0.123124 0.0103704 0.000728925 0.00941961 0.0410503 -0.00341602 -0.0253112 0.00863863 0.0202129 0.0379225
internal_weight=0 50 240 215 194 56 138 49 89 69 42
internal_count=290 50 240 215 194 56 138 49 89 69 42
shrinkage=0.1


Tree=52
num_leaves=11
num_cat=0
split_feature=7 7 4 4 0 7 11 11 6 10
split_gain=0.549331 0.758733 0.203529 0.110735 0.15955 0.0634273 0.110814 0.0603662 0.049903 0.0189347
threshold=1.5313500000000002 1.8625500000000004 0.58450000000000013 0.53500000000000014 0.26042000000000004 5.6044500000000008 392.79000000000002 393.47000000000008 93.700000000000003 18.350000000000005
decision_type=2 2 2 2 2 2 2 2 2 2
left_child=-1 -2 3 4 5 7 -7 -3 -4 -9
right_child=1 2 8 -5 -6 6 -8 9 -10 -11
leaf_value=0.016807818636298179 -0.015952515522284168 0.0051245692380083108 0.0042247699433937674 -0.0050066876048977318 0.0087664719185103542 -0.0069495097070466725 0.001881144336786949 0.0013745957475510382 0.01041599857904341 -0.0028719422318750905
leaf_weight=20 28 30 30 37 23 30 27 21 23 21
leaf_count=20 28 30 30 37 23 30 27 21 23 21
internal_value=0 -0.00368072 0.0143509 -0.00100636 0.010936 -0.00274431 -0.0276657 0.0169851 0.0691153 -0.00748673
internal_weight=0 270 242 189 152 129 57 72 53 42
internal_count=290 270 242 189 152 129 57 72 53 42
shrinkage=0.1


Tree=53
num_leaves=11
num_cat=0
split_feature=6 6 6 7 0 5 7 11 11 0
split_gain=0.505169 0.606873 0.181533 0.346385 0.147467 0.207575 0.0590409 0.10507 0.061552 0.0365091
threshold=98.850000000000009 97.350000000000009 93.700000000000003 2.3197000000000005 0.27447500000000008 6.1125000000000016 5.6044500000000008 392.79000000000002 393.16500000000008 0.065025000000000013
decision_type=2 2 2 2 2 2 2 2 2 2
left_child=1 2 3 -1 6 -6 8 -8 -5 -10
right_child=-2 -3 -4 4 5 -7 7 -9 9 -11
leaf_value=-0.010465409176374254 0.01530199906873432 -0.0172178400401026 0.0084741311749634667 0.0052209614975644017 0.013642909853868852 0.00092494925201842273 -0.0069756382421975772 0.0016930299026339695 -0.0038162016542628409 0.0015175252905905699
leaf_weight=28 22 20 28 28 21 33 29 27 21 33
leaf_count=28 22 20 28 28 21 33 29 27 21 33
internal_value=0 -0.00460988 0.00890371 -0.00074835 0.0144046 0.0587082 -0.00293164 -0.027961 0.0141616 -0.00556702
internal_weight=0 268 248 220 192 54 138 56 82 54
internal_count=290 268 248 220 192 54 138 56 82 54
shrinkage=0.1


Tree=54
num_leaves=12
num_cat=0
split_feature=5 12 6 5 4 2 12 10 5 12 4
split_gain=0.376925 0.924818 0.242355 0.0730339 0.20895 0.0829491 0.0581912 0.063861 0.0664444 0.0318191 0.0133231
threshold=5.6395000000000008 20.000000000000004 96.950000000000017 5.971000000000001 0.52200000000000013 3.2850000000000006 14.200000000000001 16.500000000000004 6.6305000000000005 7.6500000000000012 0.51650000000000007
decision_type=2 2 2 2 2 2 2 2 2 2 2
left_child=-1 2 3 4 -2 -5 7 -7 9 -9 -11
right_child=1 -3 -4 5 -6 6 -8 8 -10 10 -12
leaf_value=0.010893119284600924 -0.0028909807524178177 -0.018733763091266158 0.011754543587033239 0.0049125282596796755 0.011564113274216652 0.0037561559218115045 -0.0058225196398173779 0.0027087732074925538 -0.0059841967322147235 -0.0035235893380429063 3.8525757069389033e-05
leaf_weight=33 20 25 21 25 20 28 24 26 26 21 21
leaf_count=33 20 25 21 25 20 28 24 26 26 21 21
internal_value=0 -0.00459682 0.0150951 0.0048986 0.0433657 -0.00409955 -0.0132134 -0.00435861 -0.0168455 -0.000405622 -0.0174253
internal_weight=0 257 232 211 40 171 146 122 94 68 42
internal_count=290 257 232 211 40 171 146 122 94 68 42
shrinkage=0.1


Tree=55
num_leaves=12
num_cat=0
split_feature=5 12 6 5 4 2 10 5 5 6 2
split_gain=0.305309 0.749103 0.196307 0.0591574 0.169249 0.0672792 0.0502214 0.0628285 0.0608888 0.0667987 0.0295241
threshold=5.6395000000000008 20.000000000000004 96.950000000000017 5.971000000000001 0.52200000000000013 2.9100000000000006 16.500000000000004 6.7495000000000003 6.487000000000001 84.050000000000011 9.7950000000000017
decision_type=2 2 2 2 2 2 2 2 2 2 2
left_child=-1 2 3 4 -2 -5 -7 8 9 10 -8
right_child=1 -3 -4 5 -6 6 7 -9 -10 -11 -12
leaf_value=0.0098038073092924834 -0.0026018826256040484 -0.016860386876389386 0.010579088727189672 0.0049322920205581581 0.010407701820076909 0.0024025655329751316 -0.0022961721120571548 -0.0070232253787772996 0.0039256598800420763 -0.0069242691240188753 0.0024331765990196308
leaf_weight=33 20 25 21 21 20 32 33 21 20 22 22
leaf_count=33 20 25 21 21 20 32 33 21 20 22 22
internal_value=0 -0.00413714 0.0135856 0.00440874 0.0390291 -0.00368959 -0.0111113 -0.02064 -0.00990356 -0.0226724 -0.00404433
internal_weight=0 257 232 211 40 171 150 118 97 77 55
internal_count=290 257 232 211 40 171 150 118 97 77 55
shrinkage=0.1


Tree=56
num_leaves=12
num_cat=0
split_feature=6 0 6 5 6 7 12 10 8 6 12
split_gain=0.218311 0.25492 0.11258 0.165943 0.0410711 0.0584477 0.0489999 0.0778012 0.0445777 0.0681951 0.0224235
threshold=98.250000000000014 8.7544350000000026 93.950000000000017 5.8885000000000014 35.800000000000004 5.4334000000000007 9.0950000000000006 17.700000000000006 4.5000000000000009 81.90000000000002 5.0550000000000006
decision_type=2 2 2 2 2 2 2 2 2 2 2
left_child=1 2 3 -1 10 6 7 -6 -8 -10 -5
right_child=-2 -3 -4 4 5 -7 8 -9 9 -11 -12
leaf_value=0.0073956174140663022 0.0085788680340296453 -0.010315038099884988 -0.0055348496611133738 1.0769246146082878e-05 0.0016197450133040546 -0.0055066087263791509 0.0053191256963393907 -0.0072007538657635458 -0.0042913595203398951 0.0036755483258854257 0.0045445217091279726
leaf_weight=35 28 25 29 20 20 24 22 20 21 22 24
leaf_count=35 28 25 29 20 20 24 22 20 21 22 24
internal_value=0 -0.00710956 0.00302132 0.0111594 -0.00154512 -0.0105438 -0.000367228 -0.027905 0.0165791 -0.00215267 0.0248373
internal_weight=0 262 237 208 173 129 105 40 65 43 44
internal_count=290 262 237 208 173 129 105 40 65 43 44
shrinkage=0.1


Tree=57
num_leaves=11
num_cat=0
split_feature=4 7 4 0 2 6 7 1 11 5
split_gain=0.191161 0.510877 0.466479 0.102047 0.0937997 0.0502037 0.0512185 0.0360842 0.0334462 0.0124499
threshold=0.6695000000000001 1.9119000000000002 0.70650000000000002 2.3071500000000005 10.300000000000002 79.050000000000026 3.8973000000000004 23.500000000000004 393.75500000000005 6.7275000000000009
decision_type=2 2 2 2 2 2 2 2 2 2
left_child=1 -1 -2 4 5 6 -3 8 -8 -9
right_child=2 3 -4 -5 -6 -7 7 9 -10 -11
leaf_value=0.016792544936761262 -0.01532047443650663 0.0041061499090574221 0.0021781478244333697 -0.006225872600106928 0.0056681191633370792 -0.0039575779987177971 -0.0053793447582971901 0.0028074646489515617 0.00027096084784716373 -0.00046621240852844152
leaf_weight=20 25 32 39 23 33 29 22 26 20 21
leaf_count=20 25 32 39 23 33 29 22 26 20 21
internal_value=0 0.0153366 -0.0465725 0.000522192 0.00841269 -0.00220638 0.00674992 -0.00558683 -0.0268872 0.0134476
internal_weight=0 226 64 206 183 150 121 89 42 47
internal_count=290 226 64 206 183 150 121 89 42 47
shrinkage=0.1


Tree=58
num_leaves=11
num_cat=0
split_feature=12 8 5 6 11 5 6 0 1 10
split_gain=0.343294 0.260726 0.35455 0.168967 0.207157 0.0373679 0.0467505 0.0466872 0.0267104 0.0274471
threshold=26.545000000000005 7.5000000000000009 5.7200000000000015 80.550000000000011 379.55500000000006 6.128000000000001 49.800000000000004 0.049565000000000005 15.000000000000002 17.850000000000005
decision_type=2 2 2 2 2 2 2 2 2 2
left_child=1 2 -1 -3 -5 6 -4 -7 9 -9
right_child=-2 3 5 4 -6 7 -8 8 -10 -11
leaf_value=-0.01391208637394898 -0.013233053158037364 -0.0027664918010123075 0.0015736798231955618 0.013129010350640978 0.0011937506129750266 -0.0021602135085101639 -0.0044870558953178782 0.0063693677441083972 -0.00020442854709409433 0.0016556563305978975
leaf_weight=21 20 20 20 33 26 35 35 21 29 30
leaf_count=21 20 20 20 33 26 35 35 21 29 30
internal_value=0 0.0034492 -0.016536 0.0517677 0.078694 -0.00139311 -0.0228315 0.00886004 0.0221872 0.035966
internal_weight=0 270 191 79 59 170 55 115 80 51
internal_count=290 270 191 79 59 170 55 115 80 51
shrinkage=0.1


Tree=59
num_leaves=11
num_cat=0
split_feature=12 8 5 5 6 5 6 0 12 10
split_gain=0.278068 0.211188 0.287186 0.145197 0.12578 0.030268 0.0378679 0.0378166 0.0246238 0.0385045
threshold=26.545000000000005 7.5000000000000009 5.7200000000000015 6.1705000000000014 90.90000000000002 6.128000000000001 49.800000000000004 0.049565000000000005 9.2050000000000018 17.950000000000003
decision_type=2 2 2 2 2 2 2 2 2 2
left_child=1 2 -1 -3 -5 6 -4 -7 9 -9
right_child=-2 3 5 4 -6 7 -8 8 -10 -11
leaf_value=-0.012520877700964257 -0.011909747812896969 0.009854729205835612 0.0014163118437863888 -0.003942617456777953 0.0064060874607252049 -0.0019441921263933183 -0.0040383502122546952 0.0029491289248389585 0.0043877158621658703 -0.0025967071941565903
leaf_weight=21 20 32 20 24 23 35 35 31 28 21
leaf_count=21 20 32 20 24 23 35 35 31 28 21
internal_value=0 0.00310428 -0.0148824 0.046591 0.0112164 -0.0012538 -0.0205484 0.00797404 0.0199685 0.00709464
internal_weight=0 270 191 79 47 170 55 115 80 52
internal_count=290 270 191 79 47 170 55 115 80 52
shrinkage=0.1


end of trees

feature importances:
LSTAT=104
RM=95
DIS=81
AGE=69
CRIM=64
B=52
NOX=45
PTRATIO=44
INDUS=25
TAX=24
RAD=15
ZN=5

parameters:
[boosting: gbdt]
[objective: regression]
[metric: l1]
[tree_learner: serial]
[device_type: cpu]
[data: ]
[valid: ]
[num_iterations: 100]
[learning_rate: 0.1]
[num_leaves: 32]
[num_threads: 12]
[max_depth: -1]
[min_data_in_leaf: 20]
[min_sum_hessian_in_leaf: 0.001]
[bagging_fraction: 0.9]
[pos_bagging_fraction: 1]
[neg_bagging_fraction: 1]
[bagging_freq: 2]
[bagging_seed: 28170]
[feature_fraction: 1]
[feature_fraction_bynode: 1]
[feature_fraction_seed: 31103]
[early_stopping_round: 0]
[first_metric_only: 0]
[max_delta_step: 0]
[lambda_l1: 0]
[lambda_l2: 0]
[min_gain_to_split: 0]
[drop_rate: 0.1]
[max_drop: 50]
[skip_drop: 0.5]
[xgboost_dart_mode: 0]
[uniform_drop: 0]
[drop_seed: 311]
[top_rate: 0.2]
[other_rate: 0.1]
[min_data_per_group: 100]
[max_cat_threshold: 32]
[cat_l2: 10]
[cat_smooth: 10]
[max_cat_to_onehot: 4]
[top_k: 20]
[monotone_constraints: ]
[feature_contri: ]
[forcedsplits_filename: ]
[forcedbins_filename: ]
[refit_decay_rate: 0.9]
[cegb_tradeoff: 1]
[cegb_penalty_split: 0]
[cegb_penalty_feature_lazy: ]
[cegb_penalty_feature_coupled: ]
[verbosity: -1]
[max_bin: 255]
[max_bin_by_feature: ]
[min_data_in_bin: 3]
[bin_construct_sample_cnt: 200000]
[histogram_pool_size: -1]
[data_random_seed: 64]
[output_model: LightGBM_model.txt]
[snapshot_freq: -1]
[input_model: ]
[output_result: LightGBM_predict_result.txt]
[initscore_filename: ]
[valid_data_initscores: ]
[pre_partition: 0]
[enable_bundle: 1]
[max_conflict_rate: 0]
[is_enable_sparse: 1]
[sparse_threshold: 0.8]
[use_missing: 1]
[zero_as_missing: 0]
[two_round: 0]
[save_binary: 0]
[header: 0]
[label_column: ]
[weight_column: ]
[group_column: ]
[ignore_column: ]
[categorical_feature: ]
[predict_raw_score: 0]
[predict_leaf_index: 0]
[predict_contrib: 0]
[num_iteration_predict: -1]
[pred_early_stop: 0]
[pred_early_stop_freq: 10]
[pred_early_stop_margin: 10]
[convert_model_language: ]
[convert_model: gbdt_prediction.cpp]
[num_class: 1]
[is_unbalance: 0]
[scale_pos_weight: 1]
[sigmoid: 1]
[boost_from_average: 1]
[reg_sqrt: 0]
[alpha: 0.9]
[fair_c: 1]
[poisson_max_delta_step: 0.7]
[tweedie_variance_power: 1.5]
[max_position: 20]
[lambdamart_norm: 1]
[label_gain: ]
[metric_freq: 1]
[is_provide_training_metric: 0]
[eval_at: ]
[multi_error_top_k: 1]
[num_machines: 1]
[local_listen_port: 12400]
[time_out: 120]
[machine_list_filename: ]
[machines: ]
[gpu_platform_id: -1]
[gpu_device_id: -1]
[gpu_use_dp: 0]

end of parameters

pandas_categorical:[]
