tree
version=v3
num_class=1
num_tree_per_iteration=1
label_index=0
max_feature_idx=12
objective=regression
feature_names=CRIM ZN INDUS CHAS NOX RM AGE DIS RAD TAX PTRATIO B LSTAT
feature_infos=[0.0063200000000000001:73.534099999999995] [0:95] [0.46000000000000002:27.739999999999998] [0:1] [0.38500000000000001:0.871] [3.5609999999999999:8.7799999999999994] [6:100] [1.1295999999999999:12.1265] [1:24] [187:711] [12.6:22] [0.32000000000000001:396.89999999999998] [1.73:37.969999999999999]
tree_sizes=535 538 532 536 541 537 540 539 540 543 544 627 544 543 543 542 544 543 624 543 545 626 629 542 462 544 462 547 539 546 547 630 542 549 543 546 548 545 625 545 628 547 545 544 539 550 634 548 628 544 550 629 626 548 460 551 465 550 625 626 627 631 629 545 551 553 466 552 551 544 631 633 627 549 463 552 553 552 547 627 628 631 541 550 550 550 465 551 548 631 632 634 627 551 464 554 468 552 547 548 632 635 546 552 552 551 554 553 628 546 633 548 545 549 467 552 469 552 626 552 548 634 628 469 630 552 472 552 625 553 547 634 631 551 555 555 555 555 628 553

Tree=0
num_leaves=5
num_cat=0
split_feature=0 5 5 9
split_gain=71.2104 26.1987 3.02312 0.88562
threshold=6.1325850000000006 6.5845000000000011 6.0105000000000013 322.00000000000006
decision_type=2 2 2 2
left_child=1 2 -1 -4
right_child=-2 -3 3 -5
leaf_value=-0.024887628178941173 -0.15774083651452334 0.10905294192483952 0.029756151510377925 0.00068099822533308275
leaf_weight=32 25 30 22 20
leaf_count=32 25 30 22 20
internal_value=0 0.302254 -0.0173174 0.159108
internal_weight=0 104 74 42
internal_count=129 104 74 42
shrinkage=1


Tree=1
num_leaves=5
num_cat=0
split_feature=4 12 12 12
split_gain=64.344 15.9985 3.16879 1.13766
threshold=0.6695000000000001 9.6550000000000029 5.7350000000000003 14.200000000000001
decision_type=2 2 2 2
left_child=1 2 -1 -3
right_child=-2 3 -4 -5
leaf_value=0.10437704231590034 -0.14285255204196332 0.0059006432536989452 0.051432176450124156 -0.023540681221389345
leaf_weight=20 27 35 26 21
leaf_count=20 27 35 26 21
internal_value=0 0.307544 0.744517 -0.0513985
internal_weight=0 102 46 56
internal_count=129 102 46 56
shrinkage=0.1


Tree=2
num_leaves=5
num_cat=0
split_feature=7 5 6 5
split_gain=38.6025 14.353 2.47495 1.29314
threshold=2.0330500000000007 6.7095000000000011 81.90000000000002 6.128000000000001
decision_type=2 2 2 2
left_child=-1 2 3 -2
right_child=1 -3 -4 -5
leaf_value=-0.10660504349346818 -0.0005469086407511322 0.0937538162521694 -0.024617924592034383 0.030125122431750889
leaf_weight=29 27 23 22 28
leaf_count=29 27 23 22 28
internal_value=0 0.244348 0.0372912 0.150679
internal_weight=0 100 77 55
internal_count=129 100 77 55
shrinkage=0.1


Tree=3
num_leaves=5
num_cat=0
split_feature=4 10 11 6
split_gain=45.3926 6.32927 1.80759 0.4939
threshold=0.6695000000000001 18.650000000000002 392.71500000000009 68.15000000000002
decision_type=2 2 2 2
left_child=1 2 -1 -3
right_child=-2 3 -4 -5
leaf_value=0.072196647186170929 -0.11981788122060676 0.01136321758284517 0.034458598600079618 -0.0085783251130056599
leaf_weight=22 27 23 30 27
leaf_count=22 27 23 30 27
internal_value=0 0.259983 0.504247 0.00594785
internal_weight=0 102 52 50
internal_count=129 102 52 50
shrinkage=0.1


Tree=4
num_leaves=5
num_cat=0
split_feature=12 12 11 11
split_gain=52.817 9.29608 5.14649 0.272241
threshold=17.290000000000003 9.9500000000000011 390.84000000000009 388.48500000000007
decision_type=2 2 2 2
left_child=1 2 -1 -3
right_child=-2 3 -4 -5
leaf_value=0.099012991945658421 -0.11975106604654213 -0.010745462207123638 0.037031911545105885 0.0053749136983903805
leaf_weight=21 29 20 37 22
leaf_count=21 29 20 37 22
internal_value=0 0.335279 0.594733 -0.0230146
internal_weight=0 100 58 42
internal_count=129 100 58 42
shrinkage=0.1


Tree=5
num_leaves=5
num_cat=0
split_feature=10 7 5 5
split_gain=22.5263 9.37879 7.83811 0.477273
threshold=19.650000000000002 2.0941000000000005 6.6305000000000005 6.0955000000000004
decision_type=2 2 2 2
left_child=2 -2 3 -1
right_child=1 -3 -4 -5
leaf_value=0.00089949711056595502 -0.09209513914269897 -0.010654080950564915 0.080230464499730328 0.021290811236637334
leaf_weight=22 26 31 26 24
leaf_count=22 26 31 26 24
internal_value=0 -0.478026 0.363439 0.115384
internal_weight=0 57 72 46
internal_count=129 57 72 46
shrinkage=0.1


Tree=6
num_leaves=5
num_cat=0
split_feature=12 12 0 12
split_gain=38.0174 7.04737 3.73945 1.02605
threshold=17.980000000000004 9.9500000000000011 0.28957500000000008 14.200000000000001
decision_type=2 2 2 2
left_child=1 2 -1 -3
right_child=-2 3 -4 -5
leaf_value=0.030432528181857356 -0.10880422701056187 0.010331114128232004 0.083265763379278643 -0.020057161115691998
leaf_weight=37 26 25 21 20
leaf_count=37 26 25 21 20
internal_value=0 0.265215 0.495618 -0.0317479
internal_weight=0 103 58 45
internal_count=129 103 58 45
shrinkage=0.1


Tree=7
num_leaves=5
num_cat=0
split_feature=4 4 4 4
split_gain=24.2167 0.755741 1.67736 0.25754
threshold=0.6695000000000001 0.60100000000000009 0.51250000000000007 0.48850000000000005
decision_type=2 2 2 2
left_child=1 2 3 -1
right_child=-2 -3 -4 -5
leaf_value=0.022790204541867271 -0.081134993329258831 0.039515706675038453 -0.003243074541911483 0.037091161874122917
leaf_weight=34 29 21 25 20
leaf_count=34 29 21 25 20
internal_value=0 0.226544 0.181723 0.280869
internal_weight=0 100 79 54
internal_count=129 100 79 54
shrinkage=0.1


Tree=8
num_leaves=5
num_cat=0
split_feature=0 5 0 11
split_gain=16.1537 5.86807 0.596168 0.72341
threshold=7.2440800000000012 6.6185000000000009 1.7284400000000002 392.19000000000005
decision_type=2 2 2 2
left_child=1 2 3 -1
right_child=-2 -3 -4 -5
leaf_value=-0.01385824276647047 -0.073360806284472349 0.057754904652635254 0.018553401511162523 0.0085983816446969282
leaf_weight=26 24 27 20 32
leaf_count=26 24 27 20 32
internal_value=0 0.175741 0.0366541 -0.0146838
internal_weight=0 105 78 58
internal_count=129 105 78 58
shrinkage=0.1


Tree=9
num_leaves=5
num_cat=0
split_feature=12 12 12 4
split_gain=17.4465 4.99896 1.27699 0.817529
threshold=21.620000000000005 5.6050000000000013 9.7150000000000016 0.60100000000000009
decision_type=2 2 2 2
left_child=1 -1 -3 -4
right_child=-2 2 3 -5
leaf_value=0.061519212163984774 -0.085263112932443624 0.022178255766630173 0.0060214031104633995 -0.01907277979888022
leaf_weight=20 20 32 37 20
leaf_count=20 20 32 37 20
internal_value=0 0.163433 0.0619147 -0.0278357
internal_weight=0 109 89 57
internal_count=129 109 89 57
shrinkage=0.1


Tree=10
num_leaves=5
num_cat=0
split_feature=0 5 5 9
split_gain=13.5866 6.26293 0.672466 0.232491
threshold=7.2440800000000012 6.6700000000000008 5.9605000000000006 346.50000000000006
decision_type=2 2 2 2
left_child=1 2 -1 -4
right_child=-2 -3 3 -5
leaf_value=-0.013909254875034095 -0.071940985982022851 0.056599994488060482 0.010916143954929078 -0.0023552475835789334
leaf_weight=26 23 25 33 22
leaf_count=26 23 25 33 22
internal_value=0 0.128469 -0.00657078 0.0560759
internal_weight=0 106 81 55
internal_count=129 106 81 55
shrinkage=0.1


Tree=11
num_leaves=6
num_cat=0
split_feature=12 12 7 12 7
split_gain=12.0541 3.19174 0.694898 0.50866 0.0618123
threshold=18.905000000000005 5.7350000000000003 5.6044500000000008 10.250000000000002 2.5071500000000007
decision_type=2 2 2 2 2
left_child=1 -1 3 -3 -5
right_child=-2 2 -4 4 -6
leaf_value=0.048846368286758667 -0.064390805631875991 0.022583813575052084 -0.010416293897382592 -0.00056659178109839557 0.0072954850690439346
leaf_weight=20 25 21 23 20 20
leaf_count=20 25 21 23 20 20
internal_value=0 0.129441 0.0439599 0.0998095 0.0336445
internal_weight=0 104 84 61 40
internal_count=129 104 84 61 40
shrinkage=0.1


Tree=12
num_leaves=5
num_cat=0
split_feature=7 5 7 6
split_gain=8.37214 4.08551 0.621603 0.393375
threshold=1.8217500000000002 6.7495000000000003 5.7265000000000006 81.90000000000002
decision_type=2 2 2 2
left_child=-1 2 3 -2
right_child=1 -3 -4 -5
leaf_value=-0.061312153525650503 0.011237823925006928 0.047573385675522412 -0.015191204244778914 -0.0044120057775028825
leaf_weight=20 36 22 22 29
leaf_count=20 36 22 22 29
internal_value=0 0.0907359 -0.00661989 0.0425559
internal_weight=0 109 87 65
internal_count=129 109 87 65
shrinkage=0.1


Tree=13
num_leaves=5
num_cat=0
split_feature=4 10 4 11
split_gain=8.86158 0.993535 0.758483 0.528278
threshold=0.6695000000000001 18.650000000000002 0.56150000000000011 392.71500000000009
decision_type=2 2 2 2
left_child=1 3 -3 -1
right_child=-2 2 -4 -5
leaf_value=0.033277525651183998 -0.052597367235769833 -0.008291561872077486 0.016849420533981176 0.012876077934633939
leaf_weight=22 27 30 20 30
leaf_count=22 27 30 20 30
internal_value=0 0.118297 0.0176483 0.215075
internal_weight=0 102 50 52
internal_count=129 102 50 52
shrinkage=0.1


Tree=14
num_leaves=5
num_cat=0
split_feature=12 12 11 12
split_gain=13.2713 2.48597 3.71743 0.170312
threshold=19.530000000000005 12.020000000000001 388.48500000000007 7.6500000000000012
decision_type=2 2 2 2
left_child=1 2 -1 -4
right_child=-2 -3 3 -5
leaf_value=0.057707137191160163 -0.074158513049284613 -0.008732429106021301 0.013766066797284615 0.0020559346708266635
leaf_weight=22 21 36 27 23
leaf_count=22 21 36 27 23
internal_value=0 0.127237 0.234518 0.0837941
internal_weight=0 108 72 50
internal_count=129 108 72 50
shrinkage=0.1


Tree=15
num_leaves=5
num_cat=0
split_feature=5 7 7 7
split_gain=4.01239 2.75352 0.17359 0.0552296
threshold=6.5425000000000013 2.0941000000000005 4.4583000000000004 2.8527500000000008
decision_type=2 2 2 2
left_child=1 -1 3 -3
right_child=-2 2 -4 -5
leaf_value=-0.03960597834515351 0.025513482834093083 -0.001172203030437231 -0.0083591983856066403 0.0062594599789008503
leaf_weight=27 39 20 23 20
leaf_count=27 39 20 23 20
internal_value=0 -0.128875 -0.0143677 0.0254363
internal_weight=0 90 63 40
internal_count=129 90 63 40
shrinkage=0.1


Tree=16
num_leaves=5
num_cat=0
split_feature=12 12 0 12
split_gain=9.97296 1.8499 2.25479 0.433646
threshold=19.530000000000005 9.7150000000000016 0.20892000000000002 14.750000000000002
decision_type=2 2 2 2
left_child=1 2 -1 -3
right_child=-2 3 -4 -5
leaf_value=0.0081791409530809957 -0.064205098294076474 0.0053490300724903751 0.049627139425276606 -0.013135022250935435
leaf_weight=35 21 30 21 22
leaf_count=35 21 30 21 22
internal_value=0 0.111106 0.237221 -0.0247115
internal_weight=0 108 56 52
internal_count=129 108 56 52
shrinkage=0.1


Tree=17
num_leaves=5
num_cat=0
split_feature=4 4 6 11
split_gain=6.75996 1.7039 0.574449 0.0791727
threshold=0.67500000000000016 0.60100000000000009 58.95000000000001 394.94000000000005
decision_type=2 2 2 2
left_child=1 2 3 -1
right_child=-2 -3 -4 -5
leaf_value=0.015780906723812223 -0.046597773237870288 0.033801351879568148 -0.0059426008982781144 0.0071780437077193157
leaf_weight=20 26 24 36 23
leaf_count=20 26 24 36 23
internal_value=0 0.104661 0.0337696 0.111794
internal_weight=0 103 79 43
internal_count=129 103 79 43
shrinkage=0.1


Tree=18
num_leaves=6
num_cat=0
split_feature=0 0 5 9 11
split_gain=2.60869 1.56005 1.11783 0.382374 0.532233
threshold=7.2440800000000012 2.3071500000000005 6.8060000000000009 282.50000000000006 393.16500000000008
decision_type=2 2 2 2 2
left_child=1 2 3 -1 -5
right_child=-2 -3 -4 4 -6
leaf_value=0.0098698445861893046 -0.025252286445659897 0.036419518478214744 0.025397956610790324 -0.018523137934971602 0.0037820739023711374
leaf_weight=21 24 20 21 20 23
leaf_count=21 24 20 21 20 23
internal_value=0 0.112908 0.0537822 -0.0119076 -0.0659244
internal_weight=0 105 85 64 43
internal_count=129 105 85 64 43
shrinkage=0.1


Tree=19
num_leaves=5
num_cat=0
split_feature=12 4 12 7
split_gain=4.00156 2.3598 0.615441 0.370829
threshold=21.620000000000005 0.58450000000000013 6.7250000000000005 4.5215000000000005
decision_type=2 2 2 2
left_child=1 2 -1 -4
right_child=-2 -3 3 -5
leaf_value=0.014267974443457745 -0.037073770044371485 0.034411433502100408 0.0041441602408885956 -0.013079760316759349
leaf_weight=27 20 32 25 25
leaf_count=27 20 32 25 25
internal_value=0 0.115873 0.0210189 -0.044678
internal_weight=0 109 77 50
internal_count=129 109 77 50
shrinkage=0.1


Tree=20
num_leaves=5
num_cat=0
split_feature=5 0 0 9
split_gain=3.57914 3.3932 0.51274 0.208615
threshold=6.8295000000000003 7.2440800000000012 0.26042000000000004 329.50000000000006
decision_type=2 2 2 2
left_child=1 2 3 -1
right_child=-2 -3 -4 -5
leaf_value=-0.00031535438425965947 0.035728354692797774 -0.044596427395230252 0.010790216166836522 -0.012721760384738446
leaf_weight=33 22 21 30 23
leaf_count=33 22 21 30 23
internal_value=0 -0.0855912 0.0024069 -0.0541084
internal_weight=0 107 86 56
internal_count=129 107 86 56
shrinkage=0.1


Tree=21
num_leaves=6
num_cat=0
split_feature=7 12 7 4 4
split_gain=2.68745 0.587957 0.481722 0.132477 0.329755
threshold=1.8217500000000002 6.3250000000000011 5.6044500000000008 0.6070000000000001 0.51250000000000007
decision_type=2 2 2 2 2
left_child=-1 -2 3 4 -3
right_child=1 2 -4 -5 -6
leaf_value=-0.034601249769330024 0.019882309208200735 0.012054550164334831 -0.011206579568633144 0.012684687203727663 -0.0051042526417101426
leaf_weight=20 22 21 22 20 24
leaf_count=20 22 21 22 20 24
internal_value=0 0.0527709 0.0158382 0.0591288 0.0290319
internal_weight=0 109 87 65 45
internal_count=129 109 87 65 45
shrinkage=0.1


Tree=22
num_leaves=6
num_cat=0
split_feature=5 7 7 7 9
split_gain=2.68788 2.01197 0.562509 0.0922071 0.0701614
threshold=6.8295000000000003 1.8625500000000004 5.7265000000000006 3.9398000000000004 387.50000000000006
decision_type=2 2 2 2 2
left_child=1 -1 3 4 -3
right_child=-2 2 -4 -5 -6
leaf_value=-0.035960175022482874 0.031018898060375995 0.010868699606508018 -0.014607000240886753 -0.0015594853548377399 0.0028490605172313129
leaf_weight=20 22 20 22 21 24
leaf_count=20 22 20 22 21 24
internal_value=0 -0.0736033 -0.00785652 0.0389234 0.0649435
internal_weight=0 107 87 65 44
internal_count=129 107 87 65 44
shrinkage=0.1


Tree=23
num_leaves=5
num_cat=0
split_feature=4 6 10 6
split_gain=1.98705 0.416403 0.521992 0.228259
threshold=0.67500000000000016 86.90000000000002 18.650000000000002 54.20000000000001
decision_type=2 2 2 2
left_child=1 2 3 -1
right_child=-2 -3 -4 -5
leaf_value=0.015458948872983456 -0.02543607681380728 0.017702329192649236 -0.0074933205131497808 0.0016550886404255163
leaf_weight=25 26 22 33 23
leaf_count=25 26 22 33 23
internal_value=0 0.0550206 0.0218841 0.088446
internal_weight=0 103 81 48
internal_count=129 103 81 48
shrinkage=0.1


Tree=24
num_leaves=4
num_cat=0
split_feature=12 7 6
split_gain=4.81037 2.64092 0.36592
threshold=16.040000000000003 3.0793000000000004 49.800000000000004
decision_type=2 2 2
left_child=1 -1 -3
right_child=-2 2 -4
leaf_value=0.035347696806171107 -0.032963537817468518 0.0060875447175931189 -0.0090352868159243368
leaf_weight=28 37 32 32
leaf_count=28 37 32 32
internal_value=0 0.0973269 -0.0147387
internal_weight=0 92 64
internal_count=129 92 64
shrinkage=0.1


Tree=25
num_leaves=5
num_cat=0
split_feature=5 10 8 10
split_gain=1.21123 0.794816 0.388465 0.304997
threshold=6.0750000000000011 19.400000000000002 4.5000000000000009 18.350000000000005
decision_type=2 2 2 2
left_child=1 -1 -2 -4
right_child=2 -3 3 -5
leaf_value=0.00069283154327422387 -0.0036747571763892971 -0.025220146929395611 0.018529241679003463 0.0029088185727596284
leaf_weight=20 30 29 25 25
leaf_count=20 30 29 25 25
internal_value=0 -0.146434 0.0532136 0.10719
internal_weight=0 49 80 50
internal_count=129 49 80 50
shrinkage=0.1


Tree=26
num_leaves=4
num_cat=0
split_feature=12 0 10
split_gain=3.66262 2.1536 0.312143
threshold=16.040000000000003 1.1771950000000002 17.700000000000006
decision_type=2 2 2
left_child=1 2 -1
right_child=-2 -3 -4
leaf_value=0.0071704474070833791 -0.028606110598539583 0.03767939239740372 -0.0059981890038923466
leaf_weight=36 37 20 36
leaf_count=36 37 20 36
internal_value=0 0.0864988 0.00586129
internal_weight=0 92 72
internal_count=129 92 72
shrinkage=0.1


Tree=27
num_leaves=5
num_cat=0
split_feature=4 4 4 6
split_gain=2.82728 1.6098 0.442435 0.139653
threshold=0.67500000000000016 0.60100000000000009 0.51250000000000007 49.800000000000004
decision_type=2 2 2 2
left_child=1 2 3 -1
right_child=-2 -3 -4 -5
leaf_value=0.0081873547375923197 -0.031298369907129274 0.028287368151359262 -0.012283585533499718 -0.0020969935834569777
leaf_weight=31 26 24 25 23
leaf_count=31 26 24 25 23
internal_value=0 0.0560567 -0.0128497 0.0380698
internal_weight=0 103 79 54
internal_count=129 103 79 54
shrinkage=0.1


Tree=28
num_leaves=5
num_cat=0
split_feature=5 5 0 9
split_gain=2.57522 2.0007 0.877464 0.228098
threshold=5.7075000000000005 6.0360000000000005 3.6856650000000006 322.00000000000006
decision_type=2 2 2 2
left_child=-1 -2 3 -3
right_child=1 2 -4 -5
leaf_value=0.03936796385794878 -0.0211591542067547 0.0071935389386980162 0.026934280861169103 -0.006000208081677557
leaf_weight=20 31 38 20 20
leaf_count=20 31 38 20 20
internal_value=0 0.00331212 0.0887226 0.0264397
internal_weight=0 109 78 58
internal_count=129 109 78 58
shrinkage=0.1


Tree=29
num_leaves=5
num_cat=0
split_feature=12 0 7 4
split_gain=1.26302 3.08195 0.305402 0.219355
threshold=21.620000000000005 2.6847250000000003 5.164950000000001 0.50850000000000006
decision_type=2 2 2 2
left_child=1 2 3 -1
right_child=-2 -3 -4 -5
leaf_value=0.013547100206570968 -0.017354698441922663 0.040027144422324808 -0.006191224377677852 -0.00031641118973493577
leaf_weight=21 20 26 37 25
leaf_count=21 20 26 37 25
internal_value=0 0.0998357 0.00572332 0.0601258
internal_weight=0 109 83 46
internal_count=129 109 83 46
shrinkage=0.1


Tree=30
num_leaves=5
num_cat=0
split_feature=5 0 0 9
split_gain=1.47743 1.58666 0.478521 0.159085
threshold=6.8295000000000003 7.2440800000000012 0.26042000000000004 291.00000000000006
decision_type=2 2 2 2
left_child=1 2 3 -1
right_child=-2 -3 -4 -5
leaf_value=0.0017877506902036462 0.023299836748364298 -0.029797068211649149 0.011054542024309437 -0.0090462295437288114
leaf_weight=23 22 21 30 33
leaf_count=23 22 21 30 33
internal_value=0 -0.0515429 0.00863127 -0.0459656
internal_weight=0 107 86 56
internal_count=129 107 86 56
shrinkage=0.1


Tree=31
num_leaves=6
num_cat=0
split_feature=7 7 9 4 4
split_gain=0.945676 0.392751 0.366481 0.423873 0.100989
threshold=1.8217500000000002 6.3972500000000005 278.00000000000006 0.58450000000000013 0.51650000000000007
decision_type=2 2 2 2 2
left_child=-1 2 -2 4 -4
right_child=1 -3 3 -5 -6
leaf_value=-0.020259730992256666 0.017241222168440404 -0.0085408733205192475 0.0015713413457640194 0.014169153265122856 -0.0081237030880791806
leaf_weight=20 23 22 22 21 21
leaf_count=20 23 22 22 21 21
internal_value=0 0.0339608 0.0641462 0.0252381 -0.0316345
internal_weight=0 109 87 64 43
internal_count=129 109 87 64 43
shrinkage=0.1


Tree=32
num_leaves=5
num_cat=0
split_feature=5 7 7 5
split_gain=1.1832 0.890978 0.342143 0.307136
threshold=6.378000000000001 2.0330500000000007 3.9398000000000004 6.8295000000000003
decision_type=2 2 2 2
left_child=1 -1 -3 -2
right_child=3 2 -4 -5
leaf_value=-0.026274409029865636 0.0048284098723282423 0.0061419386084058461 -0.0093556148064290658 0.020384311930022457
leaf_weight=20 30 28 29 22
leaf_count=20 30 28 29 22
internal_value=0 -0.0811463 -0.0174278 0.114098
internal_weight=0 77 57 52
internal_count=129 77 57 52
shrinkage=0.1


Tree=33
num_leaves=5
num_cat=0
split_feature=4 6 10 6
split_gain=0.624449 0.425595 0.266749 0.124336
threshold=0.67500000000000016 86.90000000000002 18.650000000000002 54.20000000000001
decision_type=2 2 2 2
left_child=1 2 3 -1
right_child=-2 -3 -4 -5
leaf_value=0.0095655917897820488 -0.014067855208682326 0.01560989257519726 -0.0069953895032857406 -0.00062230199210993632
leaf_weight=25 26 22 33 23
leaf_count=25 26 22 33 23
internal_value=0 0.032757 -0.000743334 0.0468389
internal_weight=0 103 81 48
internal_count=129 103 81 48
shrinkage=0.1


Tree=34
num_leaves=5
num_cat=0
split_feature=12 6 6 12
split_gain=2.22358 1.69787 0.254723 0.12582
threshold=16.040000000000003 82.950000000000017 58.95000000000001 7.6500000000000012
decision_type=2 2 2 2
left_child=1 2 3 -1
right_child=-2 -3 -4 -5
leaf_value=0.0064010810445655477 -0.024015730348214307 0.026657179843347808 -0.011731969627241295 -0.0045579622988589112
leaf_weight=22 37 26 24 20
leaf_count=22 37 26 24 20
internal_value=0 0.0501287 -0.0351368 0.0118249
internal_weight=0 92 66 42
internal_count=129 92 66 42
shrinkage=0.1


Tree=35
num_leaves=5
num_cat=0
split_feature=10 5 5 7
split_gain=0.453983 0.323678 0.338043 0.14986
threshold=17.700000000000006 6.0750000000000011 6.432500000000001 3.5392000000000006
decision_type=2 2 2 2
left_child=3 -2 -3 -1
right_child=1 2 -4 -5
leaf_value=0.011371079934317442 -0.013951850458024405 0.0062887848280370239 -0.010921384692413822 -0.00031301411192702214
leaf_weight=21 39 25 21 23
leaf_count=21 39 25 21 23
internal_value=0 -0.0725002 -0.0156803 0.0526349
internal_weight=0 85 46 44
internal_count=129 85 46 44
shrinkage=0.1


Tree=36
num_leaves=5
num_cat=0
split_feature=12 8 5 0
split_gain=1.72617 0.87048 0.274263 0.0734144
threshold=17.290000000000003 7.5000000000000009 6.5425000000000013 0.17073000000000002
decision_type=2 2 2 2
left_child=1 2 3 -1
right_child=-2 -3 -4 -5
leaf_value=-0.0030877053931665918 -0.024164360897527239 0.01850694346108607 0.0059368616919318121 -0.011085175668466202
leaf_weight=24 29 28 26 22
leaf_count=24 29 28 26 22
internal_value=0 0.0354574 -0.0227251 -0.0691258
internal_weight=0 100 72 46
internal_count=129 100 72 46
shrinkage=0.1


Tree=37
num_leaves=5
num_cat=0
split_feature=4 4 6 2
split_gain=1.57259 1.34398 0.372622 0.0364201
threshold=0.67500000000000016 0.60100000000000009 58.95000000000001 4.9400000000000004
decision_type=2 2 2 2
left_child=1 2 3 -1
right_child=-2 -3 -4 -5
leaf_value=0.0062408911064267165 -0.024391121789813043 0.023856557238226137 -0.010669983695778582 0.00040609511222852317
leaf_weight=20 26 24 36 23
leaf_count=20 26 24 36 23
internal_value=0 0.03132 -0.0316407 0.0311995
internal_weight=0 103 79 43
internal_count=129 103 79 43
shrinkage=0.1


Tree=38
num_leaves=6
num_cat=0
split_feature=5 5 0 9 5
split_gain=3.419 0.895978 0.955499 0.230007 0.024051
threshold=5.7075000000000005 6.0010000000000003 3.6856650000000006 322.00000000000006 6.432500000000001
decision_type=2 2 2 2 2
left_child=-1 -2 3 4 -3
right_child=1 2 -4 -5 -6
leaf_value=0.045597487818449738 -0.015581175470120237 0.0016377487452700736 0.024735015388578179 -0.0088982028398840209 0.0064291726797819143
leaf_weight=20 26 22 20 21 20
leaf_count=20 26 22 20 21 20
internal_value=0 0.00617811 0.0569219 -0.00353148 0.0391938
internal_weight=0 109 83 63 42
internal_count=129 109 83 63 42
shrinkage=0.1


Tree=39
num_leaves=5
num_cat=0
split_feature=7 12 12 0
split_gain=1.69195 0.799542 0.325534 0.175705
threshold=1.6727500000000004 12.965000000000002 8.4700000000000006 3.8123400000000003
decision_type=2 2 2 2
left_child=-1 2 -2 -3
right_child=1 3 -4 -5
leaf_value=0.033568320283666256 0.0019818472223252885 0.019802947826683522 -0.011768520564179529 0.0065475697536021482
leaf_weight=20 36 20 33 20
leaf_count=20 36 20 33 20
internal_value=0 0.0192657 -0.0459442 0.131753
internal_weight=0 109 69 40
internal_count=129 109 69 40
shrinkage=0.1


Tree=40
num_leaves=6
num_cat=0
split_feature=5 5 5 5 0
split_gain=0.766348 0.52587 0.312266 0.150659 0.0897582
threshold=6.0105000000000013 5.7440000000000007 6.8295000000000003 6.2260000000000009 0.16073500000000004
decision_type=2 2 2 2 2
left_child=1 -1 3 -2 -5
right_child=2 -3 -4 4 -6
leaf_value=0.00047278411331630894 0.0087519648049593623 -0.021906423967863835 0.016029465723444113 -0.0057243091985583307 0.0035319445375353101
leaf_weight=21 23 21 22 22 20
leaf_count=21 23 21 22 22 20
internal_value=0 -0.107168 0.0573158 0.0224614 -0.0131657
internal_weight=0 42 87 65 42
internal_count=129 42 87 65 42
shrinkage=0.1


Tree=41
num_leaves=5
num_cat=0
split_feature=7 7 9 4
split_gain=0.587939 0.357887 0.195324 0.385928
threshold=1.8217500000000002 5.6044500000000008 280.00000000000006 0.58450000000000013
decision_type=2 2 2 2
left_child=-1 2 -2 -4
right_child=1 -3 3 -5
leaf_value=-0.015421825218945744 0.014962706167162174 -0.0062866348757183764 -0.0022798327998699327 0.014612033395540147
leaf_weight=20 21 29 38 21
leaf_count=20 21 29 38 21
internal_value=0 0.0323049 0.0668045 0.0373253
internal_weight=0 109 80 59
internal_count=129 109 80 59
shrinkage=0.1


Tree=42
num_leaves=5
num_cat=0
split_feature=5 7 7 9
split_gain=0.611643 0.658651 0.277158 0.257399
threshold=6.378000000000001 2.0330500000000007 4.4583000000000004 312.00000000000006
decision_type=2 2 2 2
left_child=1 -1 -3 -2
right_child=3 2 -4 -5
leaf_value=-0.020967486050794834 0.0031217680585541533 0.0056531050601708044 -0.0086706249837086285 0.017583324285224081
leaf_weight=20 32 35 22 20
leaf_count=20 32 35 22 20
internal_value=0 -0.0535383 0.00124648 0.0868391
internal_weight=0 77 57 52
internal_count=129 77 57 52
shrinkage=0.1


Tree=43
num_leaves=5
num_cat=0
split_feature=11 6 11 4
split_gain=0.497673 1.29497 1.10441 0.26958
threshold=396.02500000000003 94.350000000000009 376.88500000000005 0.46650000000000008
decision_type=2 2 2 2
left_child=1 2 -1 -4
right_child=-2 -3 3 -5
leaf_value=-0.022539350558072331 -0.010539732614415698 0.025175402986563067 -0.0030552278835481658 0.011061661588328501
leaf_weight=20 32 22 24 31
leaf_count=20 32 22 24 31
internal_value=0 0.0384183 -0.0241601 0.0490156
internal_weight=0 97 75 55
internal_count=129 97 75 55
shrinkage=0.1


Tree=44
num_leaves=5
num_cat=0
split_feature=12 6 11 9
split_gain=1.6225 1.09015 0.290254 0.130031
threshold=16.040000000000003 84.90000000000002 393.75500000000005 288.00000000000006
decision_type=2 2 2 2
left_child=1 2 -1 -4
right_child=-2 -3 3 -5
leaf_value=-0.010077287430136368 -0.021259244147065173 0.023553022053757949 -0.002633929078001529 0.00849438432958864
leaf_weight=29 37 21 21 21
leaf_count=29 37 21 21 21
internal_value=0 0.0353741 -0.023827 0.0293023
internal_weight=0 92 71 42
internal_count=129 92 71 42
shrinkage=0.1


Tree=45
num_leaves=5
num_cat=0
split_feature=7 7 5 1
split_gain=0.370963 0.708261 0.156809 0.111991
threshold=1.8217500000000002 2.5977000000000006 6.0955000000000004 15.000000000000002
decision_type=2 2 2 2
left_child=-1 -2 -3 -4
right_child=1 2 3 -5
leaf_value=0.0093016437813639632 -0.01723540677755539 0.0068840719759464264 -0.0071435033793336364 0.0023181365718218413
leaf_weight=20 35 23 29 22
leaf_count=20 35 23 29 22
internal_value=0 -0.0551439 0.000293387 -0.0306201
internal_weight=0 109 74 51
internal_count=129 109 74 51
shrinkage=0.1


Tree=46
num_leaves=6
num_cat=0
split_feature=12 8 10 12 0
split_gain=1.36852 0.707237 0.198488 0.110698 0.0252341
threshold=19.530000000000005 16.000000000000004 17.700000000000006 7.7650000000000015 0.17073000000000002
decision_type=2 2 2 2 2
left_child=1 2 3 -1 -4
right_child=-2 -3 4 -5 -6
leaf_value=0.006943961109399148 -0.026253453234121916 0.017202866012635439 -0.0050016226756962991 -0.0032284955773502588 -0.0099039193242788318
leaf_weight=23 21 23 21 20 21
leaf_count=23 21 23 21 20 21
internal_value=0 0.0164621 -0.0256324 0.0221259 -0.0745277
internal_weight=0 108 85 43 42
internal_count=129 108 85 43 42
shrinkage=0.1


Tree=47
num_leaves=5
num_cat=0
split_feature=4 4 4 11
split_gain=1.35868 0.955026 0.377504 0.0847179
threshold=0.67500000000000016 0.60100000000000009 0.50550000000000017 396.02500000000003
decision_type=2 2 2 2
left_child=1 2 3 -1
right_child=-2 -3 -4 -5
leaf_value=0.0065031535664780279 -0.02303262810007884 0.020020349372255927 -0.011358948532612094 -0.0019655434093216345
leaf_weight=27 26 24 31 21
leaf_count=27 26 24 31 21
internal_value=0 0.0255019 -0.027572 0.027981
internal_weight=0 103 79 48
internal_count=129 103 79 48
shrinkage=0.1


Tree=48
num_leaves=6
num_cat=0
split_feature=5 5 0 9 9
split_gain=3.28227 0.399412 0.744184 0.250629 0.0122899
threshold=5.7075000000000005 6.0010000000000003 3.6856650000000006 322.00000000000006 276.50000000000006
decision_type=2 2 2 2 2
left_child=-1 -2 3 4 -3
right_child=1 2 -4 -5 -6
leaf_value=0.045196762755513195 -0.0096898996378653318 0.0019278957059473863 0.021319381436333062 -0.0097413583647548447 0.0053490980794387204
leaf_weight=20 26 21 20 21 21
leaf_count=20 26 21 20 21 21
internal_value=0 0.0112568 0.0451369 -0.00821455 0.036385
internal_weight=0 109 83 63 42
internal_count=129 109 83 63 42
shrinkage=0.1


Tree=49
num_leaves=5
num_cat=0
split_feature=7 12 12 0
split_gain=1.61489 0.824751 0.186461 0.107877
threshold=1.6727500000000004 12.965000000000002 8.4700000000000006 3.8123400000000003
decision_type=2 2 2 2
left_child=-1 2 -2 -3
right_child=1 3 -4 -5
leaf_value=0.033282671850174667 0.00072397743222407174 0.0189877157099545 -0.0096826442404452599 0.0086013388726860294
leaf_weight=20 36 20 33 20
leaf_count=20 36 20 33 20
internal_value=0 0.0236988 -0.042531 0.137945
internal_weight=0 109 69 40
internal_count=129 109 69 40
shrinkage=0.1


Tree=50
num_leaves=5
num_cat=0
split_feature=0 0 9 0
split_gain=0.611266 0.271509 0.276607 0.147301
threshold=8.7544350000000026 0.055060000000000005 284.50000000000006 0.28957500000000008
decision_type=2 2 2 2
left_child=1 -1 -3 -4
right_child=-2 2 3 -5
leaf_value=-0.0055722445249557495 -0.015442508105188608 0.016564173449296504 -0.0027087390252675575 0.0070594468055979204
leaf_weight=25 20 20 26 38
leaf_count=25 20 20 26 38
internal_value=0 0.0357623 0.0629899 0.0309112
internal_weight=0 109 84 64
internal_count=129 109 84 64
shrinkage=0.1


Tree=51
num_leaves=6
num_cat=0
split_feature=7 7 7 4 4
split_gain=0.494545 0.305601 0.151722 0.273087 0.0289259
threshold=1.8217500000000002 5.6044500000000008 2.3197000000000005 0.52800000000000014 0.49100000000000005
decision_type=2 2 2 2 2
left_child=-1 2 -2 4 -4
right_child=1 -3 3 -5 -6
leaf_value=-0.01388978075236082 0.013947976008057595 -0.0055774210293873631 0.011350334617309273 -0.0056501662381924691 0.0059720507083693523
leaf_weight=20 20 29 20 20 20
leaf_count=20 20 29 20 20 20
internal_value=0 0.0321705 0.0640505 0.0389074 0.0866119
internal_weight=0 109 80 60 40
internal_count=129 109 80 60 40
shrinkage=0.1


Tree=52
num_leaves=6
num_cat=0
split_feature=5 9 6 6 7
split_gain=0.500358 0.432232 0.353575 0.270611 0.0787306
threshold=6.0105000000000013 434.50000000000006 91.250000000000014 67.40000000000002 5.3440000000000003
decision_type=2 2 2 2 2
left_child=1 -1 3 4 -2
right_child=2 -3 -4 -5 -6
leaf_value=0.0012172630628232252 0.0097046922649378364 -0.019094934575259688 0.016137278366035648 -0.0081338248969543541 0.0013370545030656185
leaf_weight=22 23 20 21 21 22
leaf_count=22 23 20 21 21 22
internal_value=0 -0.0845521 0.0483558 0.0123959 0.0561385
internal_weight=0 42 87 66 45
internal_count=129 42 87 66 45
shrinkage=0.1


Tree=53
num_leaves=5
num_cat=0
split_feature=11 6 11 4
split_gain=0.425522 0.941017 0.813439 0.288339
threshold=396.02500000000003 94.350000000000009 376.88500000000005 0.46650000000000008
decision_type=2 2 2 2
left_child=1 2 -1 -4
right_child=-2 -3 3 -5
leaf_value=-0.018848428237251941 -0.0095419554134423389 0.021942098599604585 -0.0035270819828535117 0.011072710507939901
leaf_weight=20 32 22 24 31
leaf_count=20 32 22 24 31
internal_value=0 0.0375631 -0.0157819 0.0470189
internal_weight=0 97 75 55
internal_count=129 97 75 55
shrinkage=0.1


Tree=54
num_leaves=4
num_cat=0
split_feature=12 7 6
split_gain=1.34983 0.858572 0.306126
threshold=16.040000000000003 3.0793000000000004 49.800000000000004
decision_type=2 2 2
left_child=1 -1 -3
right_child=-2 2 -4
leaf_value=0.017168871313333511 -0.020053538055838767 0.0030900833269697616 -0.01074209105281625
leaf_weight=28 37 32 32
leaf_count=28 37 32 32
internal_value=0 0.0256374 -0.03826
internal_weight=0 92 64
internal_count=129 92 64
shrinkage=0.1


Tree=55
num_leaves=5
num_cat=0
split_feature=7 7 5 1
split_gain=0.361061 0.764253 0.162286 0.0929685
threshold=1.8217500000000002 2.5575500000000004 6.0955000000000004 15.000000000000002
decision_type=2 2 2 2
left_child=-1 -2 -3 -4
right_child=1 2 3 -5
leaf_value=0.0088197133690118799 -0.01823369798195713 0.0066215541786126169 -0.0070691458880901342 0.0015515583143992859
leaf_weight=20 34 24 29 22
leaf_count=20 34 24 29 22
internal_value=0 -0.0579724 -0.00159382 -0.0335041
internal_weight=0 109 75 51
internal_count=129 109 75 51
shrinkage=0.1


Tree=56
num_leaves=4
num_cat=0
split_feature=12 8 10
split_gain=1.09872 0.953509 0.186019
threshold=16.040000000000003 7.5000000000000009 17.500000000000004
decision_type=2 2 2
left_child=1 2 -1
right_child=-2 -3 -4
leaf_value=0.0021741790289524945 -0.017730573398640027 0.019811054000941419 -0.0083045104518532763
leaf_weight=32 37 24 36
leaf_count=32 37 24 36
internal_value=0 0.0267475 -0.0337336
internal_weight=0 92 68
internal_count=129 92 68
shrinkage=0.1


Tree=57
num_leaves=5
num_cat=0
split_feature=4 4 6 4
split_gain=1.06373 0.727458 0.310481 0.058349
threshold=0.67500000000000016 0.60100000000000009 58.95000000000001 0.44395000000000007
decision_type=2 2 2 2
left_child=1 2 3 -1
right_child=-2 -3 -4 -5
leaf_value=0.0067565885931253431 -0.020934117882727431 0.016949526825919749 -0.0097814063412240814 -0.00062877589269824652
leaf_weight=20 26 24 36 23
leaf_count=20 26 24 36 23
internal_value=0 0.0170221 -0.0292988 0.0280628
internal_weight=0 103 79 43
internal_count=129 103 79 43
shrinkage=0.1


Tree=58
num_leaves=6
num_cat=0
split_feature=5 5 0 9 9
split_gain=3.00338 0.208945 0.694598 0.239019 0.0119422
threshold=5.7075000000000005 6.0010000000000003 3.6856650000000006 322.00000000000006 276.50000000000006
decision_type=2 2 2 2 2
left_child=-1 -2 3 4 -3
right_child=1 2 -4 -5 -6
leaf_value=0.043719592653214935 -0.00626027743654469 0.0015277311494130464 0.02024901161901653 -0.0098523121681951351 0.0049001954196553144
leaf_weight=20 26 21 20 21 21
leaf_count=20 26 21 20 21 21
internal_value=0 0.0156239 0.0401287 -0.0114146 0.0321396
internal_weight=0 109 83 63 42
internal_count=129 109 83 63 42
shrinkage=0.1


Tree=59
num_leaves=6
num_cat=0
split_feature=7 12 4 0 0
split_gain=1.41186 0.910894 0.150887 0.0411857 0.0241191
threshold=1.6727500000000004 12.965000000000002 0.43745000000000006 0.078855000000000022 3.8123400000000003
decision_type=2 2 2 2 2
left_child=-1 2 -2 -4 -3
right_child=1 4 3 -5 -6
leaf_value=0.03171153200790286 0.0020507932147011162 0.0172692983597517 -0.011029362515546383 -0.0048849699630712472 0.012358181118033827
leaf_weight=20 25 20 20 24 20
leaf_count=20 25 20 20 24 20
internal_value=0 0.0280727 -0.04153 -0.0767788 0.148137
internal_weight=0 109 69 44 40
internal_count=129 109 69 44 40
shrinkage=0.1


Tree=60
num_leaves=6
num_cat=0
split_feature=5 9 5 5 0
split_gain=0.496391 0.362023 0.150708 0.119244 0.03914
threshold=6.0105000000000013 431.00000000000006 6.8295000000000003 6.2260000000000009 0.16073500000000004
decision_type=2 2 2 2 2
left_child=1 -1 3 -2 -5
right_child=2 -3 -4 4 -6
leaf_value=0.0012300168640822882 0.0085503737401703122 -0.017338343403701269 0.012337938492948359 -0.0033177570863203568 0.0027946024853736165
leaf_weight=21 23 21 22 22 20
leaf_count=21 23 21 22 22 20
internal_value=0 -0.0805416 0.0518385 0.0276246 -0.0040711
internal_weight=0 42 87 65 42
internal_count=129 42 87 65 42
shrinkage=0.1


Tree=61
num_leaves=6
num_cat=0
split_feature=7 12 7 4 4
split_gain=0.469805 0.355507 0.1769 0.0959757 0.0197261
threshold=1.8217500000000002 16.225000000000005 5.7265000000000006 0.53500000000000014 0.49100000000000005
decision_type=2 2 2 2 2
left_child=-1 2 3 4 -2
right_child=1 -3 -4 -5 -6
leaf_value=-0.013301994763314723 0.008669694205746056 0.015418773917481305 -0.0060917137924762863 -0.0018912571438011669 0.0042814755457497777
leaf_weight=20 20 20 27 21 21
leaf_count=20 20 20 27 21 21
internal_value=0 0.0337145 0.00664182 0.0360627 0.0642207
internal_weight=0 109 89 62 41
internal_count=129 109 89 62 41
shrinkage=0.1


Tree=62
num_leaves=6
num_cat=0
split_feature=7 7 7 9 7
split_gain=0.380542 0.260336 0.107626 0.192887 0.0819012
threshold=1.8217500000000002 5.7265000000000006 2.3197000000000005 280.00000000000006 3.4226500000000004
decision_type=2 2 2 2 2
left_child=-1 2 -2 -4 -5
right_child=1 -3 3 4 -6
leaf_value=-0.011971794180572034 0.012217331901192667 -0.0054825424302921248 0.011574580881833323 -0.0047906751604750754 0.0041508673379818594
leaf_weight=20 20 27 21 20 21
leaf_count=20 20 27 21 20 21
internal_value=0 0.030343 0.0583863 0.0378098 -0.00210861
internal_weight=0 109 82 62 41
internal_count=129 109 82 62 41
shrinkage=0.1


Tree=63
num_leaves=5
num_cat=0
split_feature=11 6 11 4
split_gain=0.300359 0.774512 0.622099 0.28149
threshold=396.02500000000003 94.350000000000009 376.88500000000005 0.46650000000000008
decision_type=2 2 2 2
left_child=1 2 -1 -4
right_child=-2 -3 3 -5
leaf_value=-0.016534179821610453 -0.0077641118550673127 0.019907111937010832 -0.0040697233824175784 0.010355637396775908
leaf_weight=20 32 22 24 31
leaf_count=20 32 22 24 31
internal_value=0 0.034085 -0.014311 0.0406093
internal_weight=0 97 75 55
internal_count=129 97 75 55
shrinkage=0.1


Tree=64
num_leaves=5
num_cat=0
split_feature=12 7 11 12
split_gain=1.12889 0.827015 0.498884 0.136606
threshold=19.530000000000005 2.2729500000000002 392.71500000000009 9.2050000000000018
decision_type=2 2 2 2
left_child=1 -1 -3 -4
right_child=-2 2 3 -5
leaf_value=0.017332144115458838 -0.025308853033043088 -0.013371304073370994 -0.0022003249777480961 0.0084691729623591529
leaf_weight=22 21 36 30 20
leaf_count=22 21 36 30 20
internal_value=0 0.000306846 -0.0439527 0.0206747
internal_weight=0 108 86 50
internal_count=129 108 86 50
shrinkage=0.1


Tree=65
num_leaves=5
num_cat=0
split_feature=7 7 5 10
split_gain=0.37462 0.802661 0.143494 0.0840816
threshold=1.8217500000000002 2.5575500000000004 6.0170000000000003 18.350000000000005
decision_type=2 2 2 2
left_child=-1 -2 -3 -4
right_child=1 2 3 -5
leaf_value=0.0088956116698682315 -0.018738401144304695 0.0070381062431260945 0.00021968095919446033 -0.0078282220355634178
leaf_weight=20 34 20 34 21
leaf_count=20 34 20 34 21
internal_value=0 -0.0599328 -0.00215485 -0.0285315
internal_weight=0 109 75 55
internal_count=129 109 75 55
shrinkage=0.1


Tree=66
num_leaves=4
num_cat=0
split_feature=12 10 12
split_gain=0.993391 0.765625 0.157879
threshold=16.040000000000003 20.150000000000002 7.6500000000000012
decision_type=2 2 2
left_child=1 2 -1
right_child=-2 -3 -4
leaf_value=0.0020698217522086841 -0.01715395053898966 0.019022548868365231 -0.0073622336391256094
leaf_weight=35 37 21 36
leaf_count=35 37 21 36
internal_value=0 0.0224866 -0.0271263
internal_weight=0 92 71
internal_count=129 92 71
shrinkage=0.1


Tree=67
num_leaves=5
num_cat=0
split_feature=4 4 4 4
split_gain=0.891059 0.602388 0.354556 0.0775513
threshold=0.67500000000000016 0.58450000000000013 0.50550000000000017 0.44750000000000006
decision_type=2 2 2 2
left_child=1 2 3 -1
right_child=-2 -3 -4 -5
leaf_value=0.0057047395668923858 -0.019526872010185169 0.014021412110715002 -0.012310205689365311 -0.0023412848741787931
leaf_weight=25 26 27 28 23
leaf_count=25 26 27 28 23
internal_value=0 0.0119089 -0.0336733 0.0184935
internal_weight=0 103 76 48
internal_count=129 103 76 48
shrinkage=0.1


Tree=68
num_leaves=5
num_cat=0
split_feature=5 11 11 11
split_gain=2.77307 0.151745 0.217508 0.203486
threshold=5.7075000000000005 379.55500000000006 390.98000000000008 395.72000000000008
decision_type=2 2 2 2
left_child=-1 -2 -3 -4
right_child=1 2 3 -5
leaf_value=0.042377358675003057 0.0080658707422493342 -0.0094090636773034933 0.0079004063285097025 -0.0038054843795382316
leaf_weight=20 29 20 33 27
leaf_count=20 29 20 33 27
internal_value=0 0.0186876 -0.00377699 0.0263276
internal_weight=0 109 80 60
internal_count=129 109 80 60
shrinkage=0.1


Tree=69
num_leaves=5
num_cat=0
split_feature=4 4 12 4
split_gain=1.59638 0.37349 1.42587 0.0935132
threshold=0.69650000000000001 0.60100000000000009 12.965000000000002 0.43745000000000006
decision_type=2 2 2 2
left_child=1 2 3 -1
right_child=-2 -3 -4 -5
leaf_value=0.0020050385189242662 0.030602416023612022 -0.01027949370443821 0.026826267697933046 -0.005869858448798033
leaf_weight=25 24 20 22 38
leaf_count=25 24 20 22 38
internal_value=0 0.020158 0.0490881 -0.027449
internal_weight=0 105 85 63
internal_count=129 105 85 63
shrinkage=0.1


Tree=70
num_leaves=6
num_cat=0
split_feature=5 9 5 5 0
split_gain=0.497147 0.247704 0.125482 0.0652579 0.0291648
threshold=6.0105000000000013 431.00000000000006 6.8295000000000003 6.2260000000000009 0.16073500000000004
decision_type=2 2 2 2 2
left_child=1 -1 3 -2 -5
right_child=2 -3 -4 4 -6
leaf_value=-0.00036456450110390073 0.0072761394528282359 -0.015723895210595359 0.011731807379560038 -0.0018628821157934993 0.0034133965522050859
leaf_weight=21 23 21 22 22 20
leaf_count=21 23 21 22 22 20
internal_value=0 -0.0804423 0.0520386 0.029944 0.00649632
internal_weight=0 42 87 65 42
internal_count=129 42 87 65 42
shrinkage=0.1


Tree=71
num_leaves=6
num_cat=0
split_feature=7 12 7 4 4
split_gain=0.294093 0.299554 0.146551 0.0922687 0.0176219
threshold=1.8217500000000002 16.225000000000005 5.7265000000000006 0.53500000000000014 0.49100000000000005
decision_type=2 2 2 2 2
left_child=-1 2 3 4 -2
right_child=1 -3 -4 -5 -6
leaf_value=-0.010345203839242459 0.0079247335367836052 0.013905435190536081 -0.005787487293559092 -0.0023508316105497733 0.0037771616837874592
leaf_weight=20 20 20 27 21 21
leaf_count=20 20 20 27 21 21
internal_value=0 0.0284674 0.00361634 0.0303948 0.0580037
internal_weight=0 109 89 62 41
internal_count=129 109 89 62 41
shrinkage=0.1


Tree=72
num_leaves=6
num_cat=0
split_feature=5 9 6 6 6
split_gain=0.378732 0.199765 0.171807 0.184406 0.0721206
threshold=6.0105000000000013 431.00000000000006 91.250000000000014 67.40000000000002 48.350000000000009
decision_type=2 2 2 2 2
left_child=1 -1 3 4 -2
right_child=2 -3 -4 -5 -6
leaf_value=-0.00018049049235525588 0.0018455307620267075 -0.01397367568597907 0.012364214791783266 -0.0057583056340393219 0.0098700817430480616
leaf_weight=21 24 21 21 21 21
leaf_count=21 24 21 21 21 21
internal_value=0 -0.0707708 0.0448608 0.0197939 0.0559032
internal_weight=0 42 87 66 45
internal_count=129 42 87 66 45
shrinkage=0.1


Tree=73
num_leaves=5
num_cat=0
split_feature=11 6 11 4
split_gain=0.232744 0.612441 0.469358 0.288926
threshold=396.02500000000003 94.350000000000009 376.88500000000005 0.46650000000000008
decision_type=2 2 2 2
left_child=1 2 -1 -4
right_child=-2 -3 3 -5
leaf_value=-0.014333282983861865 -0.0067460930731613189 0.017760072716257787 -0.0046816190549482904 0.0099330271271267732
leaf_weight=20 32 22 24 31
leaf_count=20 32 22 24 31
internal_value=0 0.0308888 -0.0121468 0.0355573
internal_weight=0 97 75 55
internal_count=129 97 75 55
shrinkage=0.1


Tree=74
num_leaves=4
num_cat=0
split_feature=12 9 7
split_gain=0.898925 0.632362 0.215861
threshold=16.040000000000003 346.50000000000006 5.164950000000001
decision_type=2 2 2
left_child=1 2 -1
right_child=-2 -3 -4
leaf_value=-0.0089959730752385593 -0.016921043526884672 0.012621555054052311 0.003782099518575706
leaf_weight=39 37 33 20
leaf_count=39 37 33 20
internal_value=0 0.0153598 -0.0466442
internal_weight=0 92 59
internal_count=129 92 59
shrinkage=0.1


Tree=75
num_leaves=5
num_cat=0
split_feature=7 7 5 10
split_gain=0.463738 0.74631 0.129933 0.0865397
threshold=1.8217500000000002 2.5575500000000004 6.0170000000000003 18.350000000000005
decision_type=2 2 2 2
left_child=-1 -2 -3 -4
right_child=1 2 3 -5
leaf_value=0.010615055095404387 -0.018239987805923997 0.0065232075069798154 0.00022839027825980073 -0.0079363034350708843
leaf_weight=20 34 20 34 21
leaf_count=20 34 20 34 21
internal_value=0 -0.0595039 -0.00379106 -0.0288904
internal_weight=0 109 75 55
internal_count=129 109 75 55
shrinkage=0.1


Tree=76
num_leaves=5
num_cat=0
split_feature=12 0 0 10
split_gain=0.757018 0.576504 0.174802 0.0985571
threshold=19.530000000000005 3.6856650000000006 0.32403500000000002 17.500000000000004
decision_type=2 2 2 2
left_child=1 2 3 -1
right_child=-2 -3 -4 -5
leaf_value=0.0047924331929534679 -0.020416315432105744 0.015659614612814038 -0.0093460577509055544 -0.0035315465224398813
leaf_weight=25 21 20 30 33
leaf_count=25 21 20 30 33
internal_value=0 0.00334077 -0.03149 0.000563758
internal_weight=0 108 88 58
internal_count=129 108 88 58
shrinkage=0.1


Tree=77
num_leaves=5
num_cat=0
split_feature=4 4 6 4
split_gain=0.820736 0.625661 0.264742 0.0384031
threshold=0.67500000000000016 0.60100000000000009 58.95000000000001 0.44395000000000007
decision_type=2 2 2 2
left_child=1 2 3 -1
right_child=-2 -3 -4 -5
leaf_value=0.0054738132772035901 -0.018615418772857922 0.015408314717933537 -0.0093545351116012584 -0.00051772698112156077
leaf_weight=20 26 24 36 23
leaf_count=20 26 24 36 23
internal_value=0 0.0126801 -0.0302778 0.0226904
internal_weight=0 103 79 43
internal_count=129 103 79 43
shrinkage=0.1


Tree=78
num_leaves=5
num_cat=0
split_feature=5 0 9 9
split_gain=2.57555 0.188871 0.38057 0.0668844
threshold=5.7075000000000005 3.8123400000000003 322.00000000000006 274.50000000000006
decision_type=2 2 2 2
left_child=-1 2 3 -2
right_child=1 -3 -4 -5
leaf_value=0.040746247253846381 -0.00032147356308996682 0.0087869507311552301 -0.010170918929257564 0.007007248147221451
leaf_weight=20 20 28 28 33
leaf_count=20 20 28 28 33
internal_value=0 0.0170696 -0.00740445 0.0424169
internal_weight=0 109 81 53
internal_count=129 109 81 53
shrinkage=0.1


Tree=79
num_leaves=6
num_cat=0
split_feature=4 7 4 12 7
split_gain=1.5859 0.395374 0.249885 0.240117 0.120551
threshold=0.69650000000000001 2.0941000000000005 0.52800000000000014 10.160000000000002 5.4009000000000009
decision_type=2 2 2 2 2
left_child=1 -1 3 4 -3
right_child=-2 2 -4 -5 -6
leaf_value=0.014333045035600662 0.030175254854839295 0.0025163277406650393 -0.011068580459104853 0.010511426864901469 -0.0079631292571624122
leaf_weight=20 24 23 20 21 21
leaf_count=20 24 23 20 21 21
internal_value=0 0.0168266 -0.012939 0.0171369 -0.0248523
internal_weight=0 105 85 65 44
internal_count=129 105 85 65 44
shrinkage=0.1


Tree=80
num_leaves=6
num_cat=0
split_feature=5 9 5 0 5
split_gain=0.409448 0.161189 0.114992 0.0390078 0.0581097
threshold=6.0105000000000013 434.50000000000006 6.8295000000000003 3.5046450000000005 6.2825000000000006
decision_type=2 2 2 2 2
left_child=1 -1 3 4 -2
right_child=2 -3 -4 -5 -6
leaf_value=-0.0014433070424605501 0.0082086118776351219 -0.013847417505457999 0.010922033441337672 -0.001116807172074914 0.00097682536952197548
leaf_weight=22 20 20 22 20 25
leaf_count=22 20 20 22 20 25
internal_value=0 -0.0735003 0.0467289 0.025578 0.0419095
internal_weight=0 42 87 65 45
internal_count=129 42 87 65 45
shrinkage=0.1


Tree=81
num_leaves=6
num_cat=0
split_feature=7 12 7 4 4
split_gain=0.278369 0.321373 0.173299 0.0705735 0.014666
threshold=1.8217500000000002 16.225000000000005 5.7265000000000006 0.53500000000000014 0.49100000000000005
decision_type=2 2 2 2 2
left_child=-1 2 3 4 -2
right_child=1 -3 -4 -5 -6
leaf_value=-0.010162009056657553 0.0073630188964307315 0.014126814808696509 -0.0065883419924864066 -0.001703780610114336 0.0035792601871348566
leaf_weight=20 20 20 27 21 21
leaf_count=20 20 20 27 21 21
internal_value=0 0.0267245 0.000984294 0.0301041 0.05425
internal_weight=0 109 89 62 41
internal_count=129 109 89 62 41
shrinkage=0.1


Tree=82
num_leaves=5
num_cat=0
split_feature=5 9 7 9
split_gain=0.344884 0.341626 0.721316 0.164449
threshold=6.378000000000001 431.00000000000006 4.2594000000000003 312.00000000000006
decision_type=2 2 2 2
left_child=1 2 -1 -2
right_child=3 -3 -4 -5
leaf_value=0.015544688879024417 0.0024604597288998779 -0.011125511395649108 -0.010365822200070728 0.014019651003181935
leaf_weight=21 32 34 22 20
leaf_count=21 32 34 22 20
internal_value=0 -0.0363477 0.0228815 0.069063
internal_weight=0 77 43 52
internal_count=129 77 43 52
shrinkage=0.1


Tree=83
num_leaves=5
num_cat=0
split_feature=6 6 11 4
split_gain=0.21641 0.332817 0.181107 0.165906
threshold=95.850000000000009 86.90000000000002 390.61500000000007 0.47800000000000004
decision_type=2 2 2 2
left_child=1 2 -1 -4
right_child=-2 -3 3 -5
leaf_value=-0.0065795539277455507 -0.0084799217737533839 0.013068401740620968 -0.0022437275719961952 0.0089640502296388144
leaf_weight=31 22 23 28 25
leaf_count=31 22 23 28 25
internal_value=0 0.0241013 -0.00508206 0.0304296
internal_weight=0 107 84 53
internal_count=129 107 84 53
shrinkage=0.1


Tree=84
num_leaves=5
num_cat=0
split_feature=11 11 6 7
split_gain=0.788492 0.692765 0.289167 0.118401
threshold=340.26000000000005 382.62000000000006 58.95000000000001 2.6741000000000006
decision_type=2 2 2 2
left_child=-1 -2 -3 -4
right_child=1 2 3 -5
leaf_value=-0.020636131326951412 0.013970278396915932 0.0018274935874311876 -0.015939907968859187 -0.0055219196151786798
leaf_weight=23 26 36 20 24
leaf_count=23 26 36 20 24
internal_value=0 -0.00210445 -0.0481918 -0.102574
internal_weight=0 106 80 44
internal_count=129 106 80 44
shrinkage=0.1


Tree=85
num_leaves=5
num_cat=0
split_feature=7 7 5 7
split_gain=0.462493 0.615859 0.110338 0.0683686
threshold=1.8217500000000002 2.5575500000000004 6.0170000000000003 3.5392000000000006
decision_type=2 2 2 2
left_child=-1 -2 -3 -4
right_child=1 2 3 -5
leaf_value=0.01051134060136974 -0.017195816630470186 0.0053897552820853893 0.0013802871573716402 -0.0059489798193265286
leaf_weight=20 34 20 20 35
leaf_count=20 34 20 20 35
internal_value=0 -0.0603185 -0.00970846 -0.0328379
internal_weight=0 109 75 55
internal_count=129 109 75 55
shrinkage=0.1


Tree=86
num_leaves=4
num_cat=0
split_feature=12 10 12
split_gain=0.655423 0.730052 0.14379
threshold=16.040000000000003 20.150000000000002 7.6500000000000012
decision_type=2 2 2
left_child=1 2 -1
right_child=-2 -3 -4
leaf_value=0.001119452868879307 -0.014360125607030616 0.017779625395667697 -0.0078818972812061683
leaf_weight=35 37 21 36
leaf_count=35 37 21 36
internal_value=0 0.0140005 -0.0344461
internal_weight=0 92 71
internal_count=129 92 71
shrinkage=0.1


Tree=87
num_leaves=5
num_cat=0
split_feature=4 4 4 4
split_gain=0.763617 0.692983 0.238239 0.0673442
threshold=0.67500000000000016 0.58450000000000013 0.44750000000000006 0.51650000000000007
decision_type=2 2 2 2
left_child=1 2 -1 -4
right_child=-2 -3 3 -5
leaf_value=0.0041650659501901825 -0.018121797132950562 0.014818824424960273 -0.004711406661420673 -0.012094950004081641
leaf_weight=25 26 27 30 21
leaf_count=25 26 27 30 21
internal_value=0 0.0105727 -0.038317 -0.0775169
internal_weight=0 103 76 51
internal_count=129 103 76 51
shrinkage=0.1


Tree=88
num_leaves=5
num_cat=0
split_feature=5 0 9 9
split_gain=2.10756 0.251268 0.328305 0.0493478
threshold=5.7075000000000005 3.8123400000000003 322.00000000000006 274.50000000000006
decision_type=2 2 2 2
left_child=-1 2 3 -2
right_child=1 -3 -4 -5
leaf_value=0.037187722090166069 -0.0002420785464346409 0.010039141508085388 -0.0097089353283601153 0.0060529805929752803
leaf_weight=20 20 28 28 33
leaf_count=20 20 28 28 33
internal_value=0 0.0187296 -0.00949919 0.0367749
internal_weight=0 109 81 53
internal_count=129 109 81 53
shrinkage=0.1


Tree=89
num_leaves=6
num_cat=0
split_feature=4 7 4 12 7
split_gain=1.52019 0.410929 0.206668 0.212823 0.0643903
threshold=0.69650000000000001 2.0941000000000005 0.52800000000000014 10.160000000000002 5.4009000000000009
decision_type=2 2 2 2 2
left_child=1 -1 3 4 -3
right_child=-2 2 -4 -5 -6
leaf_value=0.014320165663957597 0.029319451571306374 0.00082623544402177565 -0.010500553073361516 0.009406597743232159 -0.0068326061214542102
leaf_weight=20 24 23 20 21 21
leaf_count=20 24 23 20 21 21
internal_value=0 0.0142333 -0.0161122 0.0112396 -0.0282912
internal_weight=0 105 85 65 44
internal_count=129 105 85 65 44
shrinkage=0.1


Tree=90
num_leaves=6
num_cat=0
split_feature=5 0 0 9 5
split_gain=0.423127 0.0878428 0.0750024 0.0734898 0.0201342
threshold=6.0105000000000013 0.055060000000000005 0.61913000000000007 434.50000000000006 6.4230000000000009
decision_type=2 2 2 2 2
left_child=3 -2 4 -1 -3
right_child=1 2 -4 -5 -6
leaf_value=-0.0034834594042463737 -0.0010655863396823405 0.011421505624894053 0.0022848723814464533 -0.011858978336676956 0.0069881352906425789
leaf_weight=22 20 20 26 20 21
leaf_count=22 20 20 26 20 21
internal_value=0 0.047503 0.0648638 -0.074718 0.0915075
internal_weight=0 87 67 42 41
internal_count=129 87 67 42 41
shrinkage=0.1


Tree=91
num_leaves=6
num_cat=0
split_feature=7 12 12 9 4
split_gain=0.273898 0.359091 0.153301 0.0683067 0.056779
threshold=1.8217500000000002 16.225000000000005 12.365000000000002 332.00000000000006 0.48850000000000005
decision_type=2 2 2 2 2
left_child=-1 2 3 4 -2
right_child=1 -3 -4 -5 -6
leaf_value=-0.010063251666724683 0.0074627688906800287 0.014775604344904422 -0.0075214841181323643 -0.0026568056934047493 0.00056011106988245797
leaf_weight=20 26 20 21 20 22
leaf_count=20 26 20 21 20 22
internal_value=0 0.026677 -0.00053178 0.0225321 0.0429905
internal_weight=0 109 89 68 48
internal_count=129 109 89 68 48
shrinkage=0.1


Tree=92
num_leaves=6
num_cat=0
split_feature=5 6 6 6 6
split_gain=0.314215 0.123428 0.116478 0.0951472 0.0712591
threshold=6.0105000000000013 91.250000000000014 67.40000000000002 83.40000000000002 48.350000000000009
decision_type=2 2 2 2 2
left_child=3 2 4 -1 -2
right_child=1 -3 -4 -5 -6
leaf_value=-0.011470625279471278 0.0010764704279912017 0.010731085771251293 -0.0042206006080266981 -0.0019405480474233628 0.0090529462499987518
leaf_weight=20 24 21 21 22 21
leaf_count=20 24 21 21 22 21
internal_value=0 0.0405365 0.0192901 -0.0647868 0.0479883
internal_weight=0 87 66 42 45
internal_count=129 87 66 42 45
shrinkage=0.1


Tree=93
num_leaves=5
num_cat=0
split_feature=6 6 10 1
split_gain=0.183989 0.293553 0.200183 0.0805227
threshold=95.850000000000009 80.550000000000011 18.750000000000004 20.500000000000004
decision_type=2 2 2 2
left_child=1 2 3 -1
right_child=-2 -3 -4 -5
leaf_value=0.0063722572235677113 -0.0077667258171872661 0.010118039288191182 -0.0082901903714698091 -0.0018479333343830976
leaf_weight=26 22 33 26 22
leaf_count=26 22 33 26 22
internal_value=0 0.0227453 -0.0122325 0.0260467
internal_weight=0 107 74 48
internal_count=129 107 74 48
shrinkage=0.1


Tree=94
num_leaves=4
num_cat=0
split_feature=12 9 7
split_gain=0.672756 0.645363 0.209211
threshold=16.040000000000003 346.50000000000006 5.164950000000001
decision_type=2 2 2
left_child=1 2 -1
right_child=-2 -3 -4
leaf_value=-0.009711169906987404 -0.015150247509213718 0.012015900738311536 0.0028685441263951363
leaf_weight=39 37 33 20
leaf_count=39 37 33 20
internal_value=0 0.00816956 -0.0544686
internal_weight=0 92 59
internal_count=129 92 59
shrinkage=0.1


Tree=95
num_leaves=5
num_cat=0
split_feature=7 7 5 10
split_gain=0.404944 0.568074 0.129199 0.0640859
threshold=1.8217500000000002 2.5575500000000004 6.0170000000000003 18.350000000000005
decision_type=2 2 2 2
left_child=-1 -2 -3 -4
right_child=1 2 3 -5
leaf_value=0.0096932923793792737 -0.01650857845978702 0.0059570163814350969 -0.00074592725945609242 -0.0077720118021326404
leaf_weight=20 34 20 34 21
leaf_count=20 34 20 34 21
internal_value=0 -0.0578647 -0.00925779 -0.0342861
internal_weight=0 109 75 55
internal_count=129 109 75 55
shrinkage=0.1


Tree=96
num_leaves=4
num_cat=0
split_feature=12 10 12
split_gain=0.558245 0.620743 0.115438
threshold=16.040000000000003 19.900000000000002 7.6500000000000012
decision_type=2 2 2
left_child=1 2 -1
right_child=-2 -3 -4
leaf_value=0.00057994137360115668 -0.013421008307990191 0.015776045062573924 -0.0075419136941699055
leaf_weight=35 37 22 35
leaf_count=35 37 22 35
internal_value=0 0.0112396 -0.0348099
internal_weight=0 92 70
internal_count=129 92 70
shrinkage=0.1


Tree=97
num_leaves=5
num_cat=0
split_feature=4 4 4 11
split_gain=0.773361 0.641779 0.186609 0.0418676
threshold=0.67500000000000016 0.58450000000000013 0.44750000000000006 392.71500000000009
decision_type=2 2 2 2
left_child=1 2 -1 -4
right_child=-2 -3 3 -5
leaf_value=0.003519594953395426 -0.018153973625829586 0.014390450003729375 -0.0099490881143137824 -0.004217597403420279
leaf_weight=25 26 27 25 26
leaf_count=25 26 27 25 26
internal_value=0 0.0114706 -0.0355783 -0.0702715
internal_weight=0 103 76 51
internal_count=129 103 76 51
shrinkage=0.1


Tree=98
num_leaves=5
num_cat=0
split_feature=5 0 9 9
split_gain=1.86076 0.249211 0.338576 0.0429532
threshold=5.7075000000000005 3.8123400000000003 322.00000000000006 274.50000000000006
decision_type=2 2 2 2
left_child=-1 2 3 -2
right_child=1 -3 -4 -5
leaf_value=0.035364077994599945 0.00041252982802689078 0.010314077338469882 -0.0095248726462679248 0.0062855834776366307
leaf_weight=20 20 28 28 33
leaf_count=20 20 28 28 33
internal_value=0 0.021814 -0.00629896 0.0406934
internal_weight=0 109 81 53
internal_count=129 109 81 53
shrinkage=0.1


Tree=99
num_leaves=5
num_cat=0
split_feature=4 7 12 4
split_gain=1.38869 0.364064 0.17967 0.108965
threshold=0.69650000000000001 2.0941000000000005 12.365000000000002 0.43745000000000006
decision_type=2 2 2 2
left_child=1 -1 3 -3
right_child=-2 2 -4 -5
leaf_value=0.013772139996290206 0.028295243935038645 0.0013254658602502036 0.0061064280103892091 -0.0073952610891290923
leaf_weight=20 24 23 24 38
leaf_count=20 24 23 24 38
internal_value=0 0.0163298 -0.0122329 -0.0410712
internal_weight=0 105 85 61
internal_count=129 105 85 61
shrinkage=0.1


Tree=100
num_leaves=6
num_cat=0
split_feature=5 0 0 9 5
split_gain=0.371902 0.0843063 0.0814804 0.0743386 0.011161
threshold=6.0105000000000013 0.055060000000000005 0.61913000000000007 434.50000000000006 6.4230000000000009
decision_type=2 2 2 2 2
left_child=3 -2 4 -1 -3
right_child=1 2 -4 -5 -6
leaf_value=-0.0030268817833116789 -0.0012773785181343558 0.01058871664805338 0.0017418166264318504 -0.01145063267555088 0.0072879166697107619
leaf_weight=22 20 20 26 20 21
leaf_count=22 20 20 26 20 21
internal_value=0 0.0442023 0.0612101 -0.0703819 0.0889806
internal_weight=0 87 67 42 41
internal_count=129 87 67 42 41
shrinkage=0.1


Tree=101
num_leaves=6
num_cat=0
split_feature=7 12 12 9 7
split_gain=0.275297 0.382015 0.190817 0.0808896 0.0375499
threshold=1.8217500000000002 16.225000000000005 12.365000000000002 332.00000000000006 3.8973000000000004
decision_type=2 2 2 2 2
left_child=-1 2 3 4 -2
right_child=1 -3 -4 -5 -6
leaf_value=-0.010163979306817054 0.0077639910259417119 0.015087861735373737 -0.0085391179769344263 -0.0029769094870425762 0.0021258814299168686
leaf_weight=20 21 20 21 20 27
leaf_count=20 21 20 21 20 27
internal_value=0 0.0259945 -0.00206933 0.0236624 0.0459255
internal_weight=0 109 89 68 48
internal_count=129 109 89 68 48
shrinkage=0.1


Tree=102
num_leaves=5
num_cat=0
split_feature=5 7 6 5
split_gain=0.278682 0.111576 0.072761 0.0293737
threshold=6.0105000000000013 3.1675000000000004 83.40000000000002 6.432500000000001
decision_type=2 2 2 2
left_child=2 -2 -1 -3
right_child=1 3 -4 -5
leaf_value=-0.010496320682577789 0.0082591901802088093 -0.001668161409907043 -0.0021624334622174501 0.003061306672090472
leaf_weight=20 34 24 22 29
leaf_count=20 34 24 22 29
internal_value=0 0.0378798 -0.0613095 0.00919661
internal_weight=0 87 42 53
internal_count=129 87 42 53
shrinkage=0.1


Tree=103
num_leaves=5
num_cat=0
split_feature=6 11 4 10
split_gain=0.161007 0.302309 0.438415 0.226569
threshold=95.850000000000009 390.61500000000007 0.47800000000000004 19.650000000000002
decision_type=2 2 2 2
left_child=1 3 -3 -1
right_child=-2 2 -4 -5
leaf_value=0.0021389874844596939 -0.0072885491715913471 -0.0024831066261478039 0.014529529507413055 -0.012018201013561339
leaf_weight=26 22 28 33 20
leaf_count=26 22 28 33 20
internal_value=0 0.0210465 0.0672045 -0.0401631
internal_weight=0 107 61 46
internal_count=129 107 61 46
shrinkage=0.1


Tree=104
num_leaves=5
num_cat=0
split_feature=11 11 6 7
split_gain=0.545138 0.46126 0.280186 0.0797115
threshold=340.26000000000005 382.62000000000006 58.95000000000001 2.6741000000000006
decision_type=2 2 2 2
left_child=-1 -2 -3 -4
right_child=1 2 3 -5
leaf_value=-0.017583835173560224 0.010971010884699914 0.0021818273041086895 -0.014376457175239922 -0.0058284236292820424
leaf_weight=23 26 36 20 24
leaf_count=23 26 36 20 24
internal_value=0 -0.00600182 -0.0436082 -0.0971389
internal_weight=0 106 80 44
internal_count=129 106 80 44
shrinkage=0.1


Tree=105
num_leaves=5
num_cat=0
split_feature=7 7 5 1
split_gain=0.398253 0.491764 0.160608 0.0706817
threshold=1.8217500000000002 2.5575500000000004 6.0170000000000003 15.000000000000002
decision_type=2 2 2 2
left_child=-1 -2 -3 -4
right_child=1 2 3 -5
leaf_value=0.0097058390919119129 -0.015621497327297488 0.0065508999302983295 -0.0069527876352367462 0.0003148953549300685
leaf_weight=20 34 20 32 23
leaf_count=20 34 20 32 23
internal_value=0 -0.056455 -0.0112305 -0.0391357
internal_weight=0 109 75 55
internal_count=129 109 75 55
shrinkage=0.1


Tree=106
num_leaves=5
num_cat=0
split_feature=12 8 0 10
split_gain=0.477991 0.353956 0.159536 0.075674
threshold=21.110000000000003 16.000000000000004 0.32403500000000002 17.500000000000004
decision_type=2 2 2 2
left_child=1 2 3 -1
right_child=-2 -3 -4 -5
leaf_value=0.0037464091532165185 -0.017149524409323932 0.01039276447845623 -0.009709149314504532 -0.0035474998580122537
leaf_weight=25 20 24 27 33
leaf_count=25 20 24 27 33
internal_value=0 -0.00331449 -0.0335946 -0.00403574
internal_weight=0 109 85 58
internal_count=129 109 85 58
shrinkage=0.1


Tree=107
num_leaves=5
num_cat=0
split_feature=4 4 4 6
split_gain=0.74118 0.663524 0.154124 0.0336919
threshold=0.67500000000000016 0.58450000000000013 0.44750000000000006 70.250000000000014
decision_type=2 2 2 2
left_child=1 2 -1 -4
right_child=-2 -3 3 -5
leaf_value=0.0028113506379304452 -0.017731878340530857 0.014629200949437088 -0.0042531795972116431 -0.0093946916889399296
leaf_weight=25 26 27 26 25
leaf_count=25 26 27 26 25
internal_value=0 0.0116332 -0.0362061 -0.0677353
internal_weight=0 103 76 51
internal_count=129 103 76 51
shrinkage=0.1


Tree=108
num_leaves=6
num_cat=0
split_feature=5 5 11 9 5
split_gain=1.6076 0.273446 0.389467 0.420929 0.0114483
threshold=5.7075000000000005 5.9605000000000006 379.55500000000006 322.00000000000006 6.416500000000001
decision_type=2 2 2 2 2
left_child=-1 -2 -3 4 -4
right_child=1 2 3 -5 -6
leaf_value=0.032953172464494855 0.012070518359541893 0.011092185398394412 0.0037527284421958033 -0.014480006523430348 0.00036919305101037027
leaf_weight=20 22 22 20 25 20
leaf_count=20 22 22 20 25 20
internal_value=0 0.0211025 -0.00408433 -0.0430095 0.0206096
internal_weight=0 109 87 65 40
internal_count=129 109 87 65 40
shrinkage=0.1


Tree=109
num_leaves=5
num_cat=0
split_feature=4 7 0 12
split_gain=1.38947 0.36335 0.159147 0.22921
threshold=0.69650000000000001 2.0941000000000005 0.28957500000000008 9.6550000000000029
decision_type=2 2 2 2
left_child=1 -1 3 -3
right_child=-2 2 -4 -5
leaf_value=0.01336832158267498 0.02791085058124736 -0.0042177266741514601 -0.0094130678591318444 0.0078326372981623368
leaf_weight=20 24 38 20 27
leaf_count=20 24 38 20 27
internal_value=0 0.0124107 -0.016124 0.00787809
internal_weight=0 105 85 65
internal_count=129 105 85 65
shrinkage=0.1


Tree=110
num_leaves=6
num_cat=0
split_feature=5 0 0 9 5
split_gain=0.39046 0.0833417 0.0655361 0.0401533 0.0127222
threshold=6.0105000000000013 0.055060000000000005 0.61913000000000007 434.50000000000006 6.4230000000000009
decision_type=2 2 2 2 2
left_child=3 -2 4 -1 -3
right_child=1 2 -4 -5 -6
leaf_value=-0.0042390910993245516 -0.0011112681915983558 0.01054026771336794 0.0023172505056628817 -0.010430061426013708 0.0070161663173210062
leaf_weight=22 20 20 26 20 21
leaf_count=22 20 20 26 20 21
internal_value=0 0.0455366 0.0624468 -0.0718717 0.0873524
internal_weight=0 87 67 42 41
internal_count=129 87 67 42 41
shrinkage=0.1


Tree=111
num_leaves=5
num_cat=0
split_feature=7 7 12 12
split_gain=0.260051 0.37322 0.2202 0.0325638
threshold=1.8217500000000002 5.6044500000000008 15.380000000000001 9.6550000000000029
decision_type=2 2 2 2
left_child=-1 2 3 -2
right_child=1 -3 -4 -5
leaf_value=-0.0098237633705139174 0.0055657723080262912 -0.0071376535142290186 0.015191369317471982 0.00089607095396786467
leaf_weight=20 28 29 20 32
leaf_count=20 28 29 20 32
internal_value=0 0.025812 0.0610429 0.0307526
internal_weight=0 109 80 60
internal_count=129 109 80 60
shrinkage=0.1


Tree=112
num_leaves=5
num_cat=0
split_feature=5 7 6 5
split_gain=0.298644 0.111144 0.0825676 0.028466
threshold=6.0105000000000013 3.1675000000000004 83.40000000000002 6.432500000000001
decision_type=2 2 2 2
left_child=2 -2 -1 -3
right_child=1 3 -4 -5
leaf_value=-0.010983044791792055 0.0083977830079247206 -0.00147505086157859 -0.0021052918904884295 0.0031807718902890541
leaf_weight=20 34 24 22 29
leaf_count=20 34 24 22 29
internal_value=0 0.0393524 -0.0633279 0.0107247
internal_weight=0 87 42 53
internal_count=129 87 42 53
shrinkage=0.1


Tree=113
num_leaves=5
num_cat=0
split_feature=6 11 4 10
split_gain=0.151203 0.285429 0.409654 0.16636
threshold=95.850000000000009 390.61500000000007 0.47800000000000004 19.650000000000002
decision_type=2 2 2 2
left_child=1 3 -3 -1
right_child=-2 2 -4 -5
leaf_value=0.001412139372685208 -0.0070173974910920315 -0.0023261083090411767 0.01411902312468032 -0.010718999310629444
leaf_weight=26 22 28 33 20
leaf_count=26 22 28 33 20
internal_value=0 0.0208535 0.0657044 -0.0386227
internal_weight=0 107 61 46
internal_count=129 107 61 46
shrinkage=0.1


Tree=114
num_leaves=4
num_cat=0
split_feature=12 9 7
split_gain=0.469404 0.53769 0.125215
threshold=16.040000000000003 336.00000000000006 5.1085500000000001
decision_type=2 2 2
left_child=1 2 -1
right_child=-2 -3 -4
leaf_value=-0.0090102439243836627 -0.013123621167363347 0.010198817889699166 0.00076517176348716025
leaf_weight=38 37 34 20
leaf_count=38 37 34 20
internal_value=0 0.00213848 -0.0563941
internal_weight=0 92 58
internal_count=129 92 58
shrinkage=0.1


Tree=115
num_leaves=5
num_cat=0
split_feature=7 7 5 1
split_gain=0.402432 0.527026 0.136227 0.0537822
threshold=1.8217500000000002 2.5575500000000004 6.0170000000000003 15.000000000000002
decision_type=2 2 2 2
left_child=-1 -2 -3 -4
right_child=1 2 3 -5
leaf_value=0.0097886919323354957 -0.01597044250160894 0.0061063356586964802 -0.0061822964962630067 0.0001573019316824882
leaf_weight=20 34 20 32 23
leaf_count=20 34 20 32 23
internal_value=0 -0.0564297 -0.00961184 -0.0353119
internal_weight=0 109 75 55
internal_count=129 109 75 55
shrinkage=0.1


Tree=116
num_leaves=4
num_cat=0
split_feature=12 10 0
split_gain=0.392777 0.56458 0.108558
threshold=16.040000000000003 19.900000000000002 0.17073000000000002
decision_type=2 2 2
left_child=1 2 -1
right_child=-2 -3 -4
leaf_value=-0.00030676906462758782 -0.011626458837575205 0.014547459810802882 -0.008234844294812289
leaf_weight=39 37 22 31
leaf_count=39 37 22 31
internal_value=0 0.00573912 -0.0381777
internal_weight=0 92 70
internal_count=129 92 70
shrinkage=0.1


Tree=117
num_leaves=5
num_cat=0
split_feature=4 4 4 4
split_gain=0.69031 0.563726 0.130941 0.0285911
threshold=0.67500000000000016 0.58450000000000013 0.44750000000000006 0.51650000000000007
decision_type=2 2 2 2
left_child=1 2 -1 -4
right_child=-2 -3 3 -5
leaf_value=0.0025614457186311484 -0.017192803792512187 0.01345440740869553 -0.0042922265827655794 -0.0091031691502957129
leaf_weight=25 26 27 30 21
leaf_count=25 26 27 30 21
internal_value=0 0.0104244 -0.0336707 -0.062732
internal_weight=0 103 76 51
internal_count=129 103 76 51
shrinkage=0.1


Tree=118
num_leaves=6
num_cat=0
split_feature=5 5 11 9 5
split_gain=1.47014 0.29998 0.334689 0.39965 0.0120097
threshold=5.7075000000000005 5.9605000000000006 379.55500000000006 322.00000000000006 6.416500000000001
decision_type=2 2 2 2 2
left_child=-1 -2 -3 4 -4
right_child=1 2 3 -5 -6
leaf_value=0.031567295007407667 0.012504770141094924 0.010095595932480965 0.0037577421637251976 -0.014092470675706865 0.00029224166180938485
leaf_weight=20 22 22 20 25 20
leaf_count=20 22 22 20 25 20
internal_value=0 0.0207244 -0.0056562 -0.0417403 0.0202499
internal_weight=0 109 87 65 40
internal_count=129 109 87 65 40
shrinkage=0.1


Tree=119
num_leaves=5
num_cat=0
split_feature=7 12 4 7
split_gain=1.35424 0.281532 0.0660474 0.0972739
threshold=1.9119000000000002 15.380000000000001 0.51650000000000007 5.164950000000001
decision_type=2 2 2 2
left_child=-1 2 3 -2
right_child=1 -3 -4 -5
leaf_value=0.023456321312396819 0.0037966937195354454 0.010530044343322517 -0.0075753152104360722 -0.0046832525742150121
leaf_weight=33 24 20 21 31
leaf_count=33 24 20 21 31
internal_value=0 -0.000264678 -0.028045 -0.00982912
internal_weight=0 96 76 55
internal_count=129 96 76 55
shrinkage=0.1


Tree=120
num_leaves=5
num_cat=0
split_feature=5 5 9 9
split_gain=0.383461 0.0713033 0.149148 0.0322513
threshold=6.0105000000000013 6.378000000000001 312.00000000000006 434.50000000000006
decision_type=2 2 2 2
left_child=3 -2 -3 -1
right_child=1 2 -4 -5
leaf_value=-0.0044412223960865636 0.0010622793169958252 0.0026665164245059715 0.013674817146966235 -0.0099896795023232711
leaf_weight=22 35 32 20 20
leaf_count=22 35 32 20 20
internal_value=0 0.0455178 0.0690048 -0.0708334
internal_weight=0 87 52 42
internal_count=129 87 52 42
shrinkage=0.1


Tree=121
num_leaves=6
num_cat=0
split_feature=7 12 12 9 7
split_gain=0.272638 0.439264 0.207828 0.0668166 0.0454576
threshold=1.8217500000000002 16.225000000000005 12.365000000000002 332.00000000000006 4.0268500000000005
decision_type=2 2 2 2 2
left_child=-1 2 3 4 -2
right_child=1 -3 -4 -5 -6
leaf_value=-0.01004515951499343 0.0075643795386776741 0.016048001181334256 -0.0090484946788776492 -0.0025235869176685813 0.0014042515214532615
leaf_weight=20 23 20 21 20 25
leaf_count=20 23 20 21 20 25
internal_value=0 0.0265649 -0.00352844 0.0233258 0.0435598
internal_weight=0 109 89 68 48
internal_count=129 109 89 68 48
shrinkage=0.1


Tree=122
num_leaves=6
num_cat=0
split_feature=5 6 6 9 5
split_gain=0.28788 0.107889 0.0972637 0.0745475 0.0344165
threshold=6.0105000000000013 91.250000000000014 83.40000000000002 284.50000000000006 6.4000000000000012
decision_type=2 2 2 2 2
left_child=2 3 -1 -2 -5
right_child=1 -3 -4 4 -6
leaf_value=-0.011227655775146559 0.0063603346864207809 0.010143765301576683 -0.0015921695073219866 0.0021032285283912313 -0.0036284467740915721
leaf_weight=20 24 21 22 22 20
leaf_count=20 24 21 22 22 20
internal_value=0 0.039008 -0.061805 0.019144 -0.00626141
internal_weight=0 87 42 66 42
internal_count=129 87 42 66 42
shrinkage=0.1


Tree=123
num_leaves=4
num_cat=0
split_feature=1 4 6
split_gain=0.171242 0.238641 0.0399943
threshold=1.0000000180025095e-35 0.6070000000000001 60.600000000000009
decision_type=2 2 2
left_child=1 2 -1
right_child=-2 -3 -4
leaf_value=0.003602862462312693 -0.0052993362860029774 -0.0032707487551593469 0.0091533524559482046
leaf_weight=21 36 38 34
leaf_count=21 36 38 34
internal_value=0 0.028235 0.0703407
internal_weight=0 93 55
internal_count=129 93 55
shrinkage=0.1


Tree=124
num_leaves=6
num_cat=0
split_feature=6 6 6 11 7
split_gain=0.491676 0.357281 0.487024 0.464471 0.107938
threshold=97.200000000000003 80.550000000000011 58.95000000000001 377.67500000000007 5.164950000000001
decision_type=2 2 2 2 2
left_child=1 2 4 -3 -1
right_child=-2 3 -4 -5 -6
leaf_value=-0.0036623141004541969 -0.01730966075662185 0.017359373779036107 -0.016771979913270722 -0.0041922166990116241 0.0063825043517863377
leaf_weight=23 22 20 24 20 20
leaf_count=23 22 20 24 20 20
internal_value=0 -0.00895023 -0.0535986 0.0658358 0.0100969
internal_weight=0 107 67 40 43
internal_count=129 107 67 40 43
shrinkage=0.1


Tree=125
num_leaves=5
num_cat=0
split_feature=7 7 5 7
split_gain=0.321495 0.539893 0.117253 0.0915376
threshold=1.8217500000000002 2.5575500000000004 6.7495000000000003 4.4281000000000015
decision_type=2 2 2 2
left_child=-1 -2 3 -3
right_child=1 2 -4 -5
leaf_value=0.0083294403168838477 -0.015916182189796339 0.0059680559493314762 -0.0072816823795437821 -0.0022033264298505825
leaf_weight=20 34 26 20 29
leaf_count=20 34 26 20 29
internal_value=0 -0.054634 -0.00724809 0.0165951
internal_weight=0 109 75 55
internal_count=129 109 75 55
shrinkage=0.1


Tree=126
num_leaves=4
num_cat=0
split_feature=12 10 0
split_gain=0.462931 0.535678 0.0953389
threshold=16.040000000000003 19.900000000000002 0.17073000000000002
decision_type=2 2 2
left_child=1 2 -1
right_child=-2 -3 -4
leaf_value=-0.00018097654638740308 -0.012438662171464514 0.014417704795910556 -0.0076106695593484951
leaf_weight=39 37 22 31
leaf_count=39 37 22 31
internal_value=0 0.00806529 -0.0347127
internal_weight=0 92 70
internal_count=129 92 70
shrinkage=0.1


Tree=127
num_leaves=5
num_cat=0
split_feature=4 4 4 6
split_gain=0.713969 0.493805 0.13424 0.0281109
threshold=0.67500000000000016 0.58450000000000013 0.44750000000000006 70.500000000000014
decision_type=2 2 2 2
left_child=1 2 -1 -4
right_child=-2 -3 3 -5
leaf_value=0.0029202807252295317 -0.017500564634191015 0.012661273706773366 -0.003811490475372584 -0.0085151392927703753
leaf_weight=25 26 27 27 24
leaf_count=25 26 27 27 24
internal_value=0 0.0104454 -0.0308245 -0.0602497
internal_weight=0 103 76 51
internal_count=129 103 76 51
shrinkage=0.1


Tree=128
num_leaves=6
num_cat=0
split_feature=5 0 5 5 5
split_gain=1.34305 0.761692 0.258612 0.241239 0.15715
threshold=5.9605000000000006 2.3071500000000005 6.1525000000000007 6.4080000000000004 6.8295000000000003
decision_type=2 2 2 2 2
left_child=1 -1 -2 -4 -5
right_child=2 -3 3 4 -6
leaf_value=0.0070363123109564198 -0.010280082955779065 0.034000543970614673 0.011010880088856952 -0.0075246625174970735 0.0044402580176080972
leaf_weight=20 21 22 22 23 21
leaf_count=20 21 22 22 23 21
internal_value=0 0.211604 -0.00614531 0.0246087 -0.0181413
internal_weight=0 42 87 66 44
internal_count=129 42 87 66 44
shrinkage=0.1


Tree=129
num_leaves=5
num_cat=0
split_feature=4 4 12 12
split_gain=1.3404 0.262603 0.793599 0.034056
threshold=0.69650000000000001 0.60100000000000009 12.700000000000001 8.4700000000000006
decision_type=2 2 2 2
left_child=1 2 3 -1
right_child=-2 -3 -4 -5
leaf_value=-0.00030819580953737554 0.027148669298427804 -0.0093556975852698097 0.019244289817683953 -0.0050053674270045655
leaf_weight=33 24 20 23 29
leaf_count=33 24 20 23 29
internal_value=0 0.00954082 0.0337991 -0.0250526
internal_weight=0 105 85 62
internal_count=129 105 85 62
shrinkage=0.1


Tree=130
num_leaves=5
num_cat=0
split_feature=5 5 9 9
split_gain=0.328571 0.0742014 0.105974 0.0294353
threshold=6.0105000000000013 6.378000000000001 312.00000000000006 434.50000000000006
decision_type=2 2 2 2
left_child=3 -2 -3 -1
right_child=1 2 -4 -5
leaf_value=-0.0038270433941348034 0.0008593468993370022 0.0032460791091580179 0.012525297477841377 -0.009127736627124251
leaf_weight=22 35 32 20 20
leaf_count=22 35 32 20 20
internal_value=0 0.0441905 0.0681501 -0.0635118
internal_weight=0 87 52 42
internal_count=129 87 52 42
shrinkage=0.1


Tree=131
num_leaves=6
num_cat=0
split_feature=7 12 7 9 7
split_gain=0.238618 0.361575 0.19819 0.0599874 0.0383034
threshold=1.8217500000000002 16.225000000000005 6.488900000000001 280.00000000000006 3.5949000000000004
decision_type=2 2 2 2 2
left_child=-1 2 3 -2 -5
right_child=1 -3 -4 4 -6
leaf_value=-0.0092192701913882038 0.0067101409744835736 0.014813221688382328 -0.0085583863602507679 -0.002177256560884416 0.0036941201705485583
leaf_weight=20 23 20 21 25 20
leaf_count=20 23 20 21 25 20
internal_value=0 0.0266351 -0.000667627 0.0255565 0.00432244
internal_weight=0 109 89 68 45
internal_count=129 109 89 68 45
shrinkage=0.1


Tree=132
num_leaves=6
num_cat=0
split_feature=5 6 9 6 6
split_gain=0.251089 0.0960406 0.0933319 0.0874399 0.0559645
threshold=6.0105000000000013 91.250000000000014 346.50000000000006 83.40000000000002 48.350000000000009
decision_type=2 2 2 2 2
left_child=3 2 4 -1 -2
right_child=1 -3 -4 -5 -6
leaf_value=-0.01039609874598682 0.00043296092480886732 0.0096946724380056071 -0.0037727322863065644 -0.0012601631365462462 0.0074690887668671518
leaf_weight=20 20 21 20 22 26
leaf_count=20 20 21 20 22 26
internal_value=0 0.0380447 0.0193032 -0.0561061 0.044099
internal_weight=0 87 66 42 46
internal_count=129 87 66 42 46
shrinkage=0.1


Tree=133
num_leaves=5
num_cat=0
split_feature=4 4 10 6
split_gain=0.157165 0.221747 0.0467764 0.0402589
threshold=0.44050000000000006 0.6070000000000001 17.850000000000005 65.250000000000014
decision_type=2 2 2 2
left_child=-1 2 -2 -4
right_child=1 -3 3 -5
leaf_value=-0.0061190496164339565 0.010124950185418129 -0.0034650496434038267 0.001139363909827634 0.0072606692259961914
leaf_weight=27 20 39 21 22
leaf_count=27 20 39 21 22
internal_value=0 0.0246101 0.0612953 0.0427119
internal_weight=0 102 63 43
internal_count=129 102 63 43
shrinkage=0.1


Tree=134
num_leaves=5
num_cat=0
split_feature=11 7 6 7
split_gain=0.516889 0.301317 0.17091 0.0701068
threshold=340.26000000000005 2.1067500000000003 70.500000000000014 5.3440000000000003
decision_type=2 2 2 2
left_child=-1 -2 3 -3
right_child=1 2 -4 -5
leaf_value=-0.017278322664534915 0.0099859490103664864 -0.0029702646327355218 -0.0091614506643963988 0.0044109170215630329
leaf_weight=23 21 31 32 22
leaf_count=23 21 31 32 22
internal_value=0 -0.00740562 -0.0339064 0.000936221
internal_weight=0 106 85 53
internal_count=129 106 85 53
shrinkage=0.1


Tree=135
num_leaves=5
num_cat=0
split_feature=7 7 5 10
split_gain=0.309372 0.480196 0.138287 0.0605521
threshold=1.8217500000000002 2.5575500000000004 6.0170000000000003 17.500000000000004
decision_type=2 2 2 2
left_child=-1 -2 -3 -4
right_child=1 2 3 -5
leaf_value=0.008112330310977996 -0.015275918643045075 0.0061717435705941175 -0.00015944456336674866 -0.0067966466894306774
leaf_weight=20 34 20 27 28
leaf_count=20 34 20 27 28
internal_value=0 -0.0541796 -0.00949017 -0.0353838
internal_weight=0 109 75 55
internal_count=129 109 75 55
shrinkage=0.1


Tree=136
num_leaves=5
num_cat=0
split_feature=12 10 10 0
split_gain=0.40136 0.469127 0.0864465 0.0424276
threshold=16.040000000000003 19.900000000000002 17.500000000000004 0.11048000000000001
decision_type=2 2 2 2
left_child=1 2 3 -1
right_child=-2 -3 -4 -5
leaf_value=0.0027976919710636142 -0.011783811857458205 0.013286784805611455 -0.0076325872110138684 -0.0036379429556074594
leaf_weight=20 37 22 29 21
leaf_count=20 37 22 29 21
internal_value=0 0.00549144 -0.0345411 -0.00498609
internal_weight=0 92 70 41
internal_count=129 92 70 41
shrinkage=0.1


Tree=137
num_leaves=5
num_cat=0
split_feature=4 4 4 6
split_gain=0.616056 0.474079 0.134142 0.0283631
threshold=0.67500000000000016 0.58450000000000013 0.44750000000000006 70.250000000000014
decision_type=2 2 2 2
left_child=1 2 -1 -4
right_child=-2 -3 3 -5
leaf_value=0.0027394442912191154 -0.016443969846631473 0.012164973081262024 -0.0038900653499205455 -0.0086074906494468442
leaf_weight=25 26 27 26 25
leaf_count=25 26 27 26 25
internal_value=0 0.00782635 -0.0326109 -0.0620253
internal_weight=0 103 76 51
internal_count=129 103 76 51
shrinkage=0.1


Tree=138
num_leaves=6
num_cat=0
split_feature=5 0 11 9 9
split_gain=1.21905 0.701728 0.227923 0.341399 0.0113553
threshold=5.9605000000000006 2.3071500000000005 379.55500000000006 322.00000000000006 274.50000000000006
decision_type=2 2 2 2 2
left_child=1 -1 -2 4 -4
right_child=2 -3 3 -5 -6
leaf_value=0.0065163948293775328 0.008125688963231039 0.032397488030520359 0.00039459863444790249 -0.012817152619361878 0.0037643611291423443
leaf_weight=20 22 22 20 25 20
leaf_count=20 22 22 20 25 20
internal_value=0 0.200732 -0.00672235 -0.0364999 0.0207948
internal_weight=0 42 87 65 40
internal_count=129 42 87 65 40
shrinkage=0.1


Tree=139
num_leaves=5
num_cat=0
split_feature=4 4 12 12
split_gain=1.26983 0.240808 0.636286 0.034683
threshold=0.69650000000000001 0.60100000000000009 12.700000000000001 8.4700000000000006
decision_type=2 2 2 2
left_child=1 2 3 -1
right_child=-2 -3 -4 -5
leaf_value=9.6988920686822957e-07 0.026226244121789935 -0.0091422228119336073 0.017258703384710396 -0.0047392499255787196
leaf_weight=33 24 20 23 29
leaf_count=33 24 20 23 29
internal_value=0 0.00730471 0.0305346 -0.0221623
internal_weight=0 105 85 62
internal_count=129 105 85 62
shrinkage=0.1


end of trees

feature importances:
DIS=96
NOX=93
RM=90
LSTAT=77
AGE=54
TAX=51
CRIM=49
B=35
PTRATIO=28
ZN=6
RAD=5
INDUS=1

parameters:
[boosting: gbdt]
[objective: regression]
[metric: l2]
[tree_learner: serial]
[device_type: cpu]
[data: ]
[valid: ]
[num_iterations: 100]
[learning_rate: 0.1]
[num_leaves: 512]
[num_threads: 12]
[max_depth: -1]
[min_data_in_leaf: 20]
[min_sum_hessian_in_leaf: 0.001]
[bagging_fraction: 0.4]
[pos_bagging_fraction: 1]
[neg_bagging_fraction: 1]
[bagging_freq: 4]
[bagging_seed: 29216]
[feature_fraction: 0.4]
[feature_fraction_bynode: 1]
[feature_fraction_seed: 17795]
[early_stopping_round: 0]
[first_metric_only: 0]
[max_delta_step: 0]
[lambda_l1: 0]
[lambda_l2: 0]
[min_gain_to_split: 0]
[drop_rate: 0.1]
[max_drop: 50]
[skip_drop: 0.5]
[xgboost_dart_mode: 0]
[uniform_drop: 0]
[drop_seed: 24198]
[top_rate: 0.2]
[other_rate: 0.1]
[min_data_per_group: 100]
[max_cat_threshold: 32]
[cat_l2: 10]
[cat_smooth: 10]
[max_cat_to_onehot: 4]
[top_k: 20]
[monotone_constraints: ]
[feature_contri: ]
[forcedsplits_filename: ]
[forcedbins_filename: ]
[refit_decay_rate: 0.9]
[cegb_tradeoff: 1]
[cegb_penalty_split: 0]
[cegb_penalty_feature_lazy: ]
[cegb_penalty_feature_coupled: ]
[verbosity: -1]
[max_bin: 255]
[max_bin_by_feature: ]
[min_data_in_bin: 3]
[bin_construct_sample_cnt: 200000]
[histogram_pool_size: -1]
[data_random_seed: 45]
[output_model: LightGBM_model.txt]
[snapshot_freq: -1]
[input_model: ]
[output_result: LightGBM_predict_result.txt]
[initscore_filename: ]
[valid_data_initscores: ]
[pre_partition: 0]
[enable_bundle: 1]
[max_conflict_rate: 0]
[is_enable_sparse: 1]
[sparse_threshold: 0.8]
[use_missing: 1]
[zero_as_missing: 0]
[two_round: 0]
[save_binary: 0]
[header: 0]
[label_column: ]
[weight_column: ]
[group_column: ]
[ignore_column: ]
[categorical_feature: ]
[predict_raw_score: 0]
[predict_leaf_index: 0]
[predict_contrib: 0]
[num_iteration_predict: -1]
[pred_early_stop: 0]
[pred_early_stop_freq: 10]
[pred_early_stop_margin: 10]
[convert_model_language: ]
[convert_model: gbdt_prediction.cpp]
[num_class: 1]
[is_unbalance: 0]
[scale_pos_weight: 1]
[sigmoid: 1]
[boost_from_average: 1]
[reg_sqrt: 0]
[alpha: 0.9]
[fair_c: 1]
[poisson_max_delta_step: 0.7]
[tweedie_variance_power: 1.5]
[max_position: 20]
[lambdamart_norm: 1]
[label_gain: ]
[metric_freq: 1]
[is_provide_training_metric: 0]
[eval_at: ]
[multi_error_top_k: 1]
[num_machines: 1]
[local_listen_port: 12400]
[time_out: 120]
[machine_list_filename: ]
[machines: ]
[gpu_platform_id: -1]
[gpu_device_id: -1]
[gpu_use_dp: 0]

end of parameters

pandas_categorical:[]
