tree
version=v3
num_class=1
num_tree_per_iteration=1
label_index=0
max_feature_idx=12
objective=regression
feature_names=CRIM ZN INDUS CHAS NOX RM AGE DIS RAD TAX PTRATIO B LSTAT
feature_infos=[0.0063200000000000001:88.976200000000006] [0:100] [0.46000000000000002:27.739999999999998] none [0.38500000000000001:0.871] [3.863:8.7249999999999996] [6.5:100] [1.1295999999999999:12.1265] [1:24] [187:711] [12.6:22] [0.32000000000000001:396.89999999999998] [1.73:37.969999999999999]
tree_sizes=450 534 534 456 537 537 542 539 622 541 539 541 545 462 542 627 623 622 622 630 539 543 546 541 545 545 544 545 547 548 542 628 546 548 546 542 550 626 549 551 627 628 549 544 548 545 635 629 548 548 552 631 546 548 546 547 552 636 548 551 552 548 539 548 551 544 553 555 626 549 551 627 554 550 553 549 635 632 632 549 549 549 551 549 549 547 635 634 629 552 549 549 471 548 635 631 639 551 545 552 553 549 636 550 555 549 640 551 549 552 551 550 472 550 468 553 636 638 549 551

Tree=0
num_leaves=4
num_cat=0
split_feature=8 5 5
split_gain=62.867 20.536 1.52123
threshold=16.000000000000004 6.5915000000000008 5.9590000000000005
decision_type=2 2 2
left_child=1 2 -1
right_child=-2 -3 -4
leaf_value=-0.016397365715255897 -0.11298728362475478 0.10166309633387408 0.016901710356770218
leaf_weight=23 38 34 34
leaf_count=23 38 34 34
internal_value=0 0.401546 0.0346524
internal_weight=0 91 57
internal_count=129 91 57
shrinkage=1


Tree=1
num_leaves=5
num_cat=0
split_feature=12 5 12 12
split_gain=67.143 11.4962 11.3559 1.33253
threshold=14.515000000000002 6.676000000000001 19.900000000000002 9.9500000000000011
decision_type=2 2 2 2
left_child=1 3 -2 -1
right_child=2 -3 -4 -5
leaf_value=0.038851241480845677 -0.047411356952327954 0.10243692457675935 -0.14180437964200973 0.0054117013263748964
leaf_weight=26 26 30 25 22
leaf_count=26 26 30 25 22
internal_value=0 0.538756 -0.936824 0.235248
internal_weight=0 78 51 48
internal_count=129 78 51 48
shrinkage=0.1


Tree=2
num_leaves=5
num_cat=0
split_feature=12 0 5 12
split_gain=54.3859 14.9414 9.31195 1.07935
threshold=14.515000000000002 8.7184400000000029 6.676000000000001 9.9500000000000011
decision_type=2 2 2 2
left_child=2 -2 3 -1
right_child=1 -3 -4 -5
leaf_value=0.034966117114974903 -0.039028627835214137 -0.14900787799131304 0.092193234066168472 0.0048705314963378692
leaf_weight=26 30 21 30 22
leaf_count=26 30 21 30 22
internal_value=0 -0.843142 0.48488 0.211723
internal_weight=0 51 78 48
internal_count=129 51 78 48
shrinkage=0.1


Tree=3
num_leaves=4
num_cat=0
split_feature=4 5 4
split_gain=40.6779 11.4675 2.92351
threshold=0.65700000000000014 6.676000000000001 0.51650000000000007
decision_type=2 2 2
left_child=1 2 -1
right_child=-2 -3 -4
leaf_value=0.024882528108677693 -0.10138128659455106 0.078809073855800021 -0.017288049450895238
leaf_weight=35 32 31 31
leaf_count=35 32 31 31
internal_value=0 0.286396 0.0507514
internal_weight=0 97 66
internal_count=129 97 66
shrinkage=0.1


Tree=4
num_leaves=5
num_cat=0
split_feature=4 9 2 2
split_gain=32.8434 1.90049 0.973401 0.460853
threshold=0.67500000000000016 294.50000000000006 4.6750000000000016 14.480000000000002
decision_type=2 2 2 2
left_child=1 2 -1 -3
right_child=-2 3 -4 -5
leaf_value=0.063345943409949548 -0.096853221207857138 0.011995940704775207 0.032520233928447682 0.029155771415038358
leaf_weight=20 25 34 21 29
leaf_count=20 25 34 21 29
internal_value=0 0.308002 0.475572 0.198949
internal_weight=0 104 41 63
internal_count=129 104 41 63
shrinkage=0.1


Tree=5
num_leaves=5
num_cat=0
split_feature=4 5 5 8
split_gain=26.6911 10.3147 1.15916 1.23144
threshold=0.6695000000000001 6.9090000000000007 6.5470000000000015 4.5000000000000009
decision_type=2 2 2 2
left_child=1 2 3 -1
right_child=-2 -3 -4 -5
leaf_value=-0.0076700304634869099 -0.085080694521848979 0.090841494429679148 0.033227906185202299 0.020575272715811072
leaf_weight=33 26 21 20 29
leaf_count=33 26 21 20 29
internal_value=0 0.283088 0.122943 0.0554148
internal_weight=0 103 82 62
internal_count=129 103 82 62
shrinkage=0.1


Tree=6
num_leaves=5
num_cat=0
split_feature=12 12 12 12
split_gain=25.5694 6.34095 1.66936 0.346641
threshold=18.045000000000005 5.6900000000000004 9.6750000000000025 13.630000000000001
decision_type=2 2 2 2
left_child=1 -1 -3 -4
right_child=-2 2 3 -5
leaf_value=0.077341837286949155 -0.085895873948931695 0.031784642613766824 0.0098627438256517069 -0.0071333533152937896
leaf_weight=20 25 34 30 20
leaf_count=20 25 34 30 20
internal_value=0 0.267378 0.146892 0.030643
internal_weight=0 104 84 50
internal_count=129 104 84 50
shrinkage=0.1


Tree=7
num_leaves=5
num_cat=0
split_feature=12 5 12 7
split_gain=21.0574 7.37012 1.44474 0.81317
threshold=18.930000000000003 6.8250000000000002 14.200000000000001 3.8824000000000005
decision_type=2 2 2 2
left_child=1 2 3 -1
right_child=-2 -3 -4 -5
leaf_value=0.028614937510617357 -0.087205530649849358 0.069833038568496708 -0.014772055918971697 0.0055171354141618527
leaf_weight=27 21 25 21 35
leaf_count=27 21 25 21 35
internal_value=0 0.222344 0.0789747 0.155759
internal_weight=0 108 83 62
internal_count=129 108 83 62
shrinkage=0.1


Tree=8
num_leaves=6
num_cat=0
split_feature=7 5 4 7 5
split_gain=19.0674 5.61903 0.408004 0.585612 0.0616977
threshold=1.8759500000000002 6.8530000000000006 0.49100000000000005 6.4726000000000008 6.1940000000000008
decision_type=2 2 2 2 2
left_child=-1 2 3 -2 -4
right_child=1 -3 4 -5 -6
leaf_value=-0.086507238554103041 0.025693139789759054 0.065479057375341654 0.003464769555900533 0.0020769266566882535 -0.0039229747094213967
leaf_weight=21 21 20 26 21 20
leaf_count=21 21 20 26 21 20
internal_value=0 0.176331 0.0675904 0.13885 0.00252707
internal_weight=0 108 88 42 46
internal_count=129 108 88 42 46
shrinkage=0.1


Tree=9
num_leaves=5
num_cat=0
split_feature=0 11 1 8
split_gain=18.8403 0.924273 0.474158 0.251955
threshold=8.0241350000000011 385.03500000000003 15.250000000000002 4.5000000000000009
decision_type=2 2 2 2
left_child=1 -1 3 -3
right_child=-2 2 -4 -5
leaf_value=0.033029773493331895 -0.088604835793375969 -0.0019856399466769525 0.021451582981934472 0.012139858396923435
leaf_weight=27 20 23 31 28
leaf_count=27 20 23 31 28
internal_value=0 0.169821 0.116981 0.0576954
internal_weight=0 109 82 51
internal_count=129 109 82 51
shrinkage=0.1


Tree=10
num_leaves=5
num_cat=0
split_feature=8 5 5 11
split_gain=9.91035 3.66225 0.38842 0.122547
threshold=16.000000000000004 6.9900000000000011 6.0985000000000005 392.84000000000009
decision_type=2 2 2 2
left_child=1 2 -1 -4
right_child=-2 -3 3 -5
leaf_value=-0.0049109094181201528 -0.045624820667466051 0.052976311519742018 0.0045439556588826235 0.015142770794530712
leaf_weight=27 38 20 20 24
leaf_count=27 38 20 20 24
internal_value=0 0.151784 0.0453114 0.103251
internal_weight=0 91 71 44
internal_count=129 91 71 44
shrinkage=0.1


Tree=11
num_leaves=5
num_cat=0
split_feature=12 12 12 2
split_gain=13.2815 4.41581 0.909911 0.131079
threshold=18.715000000000003 4.9150000000000009 11.650000000000002 5.7500000000000009
decision_type=2 2 2 2
left_child=1 -1 3 -3
right_child=-2 2 -4 -5
leaf_value=0.056847628306131819 -0.06204325542624655 0.0079488495808272136 -0.0077797112008556732 0.018767108488827944
leaf_weight=20 29 21 35 24
leaf_count=20 29 21 35 24
internal_value=0 0.1482 0.0431308 0.137186
internal_weight=0 100 80 45
internal_count=129 100 80 45
shrinkage=0.1


Tree=12
num_leaves=5
num_cat=0
split_feature=0 12 12 5
split_gain=13.036 3.66694 0.90772 0.0706059
threshold=8.2576700000000027 4.9150000000000009 10.875000000000002 5.9340000000000002
decision_type=2 2 2 2
left_child=1 -1 -3 -4
right_child=-2 2 3 -5
leaf_value=0.051162865231453906 -0.070457627851030102 0.014903158515405197 -0.0014210273217897685 -0.0092170484543133251
leaf_weight=20 23 39 21 26
leaf_count=20 23 39 21 26
internal_value=0 0.125943 0.0362486 -0.0573372
internal_weight=0 106 86 47
internal_count=129 106 86 47
shrinkage=0.1


Tree=13
num_leaves=4
num_cat=0
split_feature=4 5 6
split_gain=6.82905 2.53188 0.832012
threshold=0.67500000000000016 6.5710000000000006 69.300000000000011
decision_type=2 2 2
left_child=1 2 -1
right_child=-2 -3 -4
leaf_value=0.0091642441513437433 -0.044717475656291535 0.030298355656365558 -0.01419658161699772
leaf_weight=31 29 39 30
leaf_count=31 29 39 30
internal_value=0 0.103983 -0.0232469
internal_weight=0 100 61
internal_count=129 100 61
shrinkage=0.1


Tree=14
num_leaves=5
num_cat=0
split_feature=4 4 9 6
split_gain=6.94183 1.02929 0.525468 0.128308
threshold=0.67500000000000016 0.5485000000000001 312.00000000000006 48.350000000000009
decision_type=2 2 2 2
left_child=1 2 3 -1
right_child=-2 -3 -4 -5
leaf_value=0.0078202231507748365 -0.043209320671856406 0.029752690036890701 -0.0051544000655121642 0.018160581626774124
leaf_weight=20 25 34 20 30
leaf_count=20 25 34 20 30
internal_value=0 0.154781 0.0854477 0.140244
internal_weight=0 104 70 50
internal_count=129 104 70 50
shrinkage=0.1


Tree=15
num_leaves=6
num_cat=0
split_feature=4 8 5 10 4
split_gain=5.62288 3.35133 2.16071 0.548118 0.0514476
threshold=0.67500000000000016 7.5000000000000009 6.7335000000000003 19.150000000000002 0.46200000000000008
decision_type=2 2 2 2 2
left_child=1 2 3 4 -1
right_child=-2 -3 -4 -5 -6
leaf_value=-0.00097478172657164668 -0.038888388738036156 0.050719202784821393 0.033861262593418366 -0.017521090616937726 0.005864116047847678
leaf_weight=22 25 20 20 20 22
leaf_count=22 25 20 20 20 22
internal_value=0 0.139303 0.0517106 -0.0379463 0.0244467
internal_weight=0 104 84 64 44
internal_count=129 104 84 64 44
shrinkage=0.1


Tree=16
num_leaves=6
num_cat=0
split_feature=12 12 0 12 7
split_gain=6.31957 1.80274 1.6677 0.480216 0.0781685
threshold=18.930000000000003 5.6900000000000004 1.2280250000000001 8.1500000000000004 3.5949000000000004
decision_type=2 2 2 2 2
left_child=1 -1 3 -3 -5
right_child=-2 2 -4 4 -6
leaf_value=0.040185347646474842 -0.046869197944622666 0.01035158949215775 0.03006791208425294 -0.0033100201349173276 -0.011938242758402513
leaf_weight=20 21 23 23 21 21
leaf_count=20 21 23 23 21 21
internal_value=0 0.130846 0.069254 -0.0126349 -0.0762413
internal_weight=0 108 88 65 42
internal_count=129 108 88 65 42
shrinkage=0.1


Tree=17
num_leaves=6
num_cat=0
split_feature=12 5 7 6 12
split_gain=5.1582 1.94867 0.580717 0.439729 0.311988
threshold=18.045000000000005 6.9090000000000007 3.8824000000000005 84.90000000000002 7.8100000000000014
decision_type=2 2 2 2 2
left_child=1 2 3 -1 -4
right_child=-2 -3 4 -5 -6
leaf_value=0.0035096112615428869 -0.037792772978544241 0.039223368093371395 0.0062294018547981982 0.024228195149806286 -0.011222246244904541
leaf_weight=20 25 22 20 21 21
leaf_count=20 25 22 20 21 21
internal_value=0 0.127963 0.0570616 0.141216 -0.0270925
internal_weight=0 104 82 41 41
internal_count=129 104 82 41 41
shrinkage=0.1


Tree=18
num_leaves=6
num_cat=0
split_feature=7 5 7 7 7
split_gain=6.33284 1.29982 0.372684 0.172073 0.122268
threshold=1.8625500000000004 6.8530000000000006 5.5877500000000007 2.4971500000000009 4.083800000000001
decision_type=2 2 2 2 2
left_child=-1 2 3 -2 -5
right_child=1 -3 -4 4 -6
leaf_value=-0.052742827776819469 -6.7334747873246665e-05 0.03150939571671188 -0.0065092791061572459 0.01659787451804039 0.0058068844268009782
leaf_weight=20 20 20 27 21 21
leaf_count=20 20 20 27 21 21
internal_value=0 0.0847331 0.0329666 0.0756699 0.112024
internal_weight=0 109 89 62 42
internal_count=129 109 89 62 42
shrinkage=0.1


Tree=19
num_leaves=6
num_cat=0
split_feature=0 0 0 11 11
split_gain=6.28601 1.13165 0.132275 0.0651923 0.104845
threshold=8.0241350000000011 0.98230000000000006 0.052450000000000004 389.90500000000003 395.19500000000005
decision_type=2 2 2 2 2
left_child=1 2 -1 -4 -5
right_child=-2 -3 3 4 -6
leaf_value=-0.0022913242367884287 -0.052449445659294727 0.030034204162657265 0.010903142490424216 -0.0010615898251888297 0.0088168393100865865
leaf_weight=26 20 20 20 21 22
leaf_count=26 20 20 20 21 22
internal_value=0 0.085399 0.0370972 0.0618635 0.0399249
internal_weight=0 109 89 63 43
internal_count=129 109 89 63 43
shrinkage=0.1


Tree=20
num_leaves=5
num_cat=0
split_feature=5 7 5 11
split_gain=2.5666 1.18891 0.522011 0.769339
threshold=5.995000000000001 2.3749500000000006 6.3665000000000012 389.19000000000005
decision_type=2 2 2 2
left_child=1 -1 -2 -4
right_child=2 -3 3 -5
leaf_value=-0.040157372178509836 -0.0036896808205970698 -0.0060897611613784522 0.025364835921640475 0.00260361505841667
leaf_weight=20 28 21 27 33
leaf_count=20 28 21 27 33
internal_value=0 -0.227081 0.0758476 0.128462
internal_weight=0 41 88 60
internal_count=129 41 88 60
shrinkage=0.1


Tree=21
num_leaves=5
num_cat=0
split_feature=12 12 5 5
split_gain=3.25056 1.20638 0.336863 0.36884
threshold=18.715000000000003 4.9150000000000009 5.9590000000000005 6.4235000000000015
decision_type=2 2 2 2
left_child=1 -1 -3 -4
right_child=-2 2 3 -5
leaf_value=0.028676510583609344 -0.03131601970707034 -0.0096589920776230954 0.012603441288792379 -0.0032303486418511183
leaf_weight=20 29 21 31 28
leaf_count=20 29 21 31 28
internal_value=0 0.0670948 0.0121773 0.050891
internal_weight=0 100 80 59
internal_count=129 100 80 59
shrinkage=0.1


Tree=22
num_leaves=5
num_cat=0
split_feature=0 12 0 12
split_gain=4.26531 0.889317 0.363578 0.118104
threshold=8.2576700000000027 4.9150000000000009 0.15271500000000002 14.515000000000002
decision_type=2 2 2 2
left_child=1 -1 -3 -4
right_child=-2 2 3 -5
leaf_value=0.025808859467506409 -0.040691347233951097 -0.005084487236878911 0.013717021008155176 0.0037963474435465678
leaf_weight=20 23 37 21 28
leaf_count=20 23 37 21 28
internal_value=0 0.0681515 0.0239801 0.0804806
internal_weight=0 106 86 49
internal_count=129 106 86 49
shrinkage=0.1


Tree=23
num_leaves=5
num_cat=0
split_feature=5 7 11 7
split_gain=1.66061 1.94765 0.768096 0.395618
threshold=6.3665000000000012 2.1052500000000003 383.67000000000007 3.9611500000000004
decision_type=2 2 2 2
left_child=1 -1 -2 -3
right_child=2 3 -4 -5
leaf_value=-0.033023924149434877 0.025028179423964542 0.011580156886484476 0.0017569919075892384 -0.0078526898435401643
leaf_weight=27 23 20 37 22
leaf_count=27 23 20 37 22
internal_value=0 -0.120696 0.106776 0.0140105
internal_weight=0 69 60 42
internal_count=129 69 60 42
shrinkage=0.1


Tree=24
num_leaves=5
num_cat=0
split_feature=4 4 9 6
split_gain=1.92698 1.05762 0.273274 0.0858091
threshold=0.67500000000000016 0.5485000000000001 312.00000000000006 62.750000000000007
decision_type=2 2 2 2
left_child=1 2 3 -1
right_child=-2 -3 -4 -5
leaf_value=0.0095113725300567855 -0.021715162396430971 0.02367502007811495 -0.0077019332296913495 0.0010551577620208264
leaf_weight=30 25 34 20 20
leaf_count=30 25 34 20 20
internal_value=0 0.0920535 0.0217722 0.0612889
internal_weight=0 104 70 50
internal_count=129 104 70 50
shrinkage=0.1


Tree=25
num_leaves=5
num_cat=0
split_feature=4 8 10 10
split_gain=1.56085 2.65767 0.685271 0.277621
threshold=0.67500000000000016 7.5000000000000009 18.650000000000002 16.500000000000004
decision_type=2 2 2 2
left_child=1 2 3 -1
right_child=-2 -3 -4 -5
leaf_value=0.016083245609133018 -0.01954364597797394 0.041045915554277605 -0.011954111432463959 0.0014595148468609243
leaf_weight=21 25 20 29 34
leaf_count=21 25 20 29 34
internal_value=0 0.0828481 0.00484553 0.0704312
internal_weight=0 104 84 55
internal_count=129 104 84 55
shrinkage=0.1


Tree=26
num_leaves=5
num_cat=0
split_feature=12 0 12 7
split_gain=1.75679 1.7486 0.760716 0.115828
threshold=18.045000000000005 1.2280250000000001 7.7350000000000012 3.8824000000000005
decision_type=2 2 2 2
left_child=1 2 -1 -4
right_child=-2 -3 3 -5
leaf_value=0.012279042350128293 -0.021199385777115824 0.031997935365264615 -0.0026321658331047125 -0.012801603910823665
leaf_weight=35 25 24 24 21
leaf_count=35 25 24 24 21
internal_value=0 0.0832415 0.0122201 -0.073779
internal_weight=0 104 80 45
internal_count=129 104 80 45
shrinkage=0.1


Tree=27
num_leaves=5
num_cat=0
split_feature=12 7 12 12
split_gain=1.4281 1.32196 0.469928 0.219916
threshold=18.930000000000003 2.1114000000000002 7.7350000000000012 12.795000000000002
decision_type=2 2 2 2
left_child=1 -1 -3 -4
right_child=-2 2 3 -5
leaf_value=0.029500812203401613 -0.021518594838146651 0.010722317394581349 -0.009354956041682851 0.0039341073506511748
leaf_weight=21 21 34 33 20
leaf_count=21 21 34 33 20
internal_value=0 0.0698189 0.0154629 -0.0434022
internal_weight=0 108 87 53
internal_count=129 108 87 53
shrinkage=0.1


Tree=28
num_leaves=5
num_cat=0
split_feature=7 4 4 7
split_gain=2.4963 0.996225 0.343218 0.673872
threshold=1.8625500000000004 0.58450000000000013 0.50550000000000017 6.4726000000000008
decision_type=2 2 2 2
left_child=-1 2 3 -2
right_child=1 -3 -4 -5
leaf_value=-0.033707128031528553 0.013921228893609208 0.024297080809871356 -0.0088511845098952924 -0.0076051499282654665
leaf_weight=20 33 21 29 26
leaf_count=20 33 21 29 26
internal_value=0 0.047268 0.000566171 0.0443503
internal_weight=0 109 88 59
internal_count=129 109 88 59
shrinkage=0.1


Tree=29
num_leaves=5
num_cat=0
split_feature=0 2 11 2
split_gain=2.7168 0.844348 0.167541 0.0444749
threshold=8.0241350000000011 10.300000000000002 392.48000000000008 5.2550000000000017
decision_type=2 2 2 2
left_child=1 2 -1 -4
right_child=-2 -3 3 -5
leaf_value=-0.0067369421378576343 -0.034987900853157047 0.018760277808178218 0.0065876820078119638 0.00045794665428071189
leaf_weight=28 20 32 20 29
leaf_count=28 20 32 20 29
internal_value=0 0.051076 -0.00566237 0.0295988
internal_weight=0 109 77 49
internal_count=129 109 77 49
shrinkage=0.1


Tree=30
num_leaves=5
num_cat=0
split_feature=5 8 8 7
split_gain=0.930522 1.92665 0.839992 0.277043
threshold=6.3665000000000012 7.5000000000000009 6.5000000000000009 3.9611500000000004
decision_type=2 2 2 2
left_child=1 3 -2 -1
right_child=2 -3 -4 -5
leaf_value=0.010294239572249354 -0.0011996534020186234 -0.03171338349580765 0.023607179966001285 -0.0056417576549574735
leaf_weight=24 39 25 21 20
leaf_count=24 39 25 21 20
internal_value=0 -0.0954504 0.0748274 0.030506
internal_weight=0 69 60 44
internal_count=129 69 60 44
shrinkage=0.1


Tree=31
num_leaves=6
num_cat=0
split_feature=12 12 5 5 12
split_gain=0.803894 0.423436 0.298468 0.309832 0.0979598
threshold=16.455000000000002 4.9150000000000009 6.432500000000001 6.0985000000000005 21.420000000000005
decision_type=2 2 2 2 2
left_child=1 -1 3 -3 -2
right_child=4 2 -4 -5 -6
leaf_value=0.016716345567256215 -0.0080191354779526585 -0.0043768895044922831 -0.0091031905526862203 0.01232187768816948 -0.017798063407341639
leaf_weight=20 20 20 23 25 21
leaf_count=20 20 20 23 25 21
internal_value=0 0.0392571 0.00163761 0.049002 -0.130279
internal_weight=0 88 68 45 41
internal_count=129 88 68 45 41
shrinkage=0.1


Tree=32
num_leaves=5
num_cat=0
split_feature=0 0 12 5
split_gain=1.59603 0.659532 0.600959 0.334838
threshold=8.2576700000000027 0.066830000000000014 9.5700000000000021 5.9340000000000002
decision_type=2 2 2 2
left_child=1 -1 -3 -4
right_child=-2 2 3 -5
leaf_value=-0.010715375367241603 -0.025195321278727575 0.019403161788359286 0.011000455416400325 -0.005241829222068191
leaf_weight=24 23 30 22 30
leaf_count=24 23 30 22 30
internal_value=0 0.0386491 0.0813232 0.0162991
internal_weight=0 106 82 52
internal_count=129 106 82 52
shrinkage=0.1


Tree=33
num_leaves=5
num_cat=0
split_feature=4 4 6 7
split_gain=1.42684 1.61641 0.377654 0.836717
threshold=0.69650000000000001 0.61900000000000011 64.90000000000002 6.0113000000000012
decision_type=2 2 2 2
left_child=1 2 3 -1
right_child=-2 -3 -4 -5
leaf_value=0.016926028732476488 0.021393096430794054 -0.031690583266317844 -0.0075763826086921136 -0.0098543037474155427
leaf_weight=28 23 20 38 20
leaf_count=28 23 20 38 20
internal_value=0 -0.0608369 -0.00128602 0.0576756
internal_weight=0 106 86 48
internal_count=129 106 86 48
shrinkage=0.1


Tree=34
num_leaves=5
num_cat=0
split_feature=4 6 9 6
split_gain=0.699715 1.1551 0.240356 0.150798
threshold=0.67500000000000016 89.15000000000002 336.00000000000006 49.500000000000007
decision_type=2 2 2 2
left_child=1 2 3 -1
right_child=-2 -3 -4 -5
leaf_value=-0.0017486528532269102 -0.012405067939078435 0.024481155046333487 -0.0077077236241446098 0.0090536241951797696
leaf_weight=24 25 26 26 28
leaf_count=24 25 26 26 28
internal_value=0 0.0622734 0.00142731 0.0406796
internal_weight=0 104 78 52
internal_count=129 104 78 52
shrinkage=0.1


Tree=35
num_leaves=5
num_cat=0
split_feature=11 5 5 10
split_gain=1.09844 0.694333 1.05344 0.397285
threshold=392.99500000000006 6.5470000000000015 5.971000000000001 19.150000000000002
decision_type=2 2 2 2
left_child=1 2 -1 -2
right_child=3 -3 -4 -5
leaf_value=0.02032190126455611 -0.0014093480538576843 0.023871242288500072 -0.0093069064696984626 -0.018757929176684809
leaf_weight=21 33 25 28 22
leaf_count=21 33 25 28 22
internal_value=0 0.103101 0.0339115 -0.0834878
internal_weight=0 74 49 55
internal_count=129 74 49 55
shrinkage=0.1


Tree=36
num_leaves=5
num_cat=0
split_feature=12 0 12 12
split_gain=0.719173 1.87176 0.304554 0.0173381
threshold=15.750000000000002 0.98230000000000006 7.7350000000000012 11.300000000000002
decision_type=2 2 2 2
left_child=1 2 -1 -4
right_child=-2 -3 3 -5
leaf_value=0.006105937688227963 -0.010615757927580766 0.032885189265722321 -0.0087015460289659955 -0.0045875078567769378
leaf_weight=34 33 21 21 20
leaf_count=34 33 21 21 20
internal_value=0 0.0649696 -0.00891743 -0.066947
internal_weight=0 96 75 41
internal_count=129 96 75 41
shrinkage=0.1


Tree=37
num_leaves=6
num_cat=0
split_feature=7 5 7 7 7
split_gain=0.676079 0.50612 0.211472 0.202397 0.125389
threshold=1.7983000000000002 6.5470000000000015 4.0995000000000008 2.5366000000000004 4.4786500000000009
decision_type=2 2 2 2 2
left_child=-1 3 -3 -2 -5
right_child=1 2 -4 4 -6
leaf_value=0.018807954099029304 -0.01371270969277248 0.01450863475246089 0.00031701328144187018 0.0028612997869706968 -0.008078957297839225
leaf_weight=20 25 21 21 22 20
leaf_count=20 25 21 21 22 20
internal_value=0 -0.0119367 0.0741282 -0.0658878 -0.0234835
internal_weight=0 109 42 67 42
internal_count=129 109 42 67 42
shrinkage=0.1


Tree=38
num_leaves=5
num_cat=0
split_feature=7 4 4 7
split_gain=1.43326 0.661477 0.231047 0.422782
threshold=1.8625500000000004 0.58450000000000013 0.49100000000000005 6.4726000000000008
decision_type=2 2 2 2
left_child=-1 2 3 -2
right_child=1 -3 -4 -5
leaf_value=-0.025692928628996015 0.012904374466206021 0.019376449943298388 -0.0065342045751296818 -0.0051294016546587677
leaf_weight=20 26 21 36 26
leaf_count=20 26 21 36 26
internal_value=0 0.0342957 -0.00375933 0.0388749
internal_weight=0 109 88 52
internal_count=129 109 88 52
shrinkage=0.1


Tree=39
num_leaves=5
num_cat=0
split_feature=0 2 11 0
split_gain=1.41487 0.459887 0.17317 0.0348852
threshold=8.0241350000000011 10.300000000000002 392.48000000000008 0.095580000000000012
decision_type=2 2 2 2
left_child=1 2 -1 -4
right_child=-2 -3 3 -5
leaf_value=-0.0069518036242308366 -0.025426061693578961 0.013584951912343969 0.0054161376615341475 6.9653901838414052e-05
leaf_weight=28 20 32 26 23
leaf_count=28 20 32 26 23
internal_value=0 0.0350908 -0.00678297 0.0290656
internal_weight=0 109 77 49
internal_count=129 109 77 49
shrinkage=0.1


Tree=40
num_leaves=6
num_cat=0
split_feature=11 5 7 7 8
split_gain=0.468524 0.49884 0.448171 0.13713 0.0668566
threshold=393.65500000000003 6.3665000000000012 3.0793000000000004 2.7012500000000004 4.5000000000000009
decision_type=2 2 2 2 2
left_child=1 3 -3 -1 -2
right_child=4 2 -4 -5 -6
leaf_value=-0.01084710467606783 -0.0061330616599521957 0.021446020556613807 0.00076271449850702836 0.00086314603686332703 -0.013719269573422416
leaf_weight=20 26 20 22 20 21
leaf_count=20 26 20 22 20 21
internal_value=0 0.0300026 0.106119 -0.0499198 -0.0952264
internal_weight=0 82 42 40 47
internal_count=129 82 42 40 47
shrinkage=0.1


Tree=41
num_leaves=6
num_cat=0
split_feature=5 5 6 6 5
split_gain=0.402285 0.408797 0.327398 0.277158 0.0118023
threshold=6.0985000000000005 5.729000000000001 91.750000000000014 65.250000000000014 6.6240000000000006
decision_type=2 2 2 2 2
left_child=1 -1 3 4 -2
right_child=2 -3 -4 -5 -6
leaf_value=0.00067622025630303798 0.0055618108634371312 -0.018829734725030987 0.012754235396404629 -0.0099324540483117438 0.0021263678185641766
leaf_weight=21 20 22 23 23 20
leaf_count=21 20 22 23 23 20
internal_value=0 -0.0930357 0.0254261 -0.0118544 0.0384409
internal_weight=0 43 86 63 40
internal_count=129 43 86 63 40
shrinkage=0.1


Tree=42
num_leaves=5
num_cat=0
split_feature=0 0 12 12
split_gain=0.860885 0.548841 0.352162 0.361537
threshold=9.2855950000000025 0.066830000000000014 9.5700000000000021 17.200000000000006
decision_type=2 2 2 2
left_child=1 -1 -3 -4
right_child=-2 2 3 -5
leaf_value=-0.011120295759368067 -0.020336613357067108 0.014719649149531808 -0.0048782680176996766 0.011975958817638459
leaf_weight=24 20 30 35 20
leaf_count=24 20 30 35 20
internal_value=0 0.0223378 0.0600434 0.0125054
internal_weight=0 109 85 55
internal_count=129 109 85 55
shrinkage=0.1


Tree=43
num_leaves=5
num_cat=0
split_feature=4 4 6 7
split_gain=1.35895 1.09972 0.312321 0.518113
threshold=0.69650000000000001 0.61900000000000011 64.90000000000002 6.0113000000000012
decision_type=2 2 2 2
left_child=1 2 3 -1
right_child=-2 -3 -4 -5
leaf_value=0.01313462424690702 0.020895184841735859 -0.027041325955651702 -0.0077809879544044024 -0.0079389883007388567
leaf_weight=28 23 20 38 20
leaf_count=28 23 20 38 20
internal_value=0 -0.0591995 -0.01008 0.0435395
internal_weight=0 106 86 48
internal_count=129 106 86 48
shrinkage=0.1


Tree=44
num_leaves=5
num_cat=0
split_feature=4 6 9 1
split_gain=0.465785 1.02412 0.162974 0.110006
threshold=0.67500000000000016 89.15000000000002 364.00000000000006 21.500000000000004
decision_type=2 2 2 2
left_child=1 2 3 -1
right_child=-2 -3 -4 -5
leaf_value=0.0061722511110608195 -0.0098095099888741988 0.022580255473999736 -0.007193269502992432 -0.0031742885056883097
leaf_weight=34 25 26 24 20
leaf_count=34 25 26 24 20
internal_value=0 0.0539249 -0.00336765 0.0271057
internal_weight=0 104 78 54
internal_count=129 104 78 54
shrinkage=0.1


Tree=45
num_leaves=5
num_cat=0
split_feature=11 8 10 5
split_gain=0.803738 0.5572 0.205086 0.139318
threshold=392.99500000000006 6.5000000000000009 18.650000000000002 6.315500000000001
decision_type=2 2 2 2
left_child=1 3 -2 -1
right_child=2 -3 -4 -5
leaf_value=-0.0032951370696537199 -0.00095770037150941798 0.019515580218285325 -0.01317255130658547 0.0080056734662503001
leaf_weight=24 28 30 27 20
leaf_count=24 28 30 27 20
internal_value=0 0.0900672 -0.0695408 0.0184159
internal_weight=0 74 55 44
internal_count=129 74 55 44
shrinkage=0.1


Tree=46
num_leaves=6
num_cat=0
split_feature=7 7 7 6 6
split_gain=0.830424 0.172607 0.169824 0.0478284 0.0135403
threshold=1.7983000000000002 2.1235500000000003 3.3246000000000007 59.650000000000013 38.45000000000001
decision_type=2 2 2 2 2
left_child=-1 -2 -3 4 -4
right_child=1 2 3 -5 -6
leaf_value=0.020712228828342633 -0.0098497953824698923 0.0070505456929957425 -0.0023258862574584782 -0.0063323686608955975 0.0013097531730420003
leaf_weight=20 20 27 20 21 21
leaf_count=20 20 27 20 21 21
internal_value=0 -0.0145526 0.00431147 -0.0245149 -0.00463729
internal_weight=0 109 89 62 41
internal_count=129 109 89 62 41
shrinkage=0.1


Tree=47
num_leaves=6
num_cat=0
split_feature=7 5 5 7 6
split_gain=0.672643 0.281085 0.212374 0.12167 0.097124
threshold=1.7983000000000002 6.5470000000000015 6.2500000000000009 4.0995000000000008 74.700000000000017
decision_type=2 2 2 2 2
left_child=-1 2 4 -3 -2
right_child=1 3 -4 -5 -6
leaf_value=0.018641005344688894 0.0030290772372003026 0.010486391603591896 -0.013117460839693312 -0.0002781743183732033 -0.0064065128925722102
leaf_weight=20 24 21 23 21 20
leaf_count=20 24 21 23 21 20
internal_value=0 -0.0130974 -0.0533036 0.0510411 -0.0125983
internal_weight=0 109 67 42 44
internal_count=129 109 67 42 44
shrinkage=0.1


Tree=48
num_leaves=5
num_cat=0
split_feature=7 4 4 7
split_gain=1.18257 0.373328 0.175737 0.234817
threshold=1.8625500000000004 0.58450000000000013 0.49100000000000005 6.4726000000000008
decision_type=2 2 2 2
left_child=-1 2 3 -2
right_child=1 -3 -4 -5
leaf_value=-0.022850314350798727 0.011182266876746255 0.015583215937727974 -0.0046267071790579289 -0.0022575353505089879
leaf_weight=20 26 21 36 26
leaf_count=20 26 21 36 26
internal_value=0 0.0360302 0.00744109 0.0446237
internal_weight=0 109 88 52
internal_count=129 109 88 52
shrinkage=0.1


Tree=49
num_leaves=5
num_cat=0
split_feature=0 2 11 0
split_gain=1.11708 0.274503 0.13726 0.0904803
threshold=8.0241350000000011 8.3500000000000032 392.48000000000008 0.36063500000000004
decision_type=2 2 2 2
left_child=1 2 -1 -3
right_child=-2 3 -4 -5
leaf_value=-0.0062690341307853285 -0.022172763689886781 0.005136895918732752 0.0031603501970254768 0.014107217309488494
leaf_weight=26 20 23 38 22
leaf_count=26 20 23 38 22
internal_value=0 0.0353767 -0.00670337 0.0952239
internal_weight=0 109 64 45
internal_count=129 109 64 45
shrinkage=0.1


Tree=50
num_leaves=5
num_cat=0
split_feature=11 5 8 11
split_gain=0.303941 0.325702 0.334268 0.108785
threshold=396.28000000000003 6.3665000000000012 5.5000000000000009 385.03500000000003
decision_type=2 2 2 2
left_child=1 3 -3 -1
right_child=-2 2 -4 -5
leaf_value=-0.0098936499639724687 -0.010640547536313535 -3.6217423621565102e-05 0.016443852037191394 -0.00026947550637566523
leaf_weight=24 30 32 20 23
leaf_count=24 30 32 20 23
internal_value=0 0.00849218 0.0630227 -0.0518395
internal_weight=0 99 52 47
internal_count=129 99 52 47
shrinkage=0.1


Tree=51
num_leaves=6
num_cat=0
split_feature=12 1 2 6 6
split_gain=0.275013 0.153412 0.0759546 0.267407 0.0472936
threshold=16.455000000000002 23.500000000000004 14.480000000000002 64.90000000000002 94.200000000000003
decision_type=2 2 2 2 2
left_child=1 2 3 -1 -2
right_child=4 -3 -4 -5 -6
leaf_value=0.0083718760906217188 -0.0050904899480796999 -0.0057207764877768401 0.0090664902538992471 -0.0070083746872842316 -0.011885161753743887
leaf_weight=26 21 22 20 20 20
leaf_count=26 21 22 20 20 20
internal_value=0 0.0151107 0.0392168 0.0168481 -0.0840496
internal_weight=0 88 66 46 41
internal_count=129 88 66 46 41
shrinkage=0.1


Tree=52
num_leaves=5
num_cat=0
split_feature=0 0 12 5
split_gain=0.548156 0.387268 0.199347 0.379166
threshold=9.2855950000000025 0.064415000000000014 9.5700000000000021 5.8785000000000007
decision_type=2 2 2 2
left_child=1 -1 -3 -4
right_child=-2 2 3 -5
leaf_value=-0.01021018581788825 -0.016694412901997566 0.01081124374289967 0.011348619010476839 -0.0057415761108345845
leaf_weight=23 20 31 21 34
leaf_count=23 20 31 21 34
internal_value=0 0.013158 0.0439833 0.00783771
internal_weight=0 109 86 55
internal_count=129 109 86 55
shrinkage=0.1


Tree=53
num_leaves=5
num_cat=0
split_feature=4 4 6 7
split_gain=1.12723 0.892307 0.17757 0.326885
threshold=0.69650000000000001 0.60100000000000009 64.90000000000002 5.2132500000000013
decision_type=2 2 2 2
left_child=1 2 3 -1
right_child=-2 -3 -4 -5
leaf_value=0.012751367739180015 0.018739018824113451 -0.021777125985289997 -0.0062227846367932218 -0.0038837651075381372
leaf_weight=21 23 26 32 27
leaf_count=21 23 26 32 27
internal_value=0 -0.0568318 -0.00452651 0.0339411
internal_weight=0 106 80 48
internal_count=129 106 80 48
shrinkage=0.1


Tree=54
num_leaves=5
num_cat=0
split_feature=4 6 9 9
split_gain=0.41657 0.995815 0.13542 0.0439032
threshold=0.67500000000000016 84.90000000000002 364.00000000000006 276.50000000000006
decision_type=2 2 2 2
left_child=1 2 3 -1
right_child=-2 -3 -4 -5
leaf_value=-0.0010469802212485645 -0.0094066281206905845 0.020338208919080596 -0.007630688194995342 0.0048494625917595369
leaf_weight=28 25 30 23 23
leaf_count=28 25 30 23 23
internal_value=0 0.0496983 -0.0126059 0.016122
internal_weight=0 104 74 51
internal_count=129 104 74 51
shrinkage=0.1


Tree=55
num_leaves=5
num_cat=0
split_feature=11 8 10 5
split_gain=0.632133 0.524049 0.115321 0.096893
threshold=392.99500000000006 6.5000000000000009 18.350000000000005 6.315500000000001
decision_type=2 2 2 2
left_child=1 3 -2 -1
right_child=2 -3 -4 -5
leaf_value=-0.0032322174015765393 -0.00075332111294340836 0.018191740836482496 -0.010036508020129987 0.0061921427585184576
leaf_weight=24 23 30 32 20
leaf_count=24 23 30 32 20
internal_value=0 0.080003 -0.0615445 0.0105158
internal_weight=0 74 55 44
internal_count=129 74 55 44
shrinkage=0.1


Tree=56
num_leaves=5
num_cat=0
split_feature=7 12 7 7
split_gain=0.811296 0.136286 0.0726764 0.0983817
threshold=1.8286500000000003 5.9350000000000014 2.5366000000000004 3.8824000000000005
decision_type=2 2 2 2
left_child=-1 -2 -3 -4
right_child=1 2 3 -5
leaf_value=0.019258217251097616 0.0056163503217976545 -0.0076257587635311583 0.004182422283338383 -0.0044824923388659954
leaf_weight=22 20 29 20 38
leaf_count=22 20 29 20 38
internal_value=0 -0.0182716 -0.0353831 -0.0149459
internal_weight=0 107 87 58
internal_count=129 107 87 58
shrinkage=0.1


Tree=57
num_leaves=6
num_cat=0
split_feature=7 5 7 12 12
split_gain=0.65715 0.174466 0.100938 0.0966116 0.0703036
threshold=1.8286500000000003 6.9720000000000004 2.5366000000000004 11.430000000000001 7.6350000000000007
decision_type=2 2 2 2 2
left_child=-1 2 -2 4 -4
right_child=1 -3 3 -5 -6
leaf_value=0.017332394857128914 -0.0089445750024169692 0.0067774273850955066 0.00014942964946385473 0.0043028503959067167 -0.0080425186675380581
leaf_weight=22 25 20 20 20 22
leaf_count=22 25 20 20 20 22
internal_value=0 -0.0164445 -0.0358051 -0.0141758 -0.0414159
internal_weight=0 107 87 62 42
internal_count=129 107 87 62 42
shrinkage=0.1


Tree=58
num_leaves=5
num_cat=0
split_feature=7 4 4 7
split_gain=0.972398 0.257042 0.150623 0.161886
threshold=1.8625500000000004 0.58450000000000013 0.49100000000000005 5.8010500000000009
decision_type=2 2 2 2
left_child=-1 2 3 -2
right_child=1 -3 -4 -5
leaf_value=-0.020529521526768804 0.010793535992422183 0.013398950174450875 -0.003886325230511526 -0.00044069355935789646
leaf_weight=20 23 21 36 29
leaf_count=20 23 21 36 29
internal_value=0 0.0345818 0.0108595 0.0452829
internal_weight=0 109 88 52
internal_count=129 109 88 52
shrinkage=0.1


Tree=59
num_leaves=5
num_cat=0
split_feature=0 2 11 0
split_gain=0.831515 0.203112 0.156346 0.0324828
threshold=8.0241350000000011 8.3500000000000032 392.48000000000008 0.36063500000000004
decision_type=2 2 2 2
left_child=1 2 -1 -3
right_child=-2 3 -4 -5
leaf_value=-0.0063906482904433062 -0.018977729249745608 0.0057246579930348247 0.0036729821843389226 0.011099404816261748
leaf_weight=26 20 23 38 22
leaf_count=26 20 23 38 22
internal_value=0 0.0320432 -0.00415368 0.0835231
internal_weight=0 109 64 45
internal_count=129 109 64 45
shrinkage=0.1


Tree=60
num_leaves=5
num_cat=0
split_feature=11 5 8 11
split_gain=0.198764 0.26441 0.292756 0.123693
threshold=396.28000000000003 6.3440000000000003 6.5000000000000009 385.03500000000003
decision_type=2 2 2 2
left_child=1 3 -3 -1
right_child=-2 2 -4 -5
leaf_value=-0.011286701758702597 -0.0092513893544673917 -0.00085260270762124247 0.014313901066780092 -0.00067157250697441086
leaf_weight=21 30 35 20 23
leaf_count=21 30 35 20 23
internal_value=0 0.000401012 0.0466249 -0.0573788
internal_weight=0 99 55 44
internal_count=129 99 55 44
shrinkage=0.1


Tree=61
num_leaves=5
num_cat=0
split_feature=12 5 6 12
split_gain=0.198076 0.14682 0.070331 0.0865683
threshold=17.125000000000004 6.8250000000000002 79.050000000000026 9.0900000000000016
decision_type=2 2 2 2
left_child=1 2 3 -1
right_child=-2 -3 -4 -5
leaf_value=-0.003587204420579259 -0.0078612791135525099 -0.0058418121417053047 0.007620759284042794 0.0055030849506147207
leaf_weight=22 39 25 23 20
leaf_count=22 39 25 23 20
internal_value=0 0.00670837 0.031757 0.00741505
internal_weight=0 90 65 42
internal_count=129 90 65 42
shrinkage=0.1


Tree=62
num_leaves=5
num_cat=0
split_feature=0 0 12 5
split_gain=0.351439 0.307494 0.146738 0.377299
threshold=9.2855950000000025 0.064415000000000014 10.49 5.8785000000000007
decision_type=2 2 2 2
left_child=1 -1 -3 -4
right_child=-2 2 3 -5
leaf_value=-0.0097524558558412227 -0.013902849478763531 0.008251019781455397 0.010551206758245828 -0.0070657871423229091
leaf_weight=23 20 35 20 31
leaf_count=23 20 35 20 31
internal_value=0 0.00518018 0.0326477 -0.00157162
internal_weight=0 109 86 51
internal_count=129 109 86 51
shrinkage=0.1


Tree=63
num_leaves=5
num_cat=0
split_feature=4 4 6 7
split_gain=0.99853 0.75261 0.168735 0.239007
threshold=0.69650000000000001 0.60100000000000009 65.250000000000014 5.0419000000000009
decision_type=2 2 2 2
left_child=1 2 3 -1
right_child=-2 -3 -4 -5
leaf_value=0.010841595234593288 0.01734151608594086 -0.020424776327294801 -0.0067695569309095538 -0.0031665932692202001
leaf_weight=21 23 26 30 29
leaf_count=21 23 26 30 29
internal_value=0 -0.0564423 -0.00840555 0.0271685
internal_weight=0 106 80 50
internal_count=129 106 80 50
shrinkage=0.1


Tree=64
num_leaves=5
num_cat=0
split_feature=4 4 9 4
split_gain=0.37878 0.907801 0.0614313 0.0652232
threshold=0.67500000000000016 0.6070000000000001 312.00000000000006 0.48600000000000004
decision_type=2 2 2 2
left_child=1 2 3 -1
right_child=-2 -3 -4 -5
leaf_value=-0.0010134900113501187 -0.0089169724248349663 0.023939009469468149 -0.0033029420782000789 0.0060138360185083006
leaf_weight=28 25 20 31 25
leaf_count=28 25 20 31 25
internal_value=0 0.047919 0.00233059 0.0230129
internal_weight=0 104 84 53
internal_count=129 104 84 53
shrinkage=0.1


Tree=65
num_leaves=5
num_cat=0
split_feature=11 10 5 10
split_gain=0.596209 0.26395 0.308696 0.0815355
threshold=383.01500000000004 17.500000000000004 6.0130000000000008 19.150000000000002
decision_type=2 2 2 2
left_child=-1 -2 -3 -4
right_child=1 2 3 -5
leaf_value=0.012442053643692483 0.0067889030374910526 -0.01568348477816298 -0.0046847405593359367 0.003739395998418331
leaf_weight=38 23 21 27 20
leaf_count=38 23 21 27 20
internal_value=0 -0.0247152 -0.0560372 -0.011
internal_weight=0 91 68 47
internal_count=129 91 68 47
shrinkage=0.1


Tree=66
num_leaves=5
num_cat=0
split_feature=7 7 7 7
split_gain=0.768968 0.0982723 0.148017 0.0631826
threshold=1.8286500000000003 2.5366000000000004 3.6584500000000006 4.8375000000000012
decision_type=2 2 2 2
left_child=-1 -2 -3 -4
right_child=1 2 3 -5
leaf_value=0.01875653166154569 -0.0065165775617764855 0.0066600705390252798 -0.0072432294895406818 -7.8322002809727575e-05
leaf_weight=22 31 24 20 32
leaf_count=22 31 24 20 32
internal_value=0 -0.0177143 0.00164089 -0.0283406
internal_weight=0 107 76 52
internal_count=129 107 76 52
shrinkage=0.1


Tree=67
num_leaves=5
num_cat=0
split_feature=7 5 12 12
split_gain=0.622864 0.111988 0.0797842 0.103883
threshold=1.8286500000000003 6.9720000000000004 12.795000000000002 7.6350000000000007
decision_type=2 2 2 2
left_child=-1 2 3 -2
right_child=1 -3 -4 -5
leaf_value=0.016880878183821387 -0.00019934325135268624 0.0051531417551450437 0.00054576958928789418 -0.0093086240970860091
leaf_weight=22 21 20 35 31
leaf_count=22 21 20 35 31
internal_value=0 -0.0159429 -0.0314542 -0.0562988
internal_weight=0 107 87 52
internal_count=129 107 87 52
shrinkage=0.1


Tree=68
num_leaves=6
num_cat=0
split_feature=7 5 8 4 5
split_gain=0.843646 0.19624 0.160736 0.10176 0.06597
threshold=1.8625500000000004 6.4875000000000016 5.5000000000000009 0.49100000000000005 6.8530000000000006
decision_type=2 2 2 2 2
left_child=-1 2 3 -2 -3
right_child=1 4 -4 -5 -6
leaf_value=-0.018653310006484389 0.0080466349106838777 -0.0059439632773865018 0.01352952297505302 -0.0014664222338152204 0.0021782294538570568
leaf_weight=20 23 20 24 22 20
leaf_count=20 23 20 24 22 20
internal_value=0 0.0368996 0.0692058 0.0339581 -0.0188287
internal_weight=0 109 69 45 40
internal_count=129 109 69 45 40
shrinkage=0.1


Tree=69
num_leaves=5
num_cat=0
split_feature=0 11 11 2
split_gain=0.607206 0.194218 0.139775 0.0849618
threshold=8.0241350000000011 394.03500000000003 383.67000000000007 7.6250000000000009
decision_type=2 2 2 2
left_child=1 2 -1 -3
right_child=-2 3 -4 -5
leaf_value=0.0049515626608179174 -0.015813344027847051 0.004190310647849132 -0.0047280595474772525 0.012671192048028822
leaf_weight=26 20 27 35 21
leaf_count=26 20 27 35 21
internal_value=0 0.0314213 -0.00602319 0.079007
internal_weight=0 109 61 48
internal_count=129 109 61 48
shrinkage=0.1


Tree=70
num_leaves=5
num_cat=0
split_feature=11 5 8 11
split_gain=0.160058 0.246007 0.22537 0.128837
threshold=396.28000000000003 6.3440000000000003 6.5000000000000009 385.03500000000003
decision_type=2 2 2 2
left_child=1 3 -3 -1
right_child=-2 2 -4 -5
leaf_value=-0.011391445595238891 -0.0084930337903400266 -0.00053543571964837617 0.012771566174924373 -0.00055785120120676972
leaf_weight=21 30 35 20 23
leaf_count=21 30 35 20 23
internal_value=0 -0.0015515 0.0430347 -0.0572843
internal_weight=0 99 55 44
internal_count=129 99 55 44
shrinkage=0.1


Tree=71
num_leaves=6
num_cat=0
split_feature=6 2 6 6 5
split_gain=0.15939 0.604489 0.583834 0.123175 0.157611
threshold=92.050000000000026 10.700000000000001 97.950000000000017 64.90000000000002 6.5315000000000012
decision_type=2 2 2 2 2
left_child=1 3 -2 4 -1
right_child=2 -3 -4 -5 -6
leaf_value=0.0097932680953471442 0.014415782588449392 -0.018654898177324374 -0.0091913427924737341 -0.0057788476480969365 -0.0021891841678829539
leaf_weight=21 22 22 20 21 23
leaf_count=21 22 22 20 21 23
internal_value=0 -0.0432708 0.0317429 0.00522332 0.0352971
internal_weight=0 87 42 65 44
internal_count=129 87 42 65 44
shrinkage=0.1


Tree=72
num_leaves=5
num_cat=0
split_feature=0 0 5 12
split_gain=0.222197 0.229183 0.137671 0.355076
threshold=9.2855950000000025 0.066830000000000014 5.8580000000000014 11.300000000000002
decision_type=2 2 2 2
left_child=1 -1 -3 -4
right_child=-2 2 3 -5
leaf_value=-0.0085479464925204713 -0.011385146686807276 0.0097732905484735969 0.0067151976116882591 -0.0082105959782243845
leaf_weight=24 20 20 37 28
leaf_count=24 20 20 37 28
internal_value=0 0.000814745 0.0251802 0.00285625
internal_weight=0 109 85 65
internal_count=129 109 85 65
shrinkage=0.1


Tree=73
num_leaves=5
num_cat=0
split_feature=4 4 6 7
split_gain=0.932299 0.674394 0.13501 0.217323
threshold=0.69650000000000001 0.60100000000000009 65.250000000000014 5.0419000000000009
decision_type=2 2 2 2
left_child=1 2 3 -1
right_child=-2 -3 -4 -5
leaf_value=0.009990069930929513 0.016723706557050997 -0.019478083566690868 -0.0062429285918672887 -0.0033675412252015466
leaf_weight=21 23 26 30 29
leaf_count=21 23 26 30 29
internal_value=0 -0.0548665 -0.00939439 0.0224266
internal_weight=0 106 80 50
internal_count=129 106 80 50
shrinkage=0.1


Tree=74
num_leaves=5
num_cat=0
split_feature=4 9 9 4
split_gain=0.368632 0.875684 0.0989872 0.0453593
threshold=0.67500000000000016 434.50000000000006 336.00000000000006 0.48600000000000004
decision_type=2 2 2 2
left_child=1 2 3 -1
right_child=-2 -3 -4 -5
leaf_value=-0.00041134975054451535 -0.0083728354200720799 0.021904296214537076 -0.0057708383848269788 0.0051412888399551904
leaf_weight=31 25 24 21 28
leaf_count=31 25 24 21 28
internal_value=0 0.0515115 0.00125208 0.022238
internal_weight=0 104 80 59
internal_count=129 104 80 59
shrinkage=0.1


Tree=75
num_leaves=5
num_cat=0
split_feature=5 5 11 8
split_gain=0.572295 0.329011 0.274857 0.163001
threshold=5.8900000000000015 6.5470000000000015 392.84000000000009 5.5000000000000009
decision_type=2 2 2 2
left_child=-1 3 -3 -2
right_child=1 2 -4 -5
leaf_value=0.014927378945451762 -0.0018460774184752477 0.012481368313698719 -0.0033916453691199425 -0.012746128367017147
leaf_weight=28 34 24 20 23
leaf_count=28 34 24 20 23
internal_value=0 -0.0122978 0.0526636 -0.0624434
internal_weight=0 101 44 57
internal_count=129 101 44 57
shrinkage=0.1


Tree=76
num_leaves=6
num_cat=0
split_feature=0 12 0 7 12
split_gain=0.710174 0.259934 0.0533477 0.101466 0.0898427
threshold=7.5990150000000005 5.6900000000000004 0.22325000000000003 2.4313500000000006 9.6750000000000025
decision_type=2 2 2 2 2
left_child=1 -1 4 -4 -3
right_child=-2 2 3 -5 -6
leaf_value=0.0091726620472036315 0.019370992919430136 -0.005307845084462315 -0.0014461759477853776 -0.011185217760503293 0.0035393035134554589
leaf_weight=20 20 24 23 20 22
leaf_count=20 20 24 23 20 22
internal_value=0 -0.0112878 -0.0344371 -0.0597596 -0.010766
internal_weight=0 109 89 43 46
internal_count=129 109 89 43 46
shrinkage=0.1


Tree=77
num_leaves=6
num_cat=0
split_feature=7 5 5 12 1
split_gain=0.629865 0.0858443 0.172607 0.11464 0.020001
threshold=1.8286500000000003 6.5470000000000015 6.2725000000000009 13.275000000000002 15.250000000000002
decision_type=2 2 2 2 2
left_child=-1 2 3 -2 -3
right_child=1 4 -4 -5 -6
leaf_value=0.017254776287485254 -0.0046797921787947415 0.0043819839046114967 -0.011330494452267886 0.0054777488065883527 1.7512570844874498e-05
leaf_weight=22 25 21 20 20 21
leaf_count=22 25 21 20 20 21
internal_value=0 -0.0132393 -0.0360076 -0.0016533 0.0219975
internal_weight=0 107 65 45 42
internal_count=129 107 65 45 42
shrinkage=0.1


Tree=78
num_leaves=6
num_cat=0
split_feature=7 5 8 4 7
split_gain=0.750992 0.186087 0.150897 0.0930207 0.0430652
threshold=1.8625500000000004 6.4875000000000016 5.5000000000000009 0.49100000000000005 4.4333500000000017
decision_type=2 2 2 2 2
left_child=-1 2 3 -2 -3
right_child=1 4 -4 -5 -6
leaf_value=-0.017659779256209731 0.0075982583929663124 -0.0052870594873093077 0.012970305094495416 -0.0014971186830238863 0.0012753455099300483
leaf_weight=20 23 20 24 22 20
leaf_count=20 23 20 24 22 20
internal_value=0 0.0342088 0.0656682 0.0315163 -0.0200586
internal_weight=0 109 69 45 40
internal_count=129 109 69 45 40
shrinkage=0.1


Tree=79
num_leaves=5
num_cat=0
split_feature=0 11 11 2
split_gain=0.560755 0.176933 0.110895 0.0693411
threshold=8.0241350000000011 394.03500000000003 383.67000000000007 7.6250000000000009
decision_type=2 2 2 2
left_child=1 2 -1 -3
right_child=-2 3 -4 -5
leaf_value=0.0043345257066763369 -0.015254517074208707 0.0041513814401157477 -0.004287324791241969 0.011813068638245265
leaf_weight=26 20 27 35 21
leaf_count=26 20 27 35 21
internal_value=0 0.029615 -0.00612438 0.0750337
internal_weight=0 109 61 48
internal_count=129 109 61 48
shrinkage=0.1


Tree=80
num_leaves=5
num_cat=0
split_feature=5 5 8 7
split_gain=0.188238 0.359579 0.230408 0.19654
threshold=6.0985000000000005 6.7540000000000004 5.5000000000000009 2.9014000000000002
decision_type=2 2 2 2
left_child=2 3 -1 -2
right_child=1 -3 -4 -5
leaf_value=-0.00080996388974397091 0.011269293711693199 -0.0085979796207413597 -0.015485848747193815 -0.00049107192899100482
leaf_weight=23 27 29 20 30
leaf_count=23 27 29 20 30
internal_value=0 0.00467411 -0.0763596 0.0507963
internal_weight=0 86 43 57
internal_count=129 86 43 57
shrinkage=0.1


Tree=81
num_leaves=5
num_cat=0
split_feature=12 5 5 6
split_gain=0.157036 0.162978 0.0827543 0.110574
threshold=17.125000000000004 6.8530000000000006 6.0985000000000005 61.750000000000007
decision_type=2 2 2 2
left_child=1 2 -1 -4
right_child=-2 -3 3 -5
leaf_value=-0.0021551579067652874 -0.0073105659240331414 -0.006770402097026818 0.00056628069339818355 0.010602706546584767
leaf_weight=22 39 24 23 21
leaf_count=22 39 24 23 21
internal_value=0 0.00286424 0.0285254 0.0535639
internal_weight=0 90 66 44
internal_count=129 90 66 44
shrinkage=0.1


Tree=82
num_leaves=5
num_cat=0
split_feature=0 6 6 12
split_gain=0.159611 0.185322 0.222449 0.102223
threshold=9.2855950000000025 93.700000000000003 64.90000000000002 7.8100000000000014
decision_type=2 2 2 2
left_child=1 2 3 -1
right_child=-2 -3 -4 -5
leaf_value=-0.0017183536717701436 -0.010021051764488221 0.0078971496444534186 -0.0079858093104587923 0.0076421848824247719
leaf_weight=28 20 22 39 20
leaf_count=28 20 22 39 20
internal_value=0 -0.00302564 -0.0237605 0.0218187
internal_weight=0 109 87 48
internal_count=129 109 87 48
shrinkage=0.1


Tree=83
num_leaves=5
num_cat=0
split_feature=4 5 6 7
split_gain=0.873456 0.662009 0.249042 0.211242
threshold=0.69650000000000001 5.8860000000000001 86.200000000000003 3.9611500000000004
decision_type=2 2 2 2
left_child=1 -1 3 -3
right_child=-2 2 -4 -5
leaf_value=-0.02047389555398537 0.016036662848099417 0.0099522254958918158 -0.0098897615292419996 -0.0024215890346346676
leaf_weight=23 23 22 24 37
leaf_count=23 23 22 24 37
internal_value=0 -0.0546136 -0.0130125 0.0219238
internal_weight=0 106 83 59
internal_count=129 106 83 59
shrinkage=0.1


Tree=84
num_leaves=5
num_cat=0
split_feature=4 6 9 9
split_gain=0.345775 0.790307 0.074697 0.0397366
threshold=0.67500000000000016 84.90000000000002 364.00000000000006 276.50000000000006
decision_type=2 2 2 2
left_child=1 2 3 -1
right_child=-2 -3 -4 -5
leaf_value=-0.0010504167111191366 -0.0082017408981919279 0.01858729064464569 -0.005385213065892458 0.0045592585153391828
leaf_weight=28 25 30 23 23
leaf_count=28 25 30 23 23
internal_value=0 0.0489625 -0.00654171 0.0147944
internal_weight=0 104 74 51
internal_count=129 104 74 51
shrinkage=0.1


Tree=85
num_leaves=5
num_cat=0
split_feature=5 5 11 4
split_gain=0.580929 0.318101 0.235557 0.145071
threshold=5.8900000000000015 6.5470000000000015 392.84000000000009 0.6070000000000001
decision_type=2 2 2 2
left_child=-1 3 -3 -2
right_child=1 2 -4 -5
leaf_value=0.014867345315204667 -0.0020396619827035027 0.01165557581698522 -0.003038875535130501 -0.012257635112230977
leaf_weight=28 33 24 20 24
leaf_count=28 33 24 20 24
internal_value=0 -0.0141125 0.0497628 -0.0634197
internal_weight=0 101 44 57
internal_count=129 101 44 57
shrinkage=0.1


Tree=86
num_leaves=6
num_cat=0
split_feature=0 12 0 7 12
split_gain=0.783952 0.256259 0.0550906 0.0737074 0.0550739
threshold=7.5990150000000005 5.6900000000000004 0.22325000000000003 2.4313500000000006 9.6750000000000025
decision_type=2 2 2 2 2
left_child=1 -1 4 -4 -3
right_child=-2 2 3 -5 -6
leaf_value=0.0087989700969774275 0.020108911191346127 -0.0046352651692965685 -0.002440426037039446 -0.01074105459265411 0.0022915704853155396
leaf_weight=20 20 24 23 20 22
leaf_count=20 20 24 23 20 22
internal_value=0 -0.0142939 -0.037279 -0.0630118 -0.0132243
internal_weight=0 109 89 43 46
internal_count=129 109 89 43 46
shrinkage=0.1


Tree=87
num_leaves=6
num_cat=0
split_feature=7 5 5 12 5
split_gain=0.621039 0.0816906 0.144628 0.0519378 0.0123917
threshold=1.8286500000000003 6.5470000000000015 6.2500000000000009 13.045000000000002 6.9720000000000004
decision_type=2 2 2 2 2
left_child=-1 2 3 -2 -3
right_child=1 4 -4 -5 -6
leaf_value=0.017020783725787293 -0.0036698627010495824 0.0003723412095992403 -0.010243016469758004 0.003282864249887921 0.0038115937192924319
leaf_weight=22 22 22 22 21 20
leaf_count=22 22 22 22 21 20
internal_value=0 -0.0142729 -0.0364836 -0.00274345 0.0201008
internal_weight=0 107 65 43 42
internal_count=129 107 65 43 42
shrinkage=0.1


Tree=88
num_leaves=6
num_cat=0
split_feature=7 5 8 4 7
split_gain=0.678329 0.160128 0.141199 0.0785683 0.0418842
threshold=1.8625500000000004 6.4875000000000016 5.5000000000000009 0.49100000000000005 4.4333500000000017
decision_type=2 2 2 2 2
left_child=-1 2 3 -2 -3
right_child=1 4 -4 -5 -6
leaf_value=-0.016986414883285762 0.0067497457407981812 -0.005221454953534703 0.012161022098734976 -0.0016092632177539846 0.00125034564640373
leaf_weight=20 23 20 24 22 20
leaf_count=20 23 20 24 22 20
internal_value=0 0.0304847 0.0596674 0.0266312 -0.0198555
internal_weight=0 109 69 45 40
internal_count=129 109 69 45 40
shrinkage=0.1


Tree=89
num_leaves=5
num_cat=0
split_feature=0 11 11 2
split_gain=0.477855 0.156195 0.0760122 0.0556181
threshold=7.5990150000000005 394.03500000000003 383.67000000000007 7.6250000000000009
decision_type=2 2 2 2
left_child=1 2 -1 -3
right_child=-2 3 -4 -5
leaf_value=0.0033893741452350069 -0.013854374239842097 0.0040036636128745699 -0.0037487789755687121 0.010961273494176568
leaf_weight=26 21 27 35 20
leaf_count=26 21 27 35 20
internal_value=0 0.0263186 -0.00706287 0.0696435
internal_weight=0 108 61 47
internal_count=129 108 61 47
shrinkage=0.1


Tree=90
num_leaves=5
num_cat=0
split_feature=5 5 8 8
split_gain=0.159764 0.314847 0.188583 0.17869
threshold=6.0985000000000005 6.7540000000000004 6.5000000000000009 5.5000000000000009
decision_type=2 2 2 2
left_child=3 2 -2 -1
right_child=1 -3 -4 -5
leaf_value=-0.0013625073985642066 -0.00049787061288952827 -0.0083912176023847578 0.011152123395974439 -0.014286742247641088
leaf_weight=23 33 29 24 20
leaf_count=23 33 29 24 20
internal_value=0 0.000915805 0.0440739 -0.0737378
internal_weight=0 86 57 43
internal_count=129 86 57 43
shrinkage=0.1


Tree=91
num_leaves=5
num_cat=0
split_feature=5 5 6 5
split_gain=0.129409 0.255026 0.160552 0.156703
threshold=6.0985000000000005 6.7540000000000004 87.950000000000017 5.729000000000001
decision_type=2 2 2 2
left_child=3 2 -2 -1
right_child=1 -3 -4 -5
leaf_value=-0.00045757483513582321 -8.6835210418535614e-05 -0.0075520955829014042 0.010915484514442228 -0.012534373093149044
leaf_weight=21 36 29 21 22
leaf_count=21 36 29 21 22
internal_value=0 0.000824225 0.0396665 -0.066364
internal_weight=0 86 57 43
internal_count=129 86 57 43
shrinkage=0.1


Tree=92
num_leaves=4
num_cat=0
split_feature=12 0 12
split_gain=0.149333 0.212593 0.061396
threshold=17.125000000000004 0.066830000000000014 9.7700000000000014
decision_type=2 2 2
left_child=1 -1 -3
right_child=-2 2 -4
leaf_value=-0.0077614569260428361 -0.0071100620815578181 0.0063729174318723388 0.00027014148038099795
leaf_weight=24 39 32 34
leaf_count=24 39 32 34
internal_value=0 0.00298258 0.0322906
internal_weight=0 90 66
internal_count=129 90 66
shrinkage=0.1


Tree=93
num_leaves=5
num_cat=0
split_feature=4 4 6 7
split_gain=0.809398 0.610441 0.121342 0.180207
threshold=0.69650000000000001 0.60100000000000009 65.250000000000014 5.4972000000000003
decision_type=2 2 2 2
left_child=1 2 3 -1
right_child=-2 -3 -4 -5
leaf_value=0.0072273763312426 0.015257626302216366 -0.018748583576570339 -0.0061387077167940644 -0.0048669033313424072
leaf_weight=28 23 26 30 22
leaf_count=28 23 26 30 22
internal_value=0 -0.0543707 -0.0111083 0.0190589
internal_weight=0 106 80 50
internal_count=129 106 80 50
shrinkage=0.1


Tree=94
num_leaves=6
num_cat=0
split_feature=4 4 2 2 6
split_gain=0.342258 0.775052 0.0719181 0.0655447 0.0324112
threshold=0.67500000000000016 0.6070000000000001 10.300000000000002 6.3050000000000006 48.350000000000009
decision_type=2 2 2 2 2
left_child=1 2 3 4 -1
right_child=-2 -3 -4 -5 -6
leaf_value=-0.0012419443511004959 -0.0078514722287654892 0.022871597688645124 0.0062016391160432255 -0.0052476589257518455 0.0042504400819201368
leaf_weight=21 25 20 20 21 22
leaf_count=21 25 20 20 21 22
internal_value=0 0.0517974 0.0096739 -0.00668312 0.0156811
internal_weight=0 104 84 64 43
internal_count=129 104 84 64 43
shrinkage=0.1


Tree=95
num_leaves=6
num_cat=0
split_feature=11 5 10 5 5
split_gain=0.56046 0.222392 0.123424 0.164975 0.042208
threshold=359.74500000000006 6.9900000000000011 17.500000000000004 6.0130000000000008 6.3110000000000008
decision_type=2 2 2 2 2
left_child=-1 2 -2 -4 -5
right_child=1 -3 3 4 -6
leaf_value=0.0177766493242234 0.0039229454684325243 0.0090939645469188691 -0.011573052179554235 0.0022707450762391094 -0.0039494352569514985
leaf_weight=20 22 20 23 20 24
leaf_count=20 22 20 23 20 24
internal_value=0 -0.00434566 -0.0257581 -0.0470973 -0.0112208
internal_weight=0 109 89 67 44
internal_count=129 109 89 67 44
shrinkage=0.1


Tree=96
num_leaves=6
num_cat=0
split_feature=0 12 0 12 7
split_gain=0.744914 0.229239 0.0617652 0.0589962 0.0386225
threshold=7.5990150000000005 5.6900000000000004 0.22325000000000003 9.6750000000000025 2.4313500000000006
decision_type=2 2 2 2 2
left_child=1 -1 3 -3 -4
right_child=-2 2 4 -5 -6
leaf_value=0.0085690302797593182 0.019890109822154046 -0.0041607880848459899 -0.0032090382407540864 0.003008463866585358 -0.0092176712956279529
leaf_weight=20 20 24 23 22 20
leaf_count=20 20 24 23 22 20
internal_value=0 -0.0110508 -0.0327903 -0.00732015 -0.0600375
internal_weight=0 109 89 46 43
internal_count=129 109 89 46 43
shrinkage=0.1


Tree=97
num_leaves=5
num_cat=0
split_feature=7 6 12 12
split_gain=0.615271 0.0953488 0.129615 0.130905
threshold=1.8286500000000003 92.65000000000002 12.085000000000003 7.6350000000000007
decision_type=2 2 2 2
left_child=-1 2 3 -2
right_child=1 -3 -4 -5
leaf_value=0.017165661467747253 0.0024083287215255428 -0.0074225666187703616 0.0068692899859425704 -0.0065680795582011347
leaf_weight=22 33 20 22 32
leaf_count=22 33 20 22 32
internal_value=0 -0.0119655 0.0023472 -0.0201083
internal_weight=0 107 87 65
internal_count=129 107 87 65
shrinkage=0.1


Tree=98
num_leaves=5
num_cat=0
split_feature=7 5 7 7
split_gain=0.646266 0.149418 0.102432 0.0341916
threshold=1.8625500000000004 6.4875000000000016 3.7781500000000006 4.4333500000000017
decision_type=2 2 2 2
left_child=-1 2 -2 -3
right_child=1 3 -4 -5
leaf_value=-0.01612074705772102 0.010163101400522625 -0.0043515380844473843 0.0024563859176955053 0.0014958213877253003
leaf_weight=20 34 20 35 20
leaf_count=20 34 20 35 20
internal_value=0 0.034349 0.062539 -0.0142786
internal_weight=0 109 69 40
internal_count=129 109 69 40
shrinkage=0.1


Tree=99
num_leaves=5
num_cat=0
split_feature=0 11 11 2
split_gain=0.480301 0.148752 0.0499351 0.0468879
threshold=7.5990150000000005 394.03500000000003 383.67000000000007 7.6250000000000009
decision_type=2 2 2 2
left_child=1 2 -1 -3
right_child=-2 3 -4 -5
leaf_value=0.0031153428762291488 -0.013474994170523825 0.0045629793760815157 -0.0026702422072412448 0.010951236817054451
leaf_weight=26 21 27 35 20
leaf_count=26 21 27 35 20
internal_value=0 0.0305339 -0.00204255 0.0728139
internal_weight=0 108 61 47
internal_count=129 108 61 47
shrinkage=0.1


Tree=100
num_leaves=5
num_cat=0
split_feature=11 5 5 7
split_gain=0.112787 0.175608 0.153812 0.140416
threshold=396.28000000000003 6.3665000000000012 6.7335000000000003 2.7012500000000004
decision_type=2 2 2 2
left_child=1 3 -3 -1
right_child=-2 2 -4 -5
leaf_value=-0.010948270217151099 -0.0079339696308791952 0.0085079447330477145 -0.0023694064566650644 -1.4052510960027577e-05
leaf_weight=23 30 26 26 24
leaf_count=23 30 26 26 24
internal_value=0 -0.00934803 0.0306927 -0.0536484
internal_weight=0 99 52 47
internal_count=129 99 52 47
shrinkage=0.1


Tree=101
num_leaves=5
num_cat=0
split_feature=12 5 6 12
split_gain=0.127365 0.145057 0.052572 0.04188
threshold=17.125000000000004 6.8530000000000006 79.050000000000026 9.0900000000000016
decision_type=2 2 2 2
left_child=1 2 3 -1
right_child=-2 -3 -4 -5
leaf_value=-0.002791205959637528 -0.0070795733386125326 -0.0068953839499348154 0.0060421062268964619 0.0034656882344279438
leaf_weight=23 39 24 23 20
leaf_count=23 39 24 23 20
internal_value=0 -0.0023783 0.021831 0.00118977
internal_weight=0 90 66 43
internal_count=129 90 66 43
shrinkage=0.1


Tree=102
num_leaves=6
num_cat=0
split_feature=0 5 6 12 12
split_gain=0.115031 0.17282 0.431695 0.0673346 0.0179585
threshold=9.2855950000000025 5.8200000000000012 86.200000000000003 9.0900000000000016 5.9350000000000014
decision_type=2 2 2 2 2
left_child=1 -1 3 4 -3
right_child=-2 2 -4 -5 -6
leaf_value=0.0076032021734863528 -0.00904689827002585 0.0015867651070584543 -0.013237845770048877 0.0063555812558413237 -0.0026509805128443987
leaf_weight=20 20 20 27 22 20
leaf_count=20 20 20 27 22 20
internal_value=0 -0.00796507 -0.0268408 0.0191191 -0.00532108
internal_weight=0 109 89 62 40
internal_count=129 109 89 62 40
shrinkage=0.1


Tree=103
num_leaves=5
num_cat=0
split_feature=4 5 6 7
split_gain=0.724388 0.554249 0.185648 0.208349
threshold=0.69650000000000001 5.8860000000000001 85.450000000000017 3.9611500000000004
decision_type=2 2 2 2
left_child=1 -1 3 -3
right_child=-2 2 -4 -5
leaf_value=-0.019095145991962891 0.014219106134513153 0.0095578380267224497 -0.0085547672786140967 -0.0029756469152440942
leaf_weight=23 23 21 26 36
leaf_count=23 23 21 26 36
internal_value=0 -0.0535869 -0.015522 0.0164195
internal_weight=0 106 83 57
internal_count=129 106 83 57
shrinkage=0.1


Tree=104
num_leaves=5
num_cat=0
split_feature=4 6 9 4
split_gain=0.324335 0.858463 0.0640168 0.0393347
threshold=0.67500000000000016 89.15000000000002 387.50000000000006 0.48600000000000004
decision_type=2 2 2 2
left_child=1 2 3 -1
right_child=-2 -3 -4 -5
leaf_value=-0.00057797261431594105 -0.0076816861033439645 0.020740124726524721 -0.0048124044601784346 0.0048486662605269392
leaf_weight=34 25 26 22 22
leaf_count=34 25 26 22 22
internal_value=0 0.0500375 -0.00241709 0.0155392
internal_weight=0 104 78 56
internal_count=129 104 78 56
shrinkage=0.1


Tree=105
num_leaves=5
num_cat=0
split_feature=5 5 11 4
split_gain=0.609031 0.283114 0.195523 0.123399
threshold=5.8900000000000015 6.5470000000000015 392.84000000000009 0.6070000000000001
decision_type=2 2 2 2
left_child=-1 3 -3 -2
right_child=1 2 -4 -5
leaf_value=0.015340682398527861 -0.0020107009518665797 0.010784328350564466 -0.002603316423483193 -0.011434605093866897
leaf_weight=28 33 24 20 24
leaf_count=28 33 24 20 24
internal_value=0 -0.0132699 0.0469904 -0.0597866
internal_weight=0 101 44 57
internal_count=129 101 44 57
shrinkage=0.1


Tree=106
num_leaves=6
num_cat=0
split_feature=0 12 0 7 12
split_gain=0.812904 0.195132 0.0442072 0.0380527 0.0276455
threshold=7.5990150000000005 5.6900000000000004 0.22325000000000003 2.4313500000000006 9.6750000000000025
decision_type=2 2 2 2 2
left_child=1 -1 4 -4 -3
right_child=-2 2 3 -5 -6
leaf_value=0.0075868239416740845 0.020593750281259419 -0.0035367219087978209 -0.0028754942321582984 -0.0088396352529525758 0.0013709363898008386
leaf_weight=20 20 24 23 20 22
leaf_count=20 20 24 23 20 22
internal_value=0 -0.0133865 -0.0334438 -0.0564951 -0.0118958
internal_weight=0 109 89 43 46
internal_count=129 109 89 43 46
shrinkage=0.1


Tree=107
num_leaves=5
num_cat=0
split_feature=7 5 5 5
split_gain=0.645222 0.0724676 0.158223 0.010738
threshold=1.8286500000000003 6.5470000000000015 6.1480000000000006 6.9720000000000004
decision_type=2 2 2 2
left_child=-1 2 -2 -3
right_child=1 3 -4 -5
leaf_value=0.017452521529048682 0.0015670109758502805 0.00036166447257115087 -0.0083016678987240244 0.0035632061865180733
leaf_weight=22 32 22 33 20
leaf_count=22 32 22 33 20
internal_value=0 -0.0135131 -0.0344324 0.0188621
internal_weight=0 107 65 42
internal_count=129 107 65 42
shrinkage=0.1


Tree=108
num_leaves=5
num_cat=0
split_feature=7 4 4 7
split_gain=0.582303 0.137853 0.130194 0.109508
threshold=1.8625500000000004 0.58450000000000013 0.49100000000000005 6.4726000000000008
decision_type=2 2 2 2
left_child=-1 2 3 -2
right_child=1 -3 -4 -5
leaf_value=-0.0155375921248924 0.0090772933881873123 0.010305017268373854 -0.0033349405210982594 -0.00010079003494376173
leaf_weight=20 26 21 36 26
leaf_count=20 26 21 36 26
internal_value=0 0.0302511 0.0128785 0.0448825
internal_weight=0 109 88 52
internal_count=129 109 88 52
shrinkage=0.1


Tree=109
num_leaves=5
num_cat=0
split_feature=0 11 2 0
split_gain=0.43329 0.136206 0.0443941 0.0388681
threshold=7.5990150000000005 394.03500000000003 8.3500000000000032 0.095580000000000012
decision_type=2 2 2 2
left_child=1 2 -1 -3
right_child=-2 3 -4 -5
leaf_value=-0.0027543421967753342 -0.013010611314149129 0.010075125930598006 0.002700809217416323 0.0042587972610447283
leaf_weight=35 21 20 26 27
leaf_count=35 21 20 26 27
internal_value=0 0.0268805 -0.00429196 0.0673383
internal_weight=0 108 61 47
internal_count=129 108 61 47
shrinkage=0.1


Tree=110
num_leaves=5
num_cat=0
split_feature=5 5 8 7
split_gain=0.125313 0.295062 0.368809 0.0519881
threshold=6.7540000000000004 6.3665000000000012 7.5000000000000009 3.9452000000000003
decision_type=2 2 2 2
left_child=1 2 3 -1
right_child=-2 -3 -4 -5
leaf_value=0.0041862315328961069 -0.0085871755000974607 0.0069829544225226969 -0.014461121365427971 -0.0026884952983395622
leaf_weight=22 29 31 25 22
leaf_count=22 29 31 25 22
internal_value=0 -0.0112106 -0.04762 0.00748868
internal_weight=0 100 69 44
internal_count=129 100 69 44
shrinkage=0.1


Tree=111
num_leaves=5
num_cat=0
split_feature=5 5 2 12
split_gain=0.101504 0.239 0.193412 0.0478911
threshold=6.7540000000000004 6.3665000000000012 12.380000000000001 17.620000000000005
decision_type=2 2 2 2
left_child=1 2 -1 -4
right_child=-2 -3 3 -5
leaf_value=0.0019321654040109497 -0.0077284579341910008 0.0062846590021264654 -0.0053336524870246649 -0.012253990974277259
leaf_weight=29 29 31 20 20
leaf_count=29 29 31 20 20
internal_value=0 -0.0100896 -0.042858 -0.0879382
internal_weight=0 100 69 40
internal_count=129 100 69 40
shrinkage=0.1


Tree=112
num_leaves=4
num_cat=0
split_feature=0 12 0
split_gain=0.102923 0.158689 0.05215
threshold=0.064415000000000014 17.125000000000004 0.16485500000000003
decision_type=2 2 2
left_child=-1 2 -2
right_child=1 -3 -4
leaf_value=-0.008331464334269581 -0.0012924758451325555 -0.0060232182057240076 0.004364094732759091
leaf_weight=23 28 39 39
leaf_count=23 28 39 39
internal_value=0 -0.00951841 0.0200015
internal_weight=0 106 67
internal_count=129 106 67
shrinkage=0.1


Tree=113
num_leaves=5
num_cat=0
split_feature=4 5 6 7
split_gain=0.722051 0.533885 0.197823 0.113915
threshold=0.69650000000000001 5.8860000000000001 86.200000000000003 3.9611500000000004
decision_type=2 2 2 2
left_child=1 -1 3 -3
right_child=-2 2 -4 -5
leaf_value=-0.019007549370112627 0.014020370416667149 0.0070222354578700942 -0.0094444576418027289 -0.0020644323648633185
leaf_weight=23 23 22 24 37
leaf_count=23 23 22 24 37
internal_value=0 -0.0552581 -0.017899 0.0132382
internal_weight=0 106 83 59
internal_count=129 106 83 59
shrinkage=0.1


Tree=114
num_leaves=4
num_cat=0
split_feature=9 9 4
split_gain=0.384133 0.109934 0.034207
threshold=453.00000000000006 387.50000000000006 0.48600000000000004
decision_type=2 2 2
left_child=1 2 -1
right_child=-2 -3 -4
leaf_value=-0.00081469799248118184 0.011130637753133972 -0.0060175792252024013 0.0038603869363151751
leaf_weight=34 36 30 29
leaf_count=34 36 30 29
internal_value=0 -0.0103522 0.0133733
internal_weight=0 93 63
internal_count=129 93 63
shrinkage=0.1


Tree=115
num_leaves=5
num_cat=0
split_feature=5 5 11 8
split_gain=0.600316 0.222571 0.0733315 0.0412315
threshold=5.8900000000000015 6.9900000000000011 394.17500000000007 5.5000000000000009
decision_type=2 2 2 2
left_child=-1 2 3 -2
right_child=1 -3 -4 -5
leaf_value=0.015080085736034171 0.0011140857530855491 0.0079792544338852158 -0.0076217967323534523 -0.0046709931201555513
leaf_weight=28 28 20 31 22
leaf_count=28 28 20 31 22
internal_value=0 -0.014679 -0.0380053 -0.0143135
internal_weight=0 101 81 50
internal_count=129 101 81 50
shrinkage=0.1


Tree=116
num_leaves=6
num_cat=0
split_feature=0 12 7 6 12
split_gain=0.77526 0.169857 0.0490552 0.0329453 0.067382
threshold=7.5990150000000005 5.6900000000000004 5.2132500000000013 77.950000000000003 14.780000000000003
decision_type=2 2 2 2 2
left_child=1 -1 3 -3 -5
right_child=-2 2 -4 4 -6
leaf_value=0.0069181857576404576 0.020009370986372232 -0.0072975769983949492 0.00094415813884032623 0.001355104329995811 -0.0067552403111698191
leaf_weight=20 20 27 21 20 21
leaf_count=20 20 27 21 20 21
internal_value=0 -0.0140919 -0.0328051 -0.0458518 -0.0279897
internal_weight=0 109 89 68 41
internal_count=129 109 89 68 41
shrinkage=0.1


Tree=117
num_leaves=6
num_cat=0
split_feature=7 6 5 5 1
split_gain=0.669322 0.0790434 0.0452696 0.0833394 0.0219196
threshold=1.8286500000000003 59.650000000000013 6.5470000000000015 6.1835000000000013 15.250000000000002
decision_type=2 2 2 2 2
left_child=-1 4 3 -3 -2
right_child=1 2 -4 -5 -6
leaf_value=0.01760595363395458 0.0041120113647775723 -0.0013953669750619503 -8.5730265293802545e-05 -0.010415073311887683 -0.00032957430183887487
leaf_weight=22 20 21 21 20 25
leaf_count=22 20 21 21 20 25
internal_value=0 -0.0154583 -0.0386136 -0.0579522 0.0164446
internal_weight=0 107 62 41 45
internal_count=129 107 62 41 45
shrinkage=0.1


Tree=118
num_leaves=5
num_cat=0
split_feature=4 7 4 7
split_gain=0.574855 0.301053 0.191361 0.0919944
threshold=0.6695000000000001 2.2595000000000005 0.49100000000000005 5.8010500000000009
decision_type=2 2 2 2
left_child=1 -1 3 -3
right_child=-2 2 -4 -5
leaf_value=0.014286906607449055 -0.014525003464553843 0.009251280714069372 -0.0050359163127307385 0.00078252840241224599
leaf_weight=20 22 23 35 29
leaf_count=20 22 23 35 29
internal_value=0 0.0322387 0.0068064 0.0452832
internal_weight=0 107 87 52
internal_count=129 107 87 52
shrinkage=0.1


Tree=119
num_leaves=5
num_cat=0
split_feature=0 11 2 2
split_gain=0.457127 0.116477 0.038586 0.0320129
threshold=7.5990150000000005 394.03500000000003 7.6250000000000009 8.3500000000000032
decision_type=2 2 2 2
left_child=1 3 -3 -1
right_child=-2 2 -4 -5
leaf_value=-0.0020549312766109194 -0.013322517311289198 0.0040774672313731303 0.0098726477939635529 0.0025774726447147824
leaf_weight=35 21 27 20 26
leaf_count=35 21 27 20 26
internal_value=0 0.0280219 0.065435 -0.00080464
internal_weight=0 108 47 61
internal_count=129 108 47 61
shrinkage=0.1


end of trees

feature importances:
RM=94
DIS=78
LSTAT=74
NOX=59
CRIM=49
AGE=40
B=37
RAD=23
INDUS=20
TAX=15
PTRATIO=9
ZN=5

parameters:
[boosting: gbdt]
[objective: regression]
[metric: l2]
[tree_learner: serial]
[device_type: cpu]
[data: ]
[valid: ]
[num_iterations: 100]
[learning_rate: 0.1]
[num_leaves: 512]
[num_threads: 12]
[max_depth: -1]
[min_data_in_leaf: 20]
[min_sum_hessian_in_leaf: 0.001]
[bagging_fraction: 0.4]
[pos_bagging_fraction: 1]
[neg_bagging_fraction: 1]
[bagging_freq: 4]
[bagging_seed: 29216]
[feature_fraction: 0.4]
[feature_fraction_bynode: 1]
[feature_fraction_seed: 17795]
[early_stopping_round: 0]
[first_metric_only: 0]
[max_delta_step: 0]
[lambda_l1: 0]
[lambda_l2: 0]
[min_gain_to_split: 0]
[drop_rate: 0.1]
[max_drop: 50]
[skip_drop: 0.5]
[xgboost_dart_mode: 0]
[uniform_drop: 0]
[drop_seed: 24198]
[top_rate: 0.2]
[other_rate: 0.1]
[min_data_per_group: 100]
[max_cat_threshold: 32]
[cat_l2: 10]
[cat_smooth: 10]
[max_cat_to_onehot: 4]
[top_k: 20]
[monotone_constraints: ]
[feature_contri: ]
[forcedsplits_filename: ]
[forcedbins_filename: ]
[refit_decay_rate: 0.9]
[cegb_tradeoff: 1]
[cegb_penalty_split: 0]
[cegb_penalty_feature_lazy: ]
[cegb_penalty_feature_coupled: ]
[verbosity: -1]
[max_bin: 255]
[max_bin_by_feature: ]
[min_data_in_bin: 3]
[bin_construct_sample_cnt: 200000]
[histogram_pool_size: -1]
[data_random_seed: 45]
[output_model: LightGBM_model.txt]
[snapshot_freq: -1]
[input_model: ]
[output_result: LightGBM_predict_result.txt]
[initscore_filename: ]
[valid_data_initscores: ]
[pre_partition: 0]
[enable_bundle: 1]
[max_conflict_rate: 0]
[is_enable_sparse: 1]
[sparse_threshold: 0.8]
[use_missing: 1]
[zero_as_missing: 0]
[two_round: 0]
[save_binary: 0]
[header: 0]
[label_column: ]
[weight_column: ]
[group_column: ]
[ignore_column: ]
[categorical_feature: ]
[predict_raw_score: 0]
[predict_leaf_index: 0]
[predict_contrib: 0]
[num_iteration_predict: -1]
[pred_early_stop: 0]
[pred_early_stop_freq: 10]
[pred_early_stop_margin: 10]
[convert_model_language: ]
[convert_model: gbdt_prediction.cpp]
[num_class: 1]
[is_unbalance: 0]
[scale_pos_weight: 1]
[sigmoid: 1]
[boost_from_average: 1]
[reg_sqrt: 0]
[alpha: 0.9]
[fair_c: 1]
[poisson_max_delta_step: 0.7]
[tweedie_variance_power: 1.5]
[max_position: 20]
[lambdamart_norm: 1]
[label_gain: ]
[metric_freq: 1]
[is_provide_training_metric: 0]
[eval_at: ]
[multi_error_top_k: 1]
[num_machines: 1]
[local_listen_port: 12400]
[time_out: 120]
[machine_list_filename: ]
[machines: ]
[gpu_platform_id: -1]
[gpu_device_id: -1]
[gpu_use_dp: 0]

end of parameters

pandas_categorical:[]
