tree
version=v3
num_class=1
num_tree_per_iteration=1
label_index=0
max_feature_idx=13
objective=binary sigmoid:1
feature_names=age workclass fnlwgt education education-num marital-status occupation relationship race sex capital-gain capital-loss hours-per-week native-country
feature_infos=[17:90] [0:7] [12285:1484705] [0:15] [1:16] [0:6] [0:13] [0:5] [0:4] [0:1] [0:99999] [0:4356] [1:99] [0:40]
tree_sizes=3369 3411 3417 3413 3423 3428 3434 3429 3427 3441 3427 3443 3414 3426 3439 3441 3442 3451 3446 3435 3436 3437 3438 3441 3449 3447 3450 3446 3441 3442 3432 3437 3452 3454 3448 3460 3461 3443 3448 3445 3451 3445 3449 3451 3460 3461 3450 3454 3456 3440 3458 3445 3457 3458 3460 3453 3458 3457 3444 3453 3479 3451 3438 3438 3474 3442 3462 3461 3439 3464 3469 3441 3435 3457 3461 3448 3474 3460 3451 3441 3469 3452 3437 3454 3489 3454 3466 3468 3446 3450 3493 3432 3445 3442 3466 3453 3474 3474 3461 3467 3481 3450 3436 3440 3472 3474 3456 3486 3458 3460 3459 3452 3435 3448 3472 3452 3443 3461 3446 3448 3484 3455 3433 3451 3454 3458 3438 3475 3446 3445 3473 3452 3419 3421 3488 3451 3441 3475 3442 3443 3458 3449 3430 3450 3468 3453 3453 3475 3452 3427 3472 3437 3424 3458 3466 3448 3450 3481 3437 3424 3465 3450 3432 3445 3471 3459 3474 3480 3423 3450 3471 3416 3441 3444 3464 3458 3454 3460 3436 3434 3464 3431 3436 3428 3472 3460 3455 3468 3442 3427 3459 3440 3434 3466 3473 3452 3442 3468 3427 3436 3474 3432 3430 3461 3471 3448 3451 3465 3442 3433

Tree=0
num_leaves=32
num_cat=0
split_feature=7 4 10 10 7 10 4 11 4 4 11 12 12 12 4 4 4 10 4 12 12 1 12 11 9 4 4 4 12 12 12
split_gain=1311.98 624.814 465.641 267.503 264.717 94.9595 80.1361 69.6583 63.2957 61.5934 54.6934 49.7665 46.0321 42.4132 21.3665 19.0874 17.7452 15.2783 13.7731 11.3055 11.174 9.75886 9.54355 9.28828 8.48346 8.88799 8.39481 8.18738 7.2015 5.98409 5.93373
threshold=1.0000000180025095e-35 11.500000000000002 7073.5000000000009 5036.5000000000009 4.5000000000000009 5036.5000000000009 8.5000000000000018 1789.0000000000002 12.500000000000002 10.500000000000002 1836.5000000000002 42.500000000000007 37.500000000000007 34.500000000000007 13.500000000000002 13.500000000000002 9.5000000000000018 3120.0000000000005 14.500000000000002 55.500000000000007 45.500000000000007 4.5000000000000009 43.500000000000007 1894.5000000000002 1.0000000180025095e-35 13.500000000000002 7.5000000000000009 12.500000000000002 41.500000000000007 54.500000000000007 59.500000000000007
decision_type=2 2 2 2 2 2 2 2 2 2 2 2 2 2 2 2 2 2 2 2 2 2 2 2 2 2 2 2 2 2 2
left_child=1 3 4 6 8 10 28 12 20 26 13 -10 -8 15 21 -3 19 -18 24 -14 -2 22 -15 -9 -13 -26 -6 -11 -1 -24 -31
right_child=2 5 -4 -5 9 -7 7 23 11 27 -12 18 16 14 -16 -17 17 -19 -20 -21 -22 -23 29 -25 25 -27 -28 -29 -30 30 -32
leaf_value=-1.1890898203054618 -1.2043341362775837 -1.1720716450071145 -0.9408478516108989 -0.94089593441489905 -1.1975215526123701 -0.93575107438688243 -1.1794204025223098 -0.93575107438688232 -1.186233969006717 -1.0777706480769258 -0.94699551073677446 -1.1594865258616582 -1.1329379650549483 -1.0563826311728215 -1.0030788722843844 -1.0448221069808357 -1.0996262711413443 -1.1965731088506837 -1.0550475162865187 -1.0919450288296795 -1.1842189640576872 -1.0859213366539195 -1.0088215373991714 -1.0315567111248143 -1.1288976946053413 -1.0448221069808357 -1.1252388852492587 -1.020208732368926 -1.152206474122305 -1.0915668352353871 -1.0248956683338635
leaf_weight=51.709422290325165 573.93791407346725 8.2515035569667798 19.620241791009903 19.43687504529953 4.5841686427593222 31.722447007894516 34.47294819355011 4.0340684056282026 110.3867809176445 8.8016037940979022 17.786574333906174 21.453909248113632 153.66133290529251 39.790583819150925 44.558119207620621 4.5841686427593222 111.67034813761711 4.2174351513385764 5.8677358627319327 18.886774808168411 78.480967164039612 12.65230545401573 28.055112093687057 6.7845695912837982 22.004009485244755 3.6673349142074576 32.455913990736008 20.720442265272141 17.786574333906174 5.134268879890441 9.5350707769393903
leaf_count=282 3130 45 107 106 25 173 188 22 602 48 97 117 838 217 243 25 609 23 32 103 428 69 153 37 120 20 177 113 97 28 52
internal_value=0 1.09962 -0.785757 0.408127 -0.892898 2.54597 0.233461 0.436896 -1.04935 1.02465 2.25014 -0.492732 0.353271 2.05667 2.21648 0.317038 0.483799 0.786457 0.303828 0.280526 -1.18874 1.9489 2.07429 2.93289 0.123935 0.511807 0.16585 2.10214 -0.743455 2.40249 1.88493
internal_weight=0 624.731 901.981 422.66 882.361 202.07 403.223 333.727 815.799 66.5621 170.348 163.38 322.909 152.561 139.725 12.8357 288.436 115.888 52.993 172.548 652.419 95.1673 82.515 10.8186 47.1253 25.6713 37.0401 29.522 69.496 42.7245 14.6693
internal_count=8326 3407 4919 2305 4812 1102 2199 1820 4449 363 929 891 1761 832 762 70 1573 632 289 941 3558 519 450 59 257 140 202 161 379 233 80
shrinkage=1


Tree=1
num_leaves=32
num_cat=0
split_feature=4 0 0 12 12 11 4 11 0 12 4 0 3 12 11 3 11 0 6 1 4 3 6 0 12 12 12 0 1 6 6
split_gain=810.653 279.828 257.874 111.381 94.0282 53.0038 41.5444 41.4332 40.9334 27.7462 27.0576 25.0052 22.0909 21.836 17.5449 15.5799 14.0556 13.226 14.4128 12.2745 11.7129 11.7038 10.404 10.1221 9.01512 8.45494 8.43291 8.28703 10.713 12.7547 8.28114
threshold=12.500000000000002 28.500000000000004 35.500000000000007 41.500000000000007 42.500000000000007 1881.5000000000002 7.5000000000000009 1836.5000000000002 27.500000000000004 38.500000000000007 10.500000000000002 42.500000000000007 9.5000000000000018 28.500000000000004 1789.0000000000002 9.5000000000000018 1881.5000000000002 46.500000000000007 1.5000000000000002 3.5000000000000004 8.5000000000000018 13.500000000000002 11.500000000000002 25.500000000000004 41.500000000000007 46.500000000000007 37.500000000000007 31.500000000000004 4.5000000000000009 3.5000000000000004 3.5000000000000004
decision_type=2 2 2 2 2 2 2 2 2 2 2 2 2 2 2 2 2 2 2 2 2 2 2 2 2 2 2 2 2 2 2
left_child=2 23 8 6 5 11 -4 10 -1 -8 20 21 16 -13 17 26 27 -11 -19 25 -5 -3 -20 -2 -25 -10 -15 -6 29 -29 -21
right_child=1 4 3 7 12 -7 9 -9 19 14 -12 13 -14 15 -16 -17 -18 18 22 30 -22 -23 -24 24 -26 -27 -28 28 -30 -31 -32
leaf_value=-0.058931712763591562 -0.055070506390768249 0.023257931327687817 -0.04722751341486861 -0.011523607375306073 0.046036573282630784 0.16515566840544629 -0.028048563761661895 0.17203216777675773 -0.040584770412933874 -0.0093905609605799134 0.086358011203663099 0.0037660815374855059 0.13160982884838587 0.0077585090404138956 0.083391586911163731 0.10157630096526252 0.16546554114000223 -0.023998530948029041 0.017026962154284394 0.023824683169700597 0.029619089412828887 0.10851437486895227 0.075214907070660433 -0.03335280267050663 0.026689572876566932 -0.014697916828627179 0.066256254604760215 0.12680306968549035 0.047553466523203497 0.081536080822194129 -0.028451823995571619
leaf_weight=310.15285056829453 33.156831592321396 75.618952080607414 72.22463071346283 20.321281477808952 10.605613052844999 10.263487860560415 98.971338108181953 5.4172396808862677 166.11467857658863 136.46523928642273 19.572633355855942 12.089547097682951 60.762297227978706 7.4145038872957221 6.6374051719903937 33.699149668216705 6.1829514503478995 20.435575470328331 81.266092613339424 15.583789482712747 116.31215880811214 4.2517505437135688 8.4839906394481641 20.118808716535572 9.0700809657573682 38.935325056314468 36.436591401696205 27.479111880064011 10.923287898302076 35.880305215716362 14.741970643401144
leaf_count=1735 183 405 404 112 56 52 550 28 919 749 104 65 310 40 35 176 31 113 443 85 630 22 46 111 48 212 194 142 58 187 81
internal_value=0 1.22036 -0.445204 0.0153391 1.58579 1.09642 -0.253652 0.721812 -0.940005 -0.111995 0.627522 0.962815 2.16522 1.32536 0.0634401 1.52023 1.85365 0.0202658 0.27797 -0.625566 0.47 0.555928 0.450548 -0.723355 -0.293908 -0.713386 1.1273 1.74763 1.86569 2.02337 -0.0317599
internal_weight=0 393.953 1131.64 586.108 331.608 179.774 424.484 161.623 545.529 352.26 156.206 169.51 151.834 89.6398 253.288 77.5502 91.0713 246.651 110.186 235.376 136.633 79.8707 89.7501 62.3457 29.1889 205.05 43.8511 84.8883 74.2827 63.3594 30.3258
internal_count=8326 2080 6246 3214 1738 954 2340 874 3032 1936 846 902 784 475 1386 410 474 1351 602 1297 742 427 489 342 159 1131 234 443 387 329 166
shrinkage=0.05


Tree=2
num_leaves=32
num_cat=0
split_feature=7 10 4 7 10 10 3 4 4 0 0 0 3 0 0 0 13 0 3 4 4 3 8 0 0 0 0 0 3 0 0
split_gain=1242.97 415.962 376.278 233.42 225.952 82.7575 57.2776 46.4309 37.4749 33.6994 26.1282 25.9418 23.6275 18.8399 16.3624 15.1554 14.8337 15.8352 12.0857 11.8913 10.5555 9.03731 8.83244 8.08495 7.44917 7.14437 5.84829 15.8229 5.83958 5.74873 8.7723
threshold=1.0000000180025095e-35 7073.5000000000009 10.500000000000002 4.5000000000000009 5036.5000000000009 5036.5000000000009 14.500000000000002 11.500000000000002 12.500000000000002 35.500000000000007 30.500000000000004 28.500000000000004 10.500000000000002 34.500000000000007 29.500000000000004 63.500000000000007 37.500000000000007 62.500000000000007 9.5000000000000018 7.5000000000000009 14.500000000000002 1.0000000180025095e-35 3.5000000000000004 51.500000000000007 34.500000000000007 27.500000000000004 46.500000000000007 50.500000000000007 8.5000000000000018 39.500000000000007 59.500000000000007
decision_type=2 2 2 2 2 2 2 2 2 2 2 2 2 2 2 2 2 2 2 2 2 2 2 2 2 2 2 2 2 2 2
left_child=2 3 4 8 6 11 9 13 24 25 -10 -4 21 -5 -8 18 -14 26 28 -15 -12 23 -21 -11 -2 -1 -18 -28 -13 -16 -31
right_child=1 -3 5 7 -6 -7 14 -9 10 12 20 15 16 19 29 -17 17 -19 -20 22 -22 -23 -24 -25 -26 -27 27 -29 -30 30 -32
leaf_value=-0.051640088965380554 -0.06158893724760825 0.16392825675741776 0.013699952029358808 -0.028573227164924227 0.17333610656902387 0.16552856676491548 -0.0079114843405287561 0.095588862900337024 -0.054192050036864219 0.083629514161653984 -0.018251924598591773 0.069938825265270899 -0.042112921756168951 -0.050450190154178037 0.033165925656309901 0.026414163278936306 0.022071158921404287 -0.023165088162779245 0.11189701328537349 -0.014187901900510844 0.037553433204348084 -0.028746476855154548 0.060489981735810119 -0.014116967331802907 -0.05041661200312153 -0.017893644288212242 0.087527529113173935 0.027814232154308539 0.092686081895234362 0.066782041416938359 0.017376339692898313
leaf_weight=22.38840439915657 353.59976550936699 24.98118232190609 11.146553277969359 17.642391487956047 23.461952120065689 40.720627501606941 13.831410825252531 25.871293261647224 63.521972894668579 3.7043706178665143 83.704779237508774 39.677914753556252 8.3050111234188062 3.5071735531091717 33.124496608972549 8.4740055352449399 57.605390921235085 14.043467313051222 67.933389157056808 4.8048745244741466 9.4280376434326154 38.792264938354492 22.503636091947556 4.932227686047554 258.09910164773464 52.370882958173752 15.559075325727461 38.657019644975662 97.65088164806366 54.993150934576988 10.739138439297674
leaf_count=126 2047 122 59 98 116 194 76 131 356 21 448 208 45 20 178 44 310 77 329 26 48 220 122 28 1458 289 83 207 490 292 58
internal_value=0 -0.742828 1.0796 -0.862041 0.457587 1.9988 0.266283 0.830101 -1.02574 0.00508621 -0.589335 1.76127 0.237715 0.252604 0.860488 1.83884 0.452175 0.537586 1.89294 0.724395 -0.252053 -0.368963 0.947011 0.55616 -1.1375 -0.559996 0.663286 0.899018 1.72228 1.00302 1.17421
internal_weight=0 867.664 658.112 842.683 392.508 265.603 369.046 74.3294 768.354 256.358 156.655 224.883 181.599 48.4581 112.688 213.736 134.17 125.865 205.262 30.8157 93.1328 47.4289 27.3085 8.6366 611.699 74.7593 111.821 54.2161 137.329 98.8568 65.7323
internal_count=8326 4876 3450 4754 2126 1324 2010 397 4357 1406 852 1130 991 266 604 1071 722 677 1027 168 496 269 148 49 3505 415 600 290 698 528 350
shrinkage=0.05


Tree=3
num_leaves=32
num_cat=0
split_feature=7 10 10 7 11 3 3 3 11 3 10 11 7 3 2 3 13 2 3 3 2 2 9 2 3 2 2 2 3 3 5
split_gain=1115.23 367.307 303.127 217.331 153.965 94.6011 68.2178 88.3554 48.063 41.843 18.9603 15.1248 14.7743 13.4877 10.2727 9.7598 8.9532 8.84735 7.35784 12.1175 6.53617 6.48703 6.30098 5.5225 5.51541 5.10334 4.50006 3.96262 3.94118 5.35217 7.35717
threshold=1.0000000180025095e-35 4668.5000000000009 5036.5000000000009 4.5000000000000009 1789.0000000000002 6.5000000000000009 10.500000000000002 11.500000000000002 2218.5000000000005 14.500000000000002 7073.5000000000009 2001.5000000000002 1.5000000000000002 6.5000000000000009 116500.50000000001 10.500000000000002 37.500000000000007 116500.50000000001 11.500000000000002 14.500000000000002 138499.50000000003 132722.00000000003 1.0000000180025095e-35 146179.50000000003 8.5000000000000018 191110.00000000003 203088.00000000003 257019.50000000003 6.5000000000000009 9.5000000000000018 4.5000000000000009
decision_type=2 2 2 2 2 2 2 2 2 2 2 2 2 2 2 2 2 2 2 2 2 2 2 2 2 2 2 2 2 2 2
left_child=2 3 4 8 5 23 17 16 12 -9 -3 -6 22 -5 -11 -15 -8 -7 -17 -20 -16 -19 -2 -1 -23 -22 -27 -21 -24 -30 -31
right_child=1 10 -4 13 11 6 7 9 -10 14 -12 -13 -14 15 20 18 -18 21 19 27 25 24 28 -25 -26 26 -28 -29 29 30 -32
leaf_value=-0.0050245471305029772 -0.051958192719745666 0.050393091640722587 0.1498318385035998 -0.032136565802386503 0.15314674261610625 0.046743038261623196 -0.041354847781279 0.089694162613583109 0.10366292894093676 0.011773764349748028 0.14583625530526176 0.073895924323874582 -0.058677765375814234 0.072040532361671628 0.090905083395825745 0.012988931608315692 0.006351618670314284 0.11167095461307211 0.10319652675267021 0.042049049349509982 0.023637250643372704 0.051870671936143642 -0.057444613499015723 -0.037478456157258741 0.077488515967651259 0.084745308647694806 0.043922595688178141 -0.016511015768567075 -0.022530947253903085 -0.045199109465051929 0.0048205129189683822
leaf_weight=19.330640599131584 155.69185657799244 6.4672490656375876 68.401392430067062 6.2143601626157752 29.791958048939705 39.876829296350479 10.413127988576887 54.543295949697495 4.9935642629861823 31.010158196091652 26.629069447517395 7.5450599938631049 388.80509021878242 22.222966015338898 7.2642856985330573 24.598163768649101 177.06749926507473 10.434586301445959 7.7296004593372354 10.155669450759886 26.416341349482536 29.170821964740753 23.824926152825356 40.721598699688911 75.104161366820335 8.2164513319730741 37.844899386167526 4.0372132956981668 52.778773799538612 107.05545938014984 7.8934379965066901
leaf_count=111 898 36 310 36 138 197 58 255 27 163 122 36 2296 110 38 133 960 51 37 55 139 150 141 234 367 43 200 22 297 621 45
internal_value=0 -0.722093 1.00132 -0.854552 0.77564 0.646208 0.786684 0.543953 -1.01869 1.07694 2.54372 2.74263 -1.03966 0.768109 0.723856 0.895648 0.0740377 1.34061 0.635223 1.05649 0.913778 1.48167 -0.889748 -0.540633 1.40644 0.823139 1.02409 0.507829 -0.768304 -0.714243 -0.835286
internal_weight=0 849.097 673.153 816.001 604.752 567.415 507.362 352.776 741.043 165.295 33.0963 37.337 736.05 74.958 110.752 68.7436 187.481 154.586 46.5206 21.9225 79.742 114.71 347.244 60.0522 104.275 72.4777 46.0614 14.1929 191.553 167.728 114.949
internal_count=8326 4876 3450 4718 3140 2966 2621 1856 4325 838 158 174 4298 393 583 357 1018 765 247 114 420 568 2002 345 517 382 243 77 1104 963 666
shrinkage=0.05


Tree=4
num_leaves=32
num_cat=0
split_feature=5 4 10 5 10 5 4 11 12 10 4 11 11 12 1 12 12 12 1 1 12 13 11 4 10 10 12 4 4 12 1
split_gain=790.442 442.01 235.771 188.469 136.097 111.263 80.1704 69.3956 37.7503 36.7165 33.4291 23.7463 22.7893 16.8895 15.7758 13.4901 13.1984 12.3611 21.0596 13.096 11.0755 9.47796 8.14925 8.02929 6.75467 6.52053 6.33425 6.04004 5.42621 5.38965 4.83421
threshold=2.5000000000000004 12.500000000000002 5036.5000000000009 1.5000000000000002 7792.0000000000009 1.5000000000000002 7.5000000000000009 1789.0000000000002 35.500000000000007 5036.5000000000009 13.500000000000002 1789.0000000000002 2001.5000000000002 44.500000000000007 1.0000000180025095e-35 28.500000000000004 44.500000000000007 43.500000000000007 4.5000000000000009 3.5000000000000004 49.500000000000007 18.500000000000004 1521.5000000000002 11.500000000000002 3120.0000000000005 2985.0000000000005 41.500000000000007 13.500000000000002 10.500000000000002 71.000000000000014 5.5000000000000009
decision_type=2 2 2 2 2 2 2 2 2 2 2 2 2 2 2 2 2 2 2 2 2 2 2 2 2 2 2 2 2 2 2
left_child=1 2 3 26 10 13 -5 8 -8 11 16 15 -9 -3 -10 -7 -2 24 19 29 -12 -17 23 -18 28 27 -1 30 -16 -19 -23
right_child=4 5 -4 6 -6 9 7 12 14 -11 20 -13 -14 -15 17 21 22 18 -20 -21 -22 25 -24 -25 -26 -27 -28 -29 -30 -31 -32
leaf_value=-0.057143224459511144 -0.057822749985388416 -0.024040385278970705 0.13463346337405355 -0.03972334114108983 0.14061495898695361 0.024153623981688684 -0.025257883333057531 0.14794259177102254 0.072105832001672851 0.13388326050662813 -0.019166125532177211 0.13070785670426674 0.027989544753966894 0.041825923049278332 0.010017873699252687 0.030177649025474918 -0.050032207438207126 0.032428262862691813 -0.010308305116335764 0.090476874173048394 0.048455505914706057 0.07473186584507098 0.032765548004268931 -0.015526980552013916 -0.040850638427832493 0.030183329613241511 -0.033008058584038401 0.097381981924219527 0.03410501858299244 0.09116532344079914 0.12323946925692067
leaf_weight=115.32735911011696 433.82813484966755 25.197841167449951 32.857550710439682 63.255391776561737 9.3895066827535612 11.708582013845442 48.202621147036552 13.721731260418894 15.015302285552023 40.31808215379715 20.625429317355159 22.272097140550613 5.5656087994575492 15.857649594545363 164.94174773991108 9.2207289189100248 56.412459999322891 90.909935355186462 24.413052707910538 11.955897226929663 8.5717099308967573 102.63698180019855 4.073873132467269 24.046099483966827 5.9069628417491904 5.812577858567237 35.569990590214729 56.093106776475906 27.242967024445534 4.0808097869157782 5.4068154096603385
leaf_count=698 2652 140 145 368 41 58 266 63 78 173 116 97 27 82 883 43 340 474 127 61 44 486 23 134 32 27 209 254 138 21 26
internal_value=0 0.536768 0.0815846 -0.0554423 -0.962645 1.55519 0.253724 0.414672 0.323709 1.80256 -1.02738 1.63703 2.26657 0.0280084 0.439696 1.52301 -1.08602 0.394009 0.631876 0.823179 0.0137253 1.59097 -0.724532 -0.794397 0.236273 1.64455 -1.02908 1.68141 0.268646 0.699032 1.54319
internal_weight=0 953.491 658.967 626.109 556.947 294.524 475.212 411.957 392.669 253.469 547.558 213.151 19.2873 41.0555 344.467 190.879 518.361 329.451 131.36 106.947 29.1971 179.17 84.5324 80.4586 198.092 169.949 150.897 164.137 192.185 94.9907 108.044
internal_count=8326 4976 3590 3445 3350 1386 2538 2170 2080 1164 3309 991 90 222 1814 894 3149 1736 683 556 160 836 497 474 1053 793 907 766 1021 495 512
shrinkage=0.05


Tree=5
num_leaves=32
num_cat=0
split_feature=7 7 10 10 3 0 12 12 3 0 3 3 3 3 10 0 3 0 0 0 0 12 7 12 10 0 0 3 12 0 9
split_gain=837.479 254.425 201.849 192.138 115.467 88.0795 54.1387 47.3119 30.5143 29.5048 27.4258 23.8099 21.2147 19.3562 19.2661 19.1784 16.5189 14.0256 13.2718 11.3569 11.0057 8.18219 8.06002 7.34434 7.04288 6.9434 6.40543 6.20937 5.94419 7.67957 5.84067
threshold=1.0000000180025095e-35 4.5000000000000009 5036.5000000000009 7073.5000000000009 6.5000000000000009 35.500000000000007 34.500000000000007 43.500000000000007 10.500000000000002 41.500000000000007 10.500000000000002 11.500000000000002 11.500000000000002 14.500000000000002 5036.5000000000009 29.500000000000004 8.5000000000000018 26.500000000000004 59.500000000000007 56.500000000000007 33.500000000000007 54.500000000000007 2.5000000000000004 29.500000000000004 1162.0000000000002 27.500000000000004 33.500000000000007 6.5000000000000009 42.500000000000007 50.500000000000007 1.0000000180025095e-35
decision_type=2 2 2 2 2 2 2 2 2 2 2 2 2 2 2 2 2 2 2 2 2 2 2 2 2 2 2 2 2 2 2
left_child=2 3 4 7 -1 8 12 20 16 22 28 24 -7 -13 17 -10 -6 -3 19 -15 -2 27 25 -19 -12 -9 -17 -11 -8 -30 -29
right_child=1 14 -4 -5 5 6 10 9 15 21 11 13 -14 18 -16 26 -18 23 -20 -21 -22 -23 -24 -25 -26 -27 -28 30 29 -31 -32
leaf_value=-0.035959856272740266 -0.060238122252804352 -0.0275400298926269 0.12430104851492257 0.12709722592440728 -0.0054565051656465151 -0.043256942949215831 0.064845595685281698 -0.049783418676562108 -0.033592208015149415 -0.062935905557635841 0.033329181473022725 0.088113434057537215 0.044301972100626752 0.048293624067579297 0.13172309246120512 0.020566967379656374 0.055109737045298715 0.019083136497891243 -0.018500470866952626 0.13067636906397079 -0.046382177009646641 0.046622144378109243 -0.057090493479052346 0.058312291965984968 -0.031839693442086973 -0.016382699447679273 -0.012328297052430668 -0.020051549898366453 0.077525463107471965 0.11985293507902142 0.02832607488630012
leaf_weight=57.543793559074402 321.77204486727715 6.5208510607480994 64.726934641599655 16.075090959668159 15.718141630291937 19.819362193346027 59.476057440042496 22.881144300103188 43.083280250430107 3.5916869938373592 113.90637758374214 45.845154315233231 10.627432852983473 64.415738791227341 6.5866315960884085 43.296538308262825 39.674654930830002 15.508258372545241 7.0248446911573401 4.4739464968442908 258.40293101966381 12.780494943261145 32.529875308275223 51.722695767879486 4.3024051636457434 48.627320051193237 22.483400762081146 11.034098923206329 47.879867240786552 13.805872216820715 14.356563180685043
leaf_count=341 2053 36 271 68 79 109 278 141 236 22 590 201 55 320 28 226 184 81 36 22 1582 69 198 258 23 280 118 62 217 62 80
internal_value=0 -0.694628 0.806498 -0.877643 0.629265 0.768868 1.02669 -0.953362 0.154238 -0.444122 1.13465 0.938835 -0.253891 1.2492 0.995798 -0.153214 0.758472 0.849452 0.939358 1.07288 -1.08134 0.265893 -0.729134 0.985265 0.619145 -0.541404 0.186469 -0.028039 1.52248 1.73998 0.146049
internal_weight=0 822.39 678.104 742.051 613.377 555.833 391.577 725.976 164.256 145.801 361.13 239.968 30.4468 121.76 80.3384 108.863 55.3928 73.7518 75.9145 68.8897 580.175 41.7628 104.038 67.231 118.209 71.5085 65.7799 28.9823 121.162 61.6857 25.3907
internal_count=8326 4958 3368 4555 3097 2756 1913 4487 843 852 1749 1192 164 579 403 580 263 375 378 342 3635 233 619 339 613 421 344 164 557 279 142
shrinkage=0.05


Tree=6
num_leaves=32
num_cat=0
split_feature=10 4 0 0 9 11 4 11 9 0 6 6 6 11 0 0 4 0 0 6 0 11 11 0 0 4 10 4 8 6 6
split_gain=472.43 339.5 167.234 102.825 85.7889 59.2384 55.6786 47.8049 40.9154 19.2971 17.7781 29.7488 27.0013 14.219 12.3512 14.1448 10.6032 10.3896 10.381 13.2082 9.90357 9.89824 7.36062 6.94583 8.22785 6.67462 6.31586 6.40186 5.15866 6.11622 8.99536
threshold=5036.5000000000009 12.500000000000002 32.500000000000007 28.500000000000004 1.0000000180025095e-35 1881.5000000000002 8.5000000000000018 1836.5000000000002 1.0000000180025095e-35 24.500000000000004 3.5000000000000004 8.5000000000000018 2.5000000000000004 1409.5000000000002 34.500000000000007 62.500000000000007 9.5000000000000018 24.500000000000004 58.500000000000007 12.500000000000002 46.500000000000007 1978.5000000000002 1836.5000000000002 40.500000000000007 61.500000000000007 10.500000000000002 2189.0000000000005 13.500000000000002 3.5000000000000004 2.5000000000000004 3.5000000000000004
decision_type=2 2 2 2 2 2 2 2 2 2 2 2 2 2 2 2 2 2 2 2 2 2 2 2 2 2 2 2 2 2 2
left_child=1 2 9 17 22 8 -6 10 -5 -1 12 -12 23 -11 -10 26 -14 -3 19 -13 -21 -9 25 -8 -25 -4 27 28 -16 -30 -31
right_child=-2 3 4 5 6 -7 7 21 14 13 11 18 16 -15 15 -17 -18 -19 -20 20 -22 -23 -24 24 -26 -27 -28 -29 29 30 -32
leaf_value=-0.059693795713971112 0.11074964981447195 -0.062686563968878103 -0.041044450116000997 0.0048999356367834907 -0.037535838570664046 0.12062315867911616 -0.0076400912832751845 0.12006688748583172 0.025132312788490613 -0.040353318385483276 -0.024431972499888915 0.032830921317009383 0.024682547262387888 0.028489470552525754 0.012482232626783815 3.9619859564328753e-05 0.073948882544507419 -0.015749851895123797 -0.016989978108981875 -0.025214081952850166 0.030450112103568728 0.034633487497874642 0.024810664581734077 0.023113879560983989 -0.044340102424013199 -0.013412506590231875 -0.0015297452690053975 0.072598386012716051 0.020251424887266001 0.086303436293512781 0.049053697723022253
leaf_weight=197.88257232308388 88.214051902294159 17.460136666893959 158.25973922014236 71.55066105723381 66.807472050189972 23.268005922436714 44.198621109127998 11.687821686267855 44.865802079439163 191.87932997941971 83.560077205300331 70.972567364573479 18.576273009181023 7.8056406378746024 7.6388023644685736 11.117595687508581 26.502962082624435 36.305116653442383 22.388024881482124 21.888402298092842 12.584852918982504 4.7756157517433158 4.9088370501995078 60.172012478113174 4.8879974931478491 25.356152668595314 4.2862856388092032 61.299310356378555 10.891720399260519 23.201887667179108 53.762087091803551
leaf_count=1309 366 110 975 386 410 98 242 50 219 1179 461 374 100 43 37 54 134 211 123 120 64 24 27 320 28 150 21 274 54 106 257
internal_value=0 -0.170958 -0.463564 0.657365 -0.146148 0.877543 0.0915499 0.238778 0.753798 -0.972562 0.163741 -0.024646 0.421772 -0.753245 0.96997 1.09173 1.07294 -0.619849 0.278649 0.409956 -0.0978647 1.9057 -0.712265 0.153103 0.36092 -0.744573 1.16703 1.19976 1.03787 1.10641 1.20566
internal_weight=0 1400.74 1035.09 365.647 637.527 311.882 449.003 382.195 288.614 397.568 365.732 211.394 154.338 199.685 217.063 172.198 45.0792 53.7653 127.834 105.446 34.4733 16.4634 188.525 109.259 65.06 183.616 161.08 156.794 95.4945 87.8557 76.964
internal_count=8326 7960 6133 1827 3602 1506 2450 2040 1408 2531 1966 1142 824 1222 1022 803 234 321 681 558 184 74 1152 590 348 1125 749 728 454 417 363
shrinkage=0.05


Tree=7
num_leaves=32
num_cat=0
split_feature=5 5 10 3 10 11 10 3 3 3 3 6 6 11 6 11 6 13 11 6 9 9 6 6 9 3 6 6 6 6 6
split_gain=653.196 324.274 156.183 126.78 109.284 92.5699 59.4838 40.4415 44.7101 28.8334 13.0598 12.2319 18.378 11.1815 9.01155 8.92753 7.82938 6.85338 6.77329 6.6981 6.01755 5.86901 5.34856 4.56134 3.77606 3.43821 3.3293 3.28627 3.15678 11.0281 7.36617
threshold=2.5000000000000004 1.0000000180025095e-35 5036.5000000000009 6.5000000000000009 4668.5000000000009 1789.0000000000002 7364.0000000000009 10.500000000000002 11.500000000000002 14.500000000000002 8.5000000000000018 3.5000000000000004 8.5000000000000018 1990.5000000000002 3.5000000000000004 2001.5000000000002 2.5000000000000004 37.500000000000007 1748.0000000000002 8.5000000000000018 1.0000000180025095e-35 1.0000000180025095e-35 2.5000000000000004 5.5000000000000009 1.0000000180025095e-35 1.0000000180025095e-35 1.5000000000000002 7.5000000000000009 3.5000000000000004 2.5000000000000004 6.5000000000000009
decision_type=2 2 2 2 2 2 2 2 2 2 2 2 2 2 2 2 2 2 2 2 2 2 2 2 2 2 2 2 2 2 2
left_child=1 6 3 25 13 7 18 10 14 17 20 16 -13 19 22 -7 -11 -10 26 -2 -5 -12 24 -16 -9 -3 -1 -6 29 -22 -30
right_child=4 2 -4 5 27 15 -8 8 9 11 21 12 -14 -15 23 -17 -18 -19 -20 -21 28 -23 -24 -25 -26 -27 -28 -29 30 -31 -32
leaf_value=-0.05856811599192039 -0.056454741256182807 -0.015300271423541137 0.10887498046934724 0.065381918833046476 0.05756947774168656 0.11808804408214904 0.10806882471222974 0.044726190745744937 0.021262417095637573 0.028919775458314041 0.087698138362933609 -0.022469567729255666 0.03040835340580185 0.031035833712440588 -0.024858404325608738 0.057604562283212563 0.066919842189490764 0.073045121317512854 0.016932215363143596 -0.044490819049609727 0.013968718616494603 0.055179541991115993 0.042169849370694248 0.0022510610959026837 0.0084213308950510917 -0.042799905991792737 -0.040274942228345781 0.10706636825947242 -0.041021671923705219 0.097812597411842672 0.024585428132104785
leaf_weight=29.981464192271233 300.89005644619465 14.681004315614699 68.756775483489037 9.9946964681148511 5.3282154798507682 35.463783785700798 6.8729816526174536 8.0999397635459882 7.1866302639245978 33.809229284524918 15.684787169098852 24.251597911119461 50.961500629782677 4.1075346767902365 18.151473730802536 7.3685972690582267 22.626531511545181 57.615684479475021 4.7796113640069953 191.41151778399944 13.642693027853968 120.27010501921177 19.610835641622543 106.88252322375774 61.868130907416344 50.341555550694466 145.95215293765068 9.0478361845016462 5.346147999167445 5.5042694807052603 21.421341702342033
leaf_count=194 2001 90 278 50 24 147 28 44 33 172 71 126 260 23 99 33 112 246 26 1234 67 538 103 578 332 313 909 39 27 25 104
internal_value=0 0.454292 0.738343 0.599128 -0.943637 0.733143 -0.726118 0.632228 0.45529 0.799995 1.01132 0.531209 0.26717 -1.02235 0.139755 2.15366 0.883099 1.34605 -0.835937 -1.03606 0.604472 1.17862 0.381848 -0.0336897 0.252484 -0.731819 -0.867847 1.77443 0.451406 0.761434 0.22964
internal_weight=0 967.126 779.54 710.783 510.785 645.76 187.586 602.928 411.064 196.451 191.864 131.649 75.2131 496.409 214.613 42.8324 56.4358 64.8023 180.713 492.302 55.9091 135.955 89.5789 125.034 69.9681 65.0226 175.934 14.3761 45.9145 19.147 26.7675
internal_count=8326 5005 3848 3570 3321 3167 1157 2987 2105 949 882 670 386 3258 1156 180 284 279 1129 3235 273 609 479 677 376 403 1103 63 223 92 131
shrinkage=0.05


Tree=8
num_leaves=32
num_cat=0
split_feature=7 7 3 12 12 11 11 3 3 11 3 3 11 2 1 3 3 3 1 12 1 3 1 6 2 3 12 2 1 2 6
split_gain=670.793 224.859 85.7065 58.8068 44.9654 36.7015 34.2113 30.426 37.2648 24.9052 18.3296 17.4299 17.3471 13.6753 13.1961 12.9223 12.6775 12.4982 11.3812 11.419 9.31167 8.35995 8.25856 8.23434 7.19244 6.7871 6.56403 6.42089 6.12687 6.10326 10.0535
threshold=1.0000000180025095e-35 4.5000000000000009 6.5000000000000009 44.500000000000007 34.500000000000007 1789.0000000000002 1521.5000000000002 10.500000000000002 11.500000000000002 2190.0000000000005 14.500000000000002 8.5000000000000018 2001.5000000000002 159734.50000000003 1.0000000180025095e-35 6.5000000000000009 10.500000000000002 11.500000000000002 1.0000000180025095e-35 40.500000000000007 4.5000000000000009 12.500000000000002 4.5000000000000009 8.5000000000000018 198351.50000000003 11.500000000000002 47.500000000000007 174528.50000000003 4.5000000000000009 182337.00000000003 4.5000000000000009
decision_type=2 2 2 2 2 2 2 2 2 2 2 2 2 2 2 2 2 2 2 2 2 2 2 2 2 2 2 2 2 2 2
left_child=2 3 24 9 25 6 7 11 18 23 -10 -6 -7 28 -5 -3 -17 -18 -9 20 29 -19 -13 -2 -1 -4 -24 -15 -12 -20 -31
right_child=1 15 4 14 5 12 -8 8 10 -11 13 22 -14 27 -16 16 17 21 19 -21 -22 -23 26 -25 -26 -27 -28 -29 -30 30 -32
leaf_value=-0.0082469797606514305 -0.055430848686594564 -0.028227272561718659 -0.028858328467115946 0.067131457603793673 0.033145969844153279 0.10704498130107742 -0.070289365984589278 0.082475811017292344 0.069348814334109249 0.077523547551829594 0.025961568016450116 0.073370801046816661 0.028617146984267341 0.094539311001128348 -0.017076774674164519 0.074695624923854134 0.0064852492320622099 0.095230172594765322 -0.002989014049727845 0.030465570724144655 -0.03681659008363139 0.036789091763626408 0.062851746164860375 -0.042383409910823282 -0.044557069323490656 0.013166971590572858 0.0061651545139386511 0.046641552241368824 -0.019639850871947376 0.048535073166565801 0.0026141754212976962
leaf_weight=30.674653589725494 332.84166887402534 5.8014133274555197 22.923291608691216 4.8048440217971793 48.971568167209625 31.748924508690834 6.8783122301101676 6.5943999737501136 71.472766205668449 3.8151919543743125 44.108484268188477 112.78978569805622 9.0633299350738508 7.9012617468833914 146.61465956270695 30.122795686125755 22.964311882853508 9.235153868794443 45.058741003274918 75.347664073109627 11.8320415019989 18.137841328978539 12.253871574997904 189.92938910424709 24.556438788771629 16.538902565836906 8.755804628133772 61.130178555846214 8.8424743115901929 21.078071862459183 27.429113209247589
leaf_count=190 2288 36 124 26 230 129 34 33 297 21 214 484 39 39 876 134 122 39 241 387 64 92 53 1257 156 83 38 299 44 109 148
internal_value=0 -0.643832 0.708164 -0.837307 0.809676 0.876467 0.810925 0.83798 0.677005 -0.995232 0.984848 1.17336 1.79256 0.749231 -0.288094 0.876857 0.980787 0.673723 0.359114 0.312034 0.0995149 1.13012 1.36019 -1.01381 -0.487818 -0.224904 0.784551 1.04248 0.366928 0.205213 0.451368
internal_weight=0 764.267 705.95 678.006 650.719 611.257 570.445 563.566 380.795 526.586 193.455 182.771 40.8123 121.982 151.42 86.2615 80.4601 50.3373 187.34 180.746 105.398 27.373 133.799 522.771 55.2311 39.4622 21.0097 69.0314 52.951 93.5659 48.5072
internal_count=8326 4891 3435 4468 3089 2882 2714 2680 1875 3566 893 805 168 596 902 423 387 253 982 949 562 131 575 3545 346 207 91 338 258 498 257
shrinkage=0.05


Tree=9
num_leaves=32
num_cat=0
split_feature=7 7 0 12 12 11 11 0 11 12 0 11 0 2 0 1 1 1 11 12 2 0 0 13 0 2 12 2 2 2 12
split_gain=609.523 207.423 100.321 57.0282 44.8725 31.5481 32.7699 31.3898 22.882 22.6548 20.4704 15.1353 14.1793 13.9156 11.903 10.8929 9.21907 8.98204 8.09787 7.9216 8.56079 7.08098 6.9036 7.66698 6.63283 6.46663 5.80849 5.7099 5.58496 7.73591 5.0835
threshold=1.0000000180025095e-35 4.5000000000000009 29.500000000000004 44.500000000000007 34.500000000000007 1789.0000000000002 1521.5000000000002 38.500000000000007 2190.0000000000005 41.500000000000007 27.500000000000004 2001.5000000000002 26.500000000000004 51214.500000000007 35.500000000000007 1.0000000180025095e-35 4.5000000000000009 1.0000000180025095e-35 1836.5000000000002 40.500000000000007 173952.00000000003 27.500000000000004 54.500000000000007 34.500000000000007 47.500000000000007 224127.50000000003 43.500000000000007 375677.50000000006 163880.00000000003 149117.00000000003 47.500000000000007
decision_type=2 2 2 2 2 2 2 2 2 2 2 2 2 2 2 2 2 2 2 2 2 2 2 2 2 2 2 2 2 2 2
left_child=2 3 21 8 -4 6 7 19 14 15 -5 -7 -3 -11 -2 -9 -15 -12 22 20 28 26 23 -14 27 -17 -1 -19 29 -6 -18
right_child=1 12 4 10 5 11 -8 9 -10 13 17 -13 18 16 -16 25 30 24 -20 -21 -22 -23 -24 -25 -26 -27 -28 -29 -30 -31 -32
leaf_value=-0.049810267660760819 -0.05614002077621788 -0.020475469383120958 -0.0098473970848036267 -0.048979798423869569 -0.0091468122003993697 0.10251228361452647 -0.068192381396891544 0.078692525218837031 0.070820196384606099 0.016520486751566862 0.061749240438188496 0.028900653708895125 -0.0039308624288338064 0.073653502242208693 -0.040531188872800404 0.040868006364738474 0.085297669870555856 -0.016553926378829974 0.10829348476612435 0.034504713254549561 0.026981048377177325 -0.0033574953034943909 0.0040119888459832576 0.055020645269364177 0.014432803473260564 0.020051840134106259 -0.012375001407831798 0.048175086450840843 -0.059305009877820662 0.054390159922276748 0.031234004928554666
leaf_weight=26.189914971590042 300.11242167651653 8.4379026144742948 42.62967649102211 32.423680424690247 27.2960155159235 31.193316102027893 6.8915489464998236 15.71711891889572 3.9634262174367896 14.459044724702833 4.9582791328430167 8.9970446079969388 6.0950778424739829 124.51869957149029 205.96062847971916 142.11746211349964 5.4002453386783626 81.955730140209198 5.1566664874553672 87.76587675511837 48.547649666666985 29.867749974131584 9.6311534941196424 57.98870912194252 27.329873099923134 50.590452536940575 17.14552728831768 3.554762825369834 4.1839789897203437 5.8104886710643759 22.315146148204803
leaf_count=152 2174 46 232 221 138 126 36 71 21 67 26 39 32 559 1371 686 24 483 22 411 245 153 47 276 151 250 92 21 21 28 105
internal_value=0 -0.625962 0.667039 -0.817509 0.794176 0.865091 0.803203 0.830419 -0.977007 0.993129 -0.275981 1.72067 0.822573 1.26793 -0.995751 0.773353 1.35697 -0.0823136 0.954384 0.478841 0.262843 -0.441779 0.869636 0.988274 -0.140197 0.708065 -0.699983 -0.277261 -0.0974882 0.0400899 0.835362
internal_weight=0 747.568 711.637 660.259 638.434 595.804 555.614 548.722 510.036 375.118 150.222 40.1904 87.3095 166.693 506.073 208.425 152.234 117.799 78.8716 173.604 85.8381 73.2032 73.7149 64.0838 112.84 192.708 43.3354 85.5105 37.2905 33.1065 27.7154
internal_count=8326 4891 3435 4468 3038 2806 2641 2605 3566 1762 902 165 423 755 3545 1007 688 681 377 843 432 397 355 308 655 936 244 504 187 166 129
shrinkage=0.05


Tree=10
num_leaves=32
num_cat=0
split_feature=7 10 4 7 10 4 12 12 4 10 11 4 12 11 11 11 10 10 12 12 4 10 4 1 4 9 12 12 4 12 12
split_gain=530.246 204.994 166.024 147.762 88.0247 49.8136 36.1424 34.7149 30.6066 25.5418 20.5266 18.9915 17.8939 14.7564 12.9512 11.1556 9.46368 11.568 9.41392 8.50339 7.69319 7.39761 7.10312 6.74976 5.91424 7.25013 5.65107 7.1328 5.48469 4.70063 7.12611
threshold=1.0000000180025095e-35 4668.5000000000009 11.500000000000002 4.5000000000000009 5036.5000000000009 12.500000000000002 37.500000000000007 49.500000000000007 8.5000000000000018 5036.5000000000009 1789.0000000000002 10.500000000000002 28.500000000000004 1494.5000000000002 1836.5000000000002 1576.0000000000002 3120.0000000000005 2741.0000000000005 45.500000000000007 55.500000000000007 9.5000000000000018 7073.5000000000009 13.500000000000002 4.5000000000000009 14.500000000000002 1.0000000180025095e-35 45.500000000000007 59.500000000000007 7.5000000000000009 64.500000000000014 72.500000000000014
decision_type=2 2 2 2 2 2 2 2 2 2 2 2 2 2 2 2 2 2 2 2 2 2 2 2 2 2 2 2 2 2 2
left_child=2 3 4 5 6 18 -1 13 26 12 15 28 -4 -7 22 16 17 19 -2 20 -10 -3 23 -14 25 -9 -8 -28 -5 -21 -31
right_child=1 21 9 11 -6 7 8 24 10 -11 -12 -13 14 -15 -16 -17 -18 -19 -20 29 -22 -23 -24 -25 -26 -27 27 -29 -30 30 -32
leaf_value=-0.037954214676631126 -0.054396831079316137 0.040752515626911845 -0.012445538344615511 -0.050081613868946134 0.10003642401161106 -0.035787326349094283 -0.034268912857579513 -0.013893653879787811 0.0048886727975687725 0.096874536072638101 0.076374999363995041 0.055625277113816846 0.051042869413787308 0.0653389332835035 0.092712068446592688 -0.066545864114233327 -0.037748183380566736 0.099367366396567777 -0.033886836005370694 0.052186541749638493 0.022545328071185314 0.10401260711431193 0.067227615757566278 0.016616198018361793 0.072261540007613992 0.036758828183249846 0.042448995017526241 -0.036087050870129152 0.011817009201214576 -0.013592515931616958 0.0522168425885891
leaf_weight=42.13520348072052 422.27228493988514 5.596560910344123 9.4691490679979307 4.0017516613006583 26.435643196105957 101.55931802093983 39.239279091358185 11.851805478334429 153.47156013548374 43.150975957512856 13.714935675263403 37.06069016456604 107.46095737814903 3.7402442544698706 23.602975443005562 4.2532603293657294 8.2784247845411283 4.1476483941078177 64.491916105151176 22.156532302498817 103.16027811169624 26.52219058573246 61.864970982074738 16.412118494510651 5.6264000385999671 17.48970653116703 6.1368374079465848 5.466290071606636 33.855503797531128 8.8606074303388613 7.6781476736068717
leaf_count=250 3117 31 47 25 106 666 249 69 802 173 57 160 461 20 95 23 43 21 423 106 497 107 254 72 28 97 37 33 176 44 37
internal_value=0 -0.610656 0.602699 -0.723695 0.230976 -0.882285 0.119238 -0.357224 0.217517 1.23434 0.330154 0.603638 1.09568 -0.643906 1.1565 0.277522 0.299751 0.328906 -1.03359 0.305615 0.239725 1.8598 1.06783 0.929633 0.506069 0.325979 -0.504086 0.109006 0.105479 0.742604 0.339192
internal_weight=0 734.068 707.096 701.95 445.135 627.032 418.699 140.267 376.564 261.961 325.721 74.9179 218.81 105.3 209.341 312.006 307.753 299.475 486.764 295.327 256.632 32.1188 185.738 123.873 34.9679 29.3415 50.8424 11.6031 37.8573 38.6953 16.5388
internal_count=8326 4919 3407 4781 2305 4420 2199 880 1949 1102 1630 361 929 686 882 1573 1550 1507 3540 1486 1299 138 787 533 194 166 319 70 201 187 81
shrinkage=0.05


Tree=11
num_leaves=32
num_cat=0
split_feature=4 0 0 12 12 0 4 11 12 11 0 4 12 1 6 6 4 3 0 12 6 6 3 6 0 6 6 6 0 3 12
split_gain=338.5 158.933 99.2692 53.7751 32.8678 29.5104 26.0441 16.5879 15.9978 15.3274 13.1552 12.7396 10.8637 10.4878 9.80807 13.2414 8.82229 8.12835 7.92583 7.4979 7.40786 7.82467 7.08146 6.46515 6.44596 6.25931 6.08442 9.14188 6.1811 5.99734 5.87206
threshold=12.500000000000002 35.500000000000007 28.500000000000004 41.500000000000007 41.500000000000007 27.500000000000004 7.5000000000000009 1836.5000000000002 33.500000000000007 1836.5000000000002 42.500000000000007 10.500000000000002 28.500000000000004 3.5000000000000004 8.5000000000000018 6.5000000000000009 9.5000000000000018 9.5000000000000018 25.500000000000004 44.500000000000007 1.5000000000000002 3.5000000000000004 9.5000000000000018 10.500000000000002 52.500000000000007 3.5000000000000004 3.5000000000000004 1.5000000000000002 46.500000000000007 13.500000000000002 37.500000000000007
decision_type=2 2 2 2 2 2 2 2 2 2 2 2 2 2 2 2 2 2 2 2 2 2 2 2 2 2 2 2 2 2 2
left_child=1 5 18 6 7 19 -3 10 -8 11 29 26 -12 -7 15 20 -16 -6 -2 -1 -10 24 30 -18 -22 -15 27 -5 -29 -4 -14
right_child=2 3 4 9 17 13 8 -9 14 -11 12 -13 22 25 16 -17 23 -19 -20 -21 21 -23 -24 -25 -26 -27 -28 28 -30 -31 -32
leaf_value=-0.055496858415381482 -0.047965729700019569 -0.039948893193061406 0.0091121983760248659 -0.018824065107241234 0.051939709093093971 -0.030076426815350322 -0.027243221168848242 0.084860456060294409 -0.017686591848797426 0.09883129092869225 -0.0040527736108788978 0.056637666068083459 -0.0061725055897856804 0.024647123268148462 -0.00079569411328510797 -0.043423636101979864 0.0096831397871582365 0.073466419806979627 -0.008862464635928026 -0.030652367072387717 0.0065906764260330666 -0.012286437120028283 0.062100021276382734 0.05020196290798512 0.038348154118655692 -0.022501826104297257 0.0071392963120238883 0.018850550394161839 0.054231492817812921 0.065953600532118503 0.040973074907694376
leaf_weight=194.29064458608627 25.877265676856041 58.830608427524567 77.994567438960075 8.7622558772563917 107.52950967848301 178.70044365525246 59.9184400588274 13.367513135075567 45.420324921607971 6.6487975567579261 12.447756201028822 22.145914137363434 7.9329133182764044 15.114438071846964 39.029288604855537 19.884944275021553 17.403374537825584 74.050281420350075 25.957300990819931 35.994250908493996 65.999469414353371 40.66057488322258 37.78408744931221 22.667113289237022 21.082588076591492 13.175248339772223 82.805538386106491 24.614820286631584 24.762867942452431 4.9341207295656195 39.444864436984062
leaf_count=1494 183 404 400 51 481 1131 383 55 284 28 65 104 40 85 221 129 96 314 159 241 359 233 172 121 110 81 441 124 126 22 189
internal_value=0 -0.334097 0.729554 0.0183524 0.908632 -0.785979 -0.185733 0.622328 -0.0770868 0.488342 0.542741 0.427669 0.791552 -0.511967 0.0259033 -0.0956158 0.322478 1.21437 -0.567678 -1.03227 -0.00686577 0.116466 0.919098 0.652077 0.285583 0.0537724 0.316883 0.56484 0.731881 0.249883 0.661581
internal_weight=0 997.912 427.32 560.637 375.486 437.275 390.897 193.906 332.066 169.74 180.538 163.091 97.6096 206.99 272.148 193.048 79.0998 181.58 51.8346 230.285 173.163 127.743 85.1619 40.0705 87.0821 28.2897 140.945 58.1399 49.3777 82.9287 47.3778
internal_count=8326 6246 2080 3214 1738 3032 2340 943 1936 874 888 846 466 1297 1553 1115 438 795 342 1735 986 702 401 217 469 166 742 301 250 422 229
shrinkage=0.05


Tree=12
num_leaves=32
num_cat=0
split_feature=7 10 7 10 4 4 0 0 0 4 0 4 13 0 4 7 0 8 8 0 4 10 5 0 0 13 0 0 0 0 0
split_gain=514.223 201.485 132.01 127.861 102.577 28.5584 23.7756 20.6674 17.8337 15.4889 14.1676 12.4561 11.2333 12.5129 7.61048 6.98192 6.96382 6.44398 6.3668 5.76518 5.75502 5.73239 4.96285 4.92268 8.57562 6.28631 4.18801 3.88083 10.8572 4.01091 3.84565
threshold=1.0000000180025095e-35 4668.5000000000009 4.5000000000000009 5036.5000000000009 9.5000000000000018 12.500000000000002 36.500000000000007 24.500000000000004 27.500000000000004 11.500000000000002 34.500000000000007 12.500000000000002 37.500000000000007 62.500000000000007 7.5000000000000009 1.5000000000000002 35.500000000000007 3.5000000000000004 3.5000000000000004 27.500000000000004 5.5000000000000009 7073.5000000000009 4.5000000000000009 59.500000000000007 43.500000000000007 28.500000000000004 49.500000000000007 53.500000000000007 46.500000000000007 50.500000000000007 49.500000000000007
decision_type=2 2 2 2 2 2 2 2 2 2 2 2 2 2 2 2 2 2 2 2 2 2 2 2 2 2 2 2 2 2 2
left_child=3 2 5 4 6 16 19 -6 -7 10 -4 -9 -8 20 -12 18 -2 -16 -10 -1 26 -3 -20 24 25 -13 -14 28 -22 -30 -11
right_child=1 21 9 -5 7 8 12 11 15 30 14 23 13 -15 17 -17 -18 -19 22 -21 27 -23 -24 -25 -26 -27 -28 -29 29 -31 -32
leaf_value=-0.047063137315150522 -0.054772936948407513 0.042792969820562646 -0.028687151448741122 0.092000878618760384 -0.045837991569041461 -0.052948742308399167 -0.032912086461407308 0.031338066544983521 -0.049452212858885181 0.061503639618876116 -0.04661383584208828 0.004529048636856557 -0.061647364505362373 -0.022395416800689166 -0.017255521272986164 -0.03418551960449686 -0.04222640648463645 0.045727509902025287 -0.0030029930563732566 -0.015868718793207847 0.013783867202128583 0.09373255930476676 0.047681212036975396 0.025406761099936587 0.063916934084960367 0.046427079181233032 0.0037337795374843643 0.0068962656244235775 0.063931747654658769 0.030156175895116041 0.017534542087415096
leaf_weight=19.709622710943222 263.43773462623358 6.7528897523879996 17.540012583136559 76.834214448928833 6.9114580154418936 36.408911287784576 14.426857799291609 170.8809719234705 6.8778035491704932 24.546790614724163 3.1541991233825675 9.827591270208357 3.3483997881412497 21.476631477475166 4.8802378326654461 25.69821135699749 190.6236180216074 24.196357071399689 58.468640610575676 59.60003699362278 59.234514907002449 30.320854678750038 5.2646468430757514 19.355305373668671 83.724216401576996 100.55147328972816 9.1217011511325818 32.627269864082336 19.55048742890358 15.969558537006376 6.236383542418479
leaf_count=126 2122 36 98 310 37 269 87 809 42 104 20 42 22 130 25 158 1366 120 338 333 303 122 30 84 343 419 59 169 96 81 26
internal_value=0 -0.579991 -0.706049 0.620466 0.475485 -0.870842 -0.0179222 0.797148 -0.462784 0.49435 0.149496 0.827968 0.18717 0.262771 0.543082 -0.237399 -0.990113 0.703128 -0.074968 -0.47242 0.371908 1.68908 0.0236749 0.989042 1.037 0.853934 -0.27644 0.435378 0.537802 0.97493 1.05192
internal_weight=0 704.407 667.334 723.15 646.316 586.78 255.065 391.251 132.718 80.554 49.7708 384.34 175.755 161.329 32.2308 96.3093 454.061 29.0766 70.6111 79.3097 139.852 37.0737 63.7333 213.459 194.103 110.379 12.4701 127.382 94.7546 35.52 30.7832
internal_count=8326 4876 4718 3450 3140 4325 1406 1734 837 393 263 1697 947 860 165 568 3488 145 410 459 730 158 368 888 804 461 81 649 480 177 130
shrinkage=0.05


Tree=13
num_leaves=32
num_cat=0
split_feature=7 10 7 10 11 11 3 3 3 7 3 2 13 2 9 11 3 10 2 2 2 2 2 3 5 3 2 2 2 2 2
split_gain=469.139 184.249 123.544 117.588 61.5882 35.2298 30.8473 22.5538 34.035 14.7189 10.747 7.43423 7.21919 6.89715 6.49526 6.33066 5.72446 5.45577 5.45164 4.69118 4.76855 4.28055 3.85514 3.80537 5.37725 6.25119 3.6938 3.6792 5.91911 4.11801 3.89919
threshold=1.0000000180025095e-35 4668.5000000000009 4.5000000000000009 5036.5000000000009 1789.0000000000002 2218.5000000000005 6.5000000000000009 10.500000000000002 11.500000000000002 1.5000000000000002 14.500000000000002 116500.50000000001 37.500000000000007 116500.50000000001 1.0000000180025095e-35 2001.5000000000002 6.5000000000000009 7073.5000000000009 146179.50000000003 140712.00000000003 191110.00000000003 155306.50000000003 315790.00000000006 6.5000000000000009 4.5000000000000009 9.5000000000000018 440024.00000000006 245244.50000000003 237915.50000000003 221330.00000000003 261236.50000000003
decision_type=2 2 2 2 2 2 2 2 2 2 2 2 2 2 2 2 2 2 2 2 2 2 2 2 2 2 2 2 2 2 2
left_child=3 2 5 4 6 9 18 13 12 14 -10 -12 -9 -8 -2 -6 -4 -3 -1 -13 -21 -15 27 -16 25 -25 -14 28 29 -23 -29
right_child=1 17 16 -5 15 -7 7 8 10 -11 11 19 26 21 23 -17 -18 -19 -20 20 -22 22 -24 24 -26 -27 -28 30 -30 -31 -32
leaf_value=0.0046502903869053711 -0.04431519063451525 0.03982819723536761 -0.025792466359604041 0.088150848246022276 0.090804853190481191 0.083572996418415424 0.019836921458149259 -0.040719449467496789 0.047107849908112835 -0.051837015846798874 0.0016268420843977048 0.063341926899012871 0.001307072027439545 0.060499909800433072 -0.050579551308663054 0.042357730890287687 0.02694756790990481 0.089124022053489571 -0.029733495480579221 0.0088968561158453176 0.034504907531436667 0.039120992954724876 0.056775105242997594 -0.01323380062311293 0.011703660547790755 -0.036534018213477827 0.04336852027646218 -0.023055236614715365 0.092478936332092088 -0.0035410401813214957 0.027415532592463921
leaf_weight=17.228702560067177 121.9970623254776 6.8891218304634085 5.5217454433441153 76.195787191390991 33.535900935530663 5.4737580865621558 45.670414254069328 10.17892602086067 62.814976274967194 286.5333289206028 33.586694702506065 9.0630076527595502 176.88320903480053 26.139108091592789 17.91155319660902 8.4400201886892301 75.42912432551384 30.294409170746803 34.841439560055733 28.265529438853264 50.944076299667358 53.288545101881027 21.551896691322327 43.463649705052376 8.813838526606558 85.242430575191975 5.3784003108739844 5.1753763407468822 4.7694389373064032 6.3281715065240851 14.685838356614111
leaf_count=111 898 36 36 310 138 27 197 58 255 2296 163 42 932 111 141 36 357 122 234 135 243 230 93 283 59 621 28 23 20 27 64
internal_value=0 -0.565167 -0.688942 0.587844 0.449823 -0.853271 0.368786 0.437865 0.299487 -0.877776 0.606157 0.432959 0.00519351 0.731681 -0.713594 1.62127 0.467002 1.59982 -0.367135 0.585315 0.507336 0.847622 0.758092 -0.578035 -0.521566 -0.573312 0.0509655 0.661544 0.77761 0.69185 0.28528
internal_weight=0 687.57 650.386 724.965 648.77 569.436 606.794 554.724 377.115 563.962 184.674 121.859 192.441 177.609 277.429 41.9759 80.9509 37.1835 52.0701 88.2726 79.2096 131.938 105.799 155.431 137.52 128.706 182.262 84.2474 64.3862 59.6167 19.8612
internal_count=8326 4876 4718 3450 3140 4325 2966 2621 1856 4298 838 583 1018 765 2002 174 393 158 345 420 378 568 457 1104 963 904 960 364 277 257 87
shrinkage=0.05


Tree=14
num_leaves=32
num_cat=0
split_feature=5 4 5 10 10 4 4 11 5 12 10 10 11 12 11 1 1 12 1 11 4 12 12 10 12 1 5 1 1 13 12
split_gain=375.152 166.389 109.068 78.178 75.4111 40.2293 31.5509 30.2231 29.3779 22.0429 19.3193 13.8667 12.6651 11.6574 11.6521 11.1524 10.3155 10.2289 9.35491 7.09514 7.07946 6.80053 6.22306 5.01677 5.79728 4.95561 4.93733 4.50485 5.35415 4.40631 4.4701
threshold=2.5000000000000004 12.500000000000002 1.5000000000000002 5036.5000000000009 7792.0000000000009 7.5000000000000009 12.500000000000002 1789.0000000000002 1.5000000000000002 35.500000000000007 7073.5000000000009 4579.0000000000009 2001.5000000000002 44.500000000000007 1789.0000000000002 4.5000000000000009 3.5000000000000004 44.500000000000007 1.0000000180025095e-35 1990.5000000000002 14.500000000000002 43.500000000000007 41.500000000000007 3120.0000000000005 41.500000000000007 2.5000000000000004 4.5000000000000009 3.5000000000000004 5.5000000000000009 15.500000000000002 15.500000000000002
decision_type=2 2 2 2 2 2 2 2 2 2 2 2 2 2 2 2 2 2 2 2 2 2 2 2 2 2 2 2 2 2 2
left_child=1 2 11 5 6 -4 19 9 17 -7 14 22 -9 20 23 16 18 -3 -11 -2 26 -20 -1 24 29 -26 -8 -27 -29 -10 -31
right_child=4 8 3 -5 -6 7 13 12 10 15 -12 -13 -14 -15 -16 -17 -18 -19 21 -21 -22 -23 -24 -25 25 27 -28 28 -30 30 -32
leaf_value=-0.051062040095047938 -0.051733176396773585 -0.01704925170691781 -0.033473037244091557 0.087409076685106876 0.094570949762191076 -0.023551449807805543 -0.040181281636276545 0.093989872641630223 -0.01077726337665387 0.050231310732253204 0.083920480026523053 0.047438739034965177 0.0092221278724527369 0.0065871898577862971 0.079740762244931374 -0.0098614896100940406 0.051905914635200293 0.035238640791512656 0.0060580667778683019 0.020439057380183145 0.032258210376698959 0.022165300239748425 -0.024721623567282348 -0.00080850405502361016 0.021716033793465372 0.065080732617117804 0.0026114869778618068 0.029987197422079157 0.080822001301921048 -0.0095275829376751022 0.040473230229080032
leaf_weight=86.320977486670017 313.00053311139345 22.251355201005936 55.077345445752144 32.033618256449699 10.16066552698612 46.500170096755028 53.155533760786057 15.344465911388399 4.7724746167659751 16.869918316602707 39.62380787730217 4.2777501717209807 6.1815533936023703 31.625562831759453 23.456067845225334 46.575379833579063 19.15247905254364 16.136147871613503 180.50444299727678 3.4427993372082701 4.2139480561017981 102.87916421890259 30.292126297950745 6.443331152200698 11.334131091833113 57.331941872835159 7.7193552404642096 23.48158468306065 6.6457028836011878 4.6716512739658347 103.5314856916666
leaf_count=694 2640 140 368 130 41 266 393 63 20 78 165 20 27 179 97 233 87 82 921 20 27 495 208 27 46 233 50 96 27 22 431
internal_value=0 0.329743 0.0362275 0.234748 -0.799997 0.135623 -0.866187 0.237791 0.919208 0.177508 1.0312 -0.819527 1.39295 -0.366324 0.925078 0.259908 0.326567 0.0985982 0.281179 -1.01896 -0.608327 0.238112 -0.884394 0.853087 0.879535 1.05647 -0.695097 1.13709 0.824014 0.724813 0.766289
internal_weight=0 961.689 642.009 521.119 423.318 489.085 413.158 434.008 319.68 412.482 281.292 120.891 21.526 96.7144 241.668 365.981 319.406 38.3875 300.254 316.443 65.0888 283.384 116.613 218.212 211.769 98.7934 60.8749 87.4592 30.1273 112.976 108.203
internal_count=8326 4976 3590 2668 3350 2538 3309 2170 1386 2080 1164 922 90 649 999 1814 1581 222 1494 2660 470 1416 902 902 875 402 443 356 123 473 453
shrinkage=0.05


Tree=15
num_leaves=32
num_cat=0
split_feature=7 7 10 10 3 0 12 12 0 0 3 10 0 3 0 10 10 0 7 3 13 0 12 0 3 0 0 0 0 0 12
split_gain=350.161 138.282 107.639 94.9048 48.8621 44.4897 39.3797 23.9205 21.3866 18.6494 16.1918 12.4497 11.1714 10.8552 9.93686 8.45166 7.9033 7.67696 7.4409 7.16956 5.93818 5.74185 7.88577 6.08321 5.38484 5.04663 4.99832 4.83174 6.27127 4.50726 4.37681
threshold=1.0000000180025095e-35 4.5000000000000009 4668.5000000000009 5036.5000000000009 6.5000000000000009 35.500000000000007 43.500000000000007 34.500000000000007 41.500000000000007 25.500000000000004 11.500000000000002 3120.0000000000005 37.500000000000007 9.5000000000000018 59.500000000000007 5036.5000000000009 7565.5000000000009 26.500000000000004 2.5000000000000004 8.5000000000000018 37.500000000000007 51.500000000000007 41.500000000000007 41.500000000000007 14.500000000000002 58.500000000000007 27.500000000000004 29.500000000000004 31.500000000000004 35.500000000000007 49.500000000000007
decision_type=2 2 2 2 2 2 2 2 2 2 2 2 2 2 2 2 2 2 2 2 2 2 2 2 2 2 2 2 2 2 2
left_child=3 2 6 4 -1 9 12 10 18 -6 -7 14 -2 19 21 17 -4 -3 26 -11 -10 22 23 -9 -16 29 -8 -15 -29 -19 -30
right_child=1 15 16 -5 5 7 8 11 20 13 -12 -13 -14 27 24 -17 -18 25 -20 -21 -22 -23 -24 -25 -26 -27 -28 28 30 -31 -32
leaf_value=-0.029462271833449329 -0.053623929582309049 -0.025428345443950937 0.027072266057983616 0.081343381480172408 -0.049899376039053873 -0.04108695865243836 -0.0420672813302213 0.012200290463339983 -0.048546570016354186 -0.0058403795126306737 0.035125659676420694 -0.029251707445754022 -0.036931539663600875 -0.021920789256828364 0.020087885504312335 0.086064633882145761 0.091418955301582366 0.018007368470347705 -0.051847964219323119 0.034719765652861632 0.021267049934523781 0.049785335319966401 0.042716432922448658 0.033972678392456081 -0.027134339275147037 -0.018662635257432593 -0.010535084641673596 0.023339671443615734 -0.0196242494950154 0.045136006539305731 0.012817179748030686
leaf_weight=50.287768557667732 266.71948449313641 6.2345916181802741 6.8891976475715664 64.799386292695999 16.754646226763725 18.692554906010631 17.778733313083649 51.577996715903282 3.3309011161327353 15.041258439421652 11.112079232931135 7.6803788393735877 160.57718790322542 27.833659425377846 29.012139186263084 6.7614968717098227 15.527206927537916 23.334493309259415 25.770563505589962 39.525623545050621 35.596122324466705 76.04999241232872 137.26533386111259 84.874800622463226 7.6232696622610083 4.5365579575300208 42.877619825303555 24.118842467665672 29.500780001282692 44.526370659470558 16.054844722151756
leaf_count=341 2367 36 35 271 99 109 141 238 21 72 55 37 1246 155 133 28 63 112 198 165 208 335 590 380 36 22 276 122 153 205 77
internal_value=0 -0.538979 -0.715304 0.47339 0.357147 0.437442 -0.802437 0.610346 -0.309596 0.0033246 -0.253451 0.675675 -0.947019 0.113643 0.700733 0.648448 1.43287 0.556195 -0.586802 0.470789 0.305865 0.752633 0.685097 0.514858 0.205233 0.647888 -0.395547 -0.0862211 0.0544742 0.716152 -0.163823
internal_weight=0 660.461 575.067 707.805 643.006 592.718 552.651 423.889 125.354 168.83 29.8046 394.084 427.297 152.075 386.404 85.3935 22.4164 78.632 86.4269 54.5669 38.927 349.768 273.718 136.453 36.6354 72.3974 60.6564 97.5081 69.6745 67.8609 45.5556
internal_count=8326 4958 4555 3368 3097 2756 4457 1913 844 843 164 1749 3613 744 1712 403 98 375 615 237 229 1543 1208 618 169 339 417 507 352 317 230
shrinkage=0.05


Tree=16
num_leaves=32
num_cat=0
split_feature=0 10 4 9 11 11 4 0 0 0 9 4 0 6 6 6 11 0 6 6 10 4 0 0 6 6 6 6 0 13 8
split_gain=229.329 163.536 112.394 45.8011 29.7258 28.9892 26.8131 17.8748 16.8126 12.4601 12.3065 9.56753 8.23559 8.22105 16.0014 15.151 7.66512 7.64076 5.65184 5.65359 5.40425 4.81991 4.84456 4.45572 4.28216 9.7274 14.5458 4.01289 3.86123 3.64872 4.26607
threshold=28.500000000000004 5036.5000000000009 12.500000000000002 1.0000000180025095e-35 1836.5000000000002 1881.5000000000002 8.5000000000000018 38.500000000000007 24.500000000000004 63.500000000000007 1.0000000180025095e-35 9.5000000000000018 67.500000000000014 3.5000000000000004 2.5000000000000004 8.5000000000000018 1978.5000000000002 34.500000000000007 3.5000000000000004 8.5000000000000018 1070.5000000000002 9.5000000000000018 33.500000000000007 40.500000000000007 2.5000000000000004 3.5000000000000004 8.5000000000000018 1.5000000000000002 40.500000000000007 31.500000000000004 3.5000000000000004
decision_type=2 2 2 2 2 2 2 2 2 2 2 2 2 2 2 2 2 2 2 2 2 2 2 2 2 2 2 2 2 2 2
left_child=8 2 3 18 6 10 -5 21 -1 13 29 -10 17 14 23 -15 -6 -12 -2 -20 24 -8 -23 -9 27 28 -27 -19 -26 -4 -31
right_child=1 -3 5 4 16 -7 7 9 11 -11 12 -13 -14 15 -16 -17 -18 20 19 -21 -22 22 -24 -25 25 26 -28 -29 -30 30 -32
leaf_value=-0.053752713609083652 -0.018909094450362117 0.07671044526898535 0.043878185978045089 -0.03335176289659824 0.07758657884584351 0.081786202062972213 -0.020265567801400087 -0.023135154433703509 -0.045771125787250996 -0.027594764389707177 0.012549727996959867 -0.015825846783558188 -0.034736490022839177 -0.016611489656438244 0.052649983466341338 0.017382977004883889 0.013651825958897863 0.040779241821242762 -0.04836291769840894 -0.025540783365299392 -0.016605125987991735 -0.017072845910548272 0.0085856869819208054 0.014827084237649417 0.082803941569113984 -0.030495424412083933 0.036444376166185725 -0.011660447658003404 0.049873009986468007 -0.034582285208125195 0.0061737903621362543
leaf_weight=154.65469762682915 71.957789577543736 81.901727005839348 5.5091038942337027 63.255459405481815 14.608768977224829 23.034356385469437 81.574072264134884 8.7936937585473043 45.419071070849895 20.914902113378048 46.734742775559425 64.628989703953266 4.9408015906810752 52.304154440760612 32.036377973854542 87.792008474469185 6.9032209292054167 6.4457460641860935 54.403396472334862 54.142649114131927 4.8789626508951178 32.808464422821999 41.87814012169838 63.874104700982571 11.97048360109329 8.8219725191593152 101.32301153242588 8.4056185483932495 34.71840526163578 7.2666174918413153 55.156433165073395
leaf_count=1427 528 348 30 462 62 98 512 49 363 124 219 452 24 293 150 445 35 32 427 393 23 203 216 331 52 42 444 39 147 45 311
internal_value=0 0.17536 0.0647819 -0.162966 -0.00889162 0.55512 -0.0598879 0.0311253 -0.862462 0.188957 0.471078 -0.563697 0.582286 0.252252 0.464229 0.0938265 1.1414 0.610542 -0.595512 -0.739585 0.705711 -0.237261 -0.0537128 0.204664 0.735203 0.783802 0.621658 0.221985 1.16632 0.0974377 0.0285882
internal_weight=0 1088.36 1006.45 687.247 506.743 319.206 485.231 421.976 264.703 265.715 296.172 110.048 228.24 244.8 104.704 140.096 21.512 223.299 180.504 108.546 176.564 156.261 74.6866 72.6678 171.685 156.834 110.145 14.8514 46.6889 67.9322 62.4231
internal_count=8326 6084 5736 4230 2882 1506 2785 2323 2242 1392 1408 815 1022 1268 530 738 97 998 1348 820 779 931 419 380 756 685 486 71 199 386 356
shrinkage=0.05


Tree=17
num_leaves=32
num_cat=0
split_feature=5 5 10 10 3 11 10 10 10 10 11 3 3 3 9 11 6 6 6 3 6 6 11 9 11 6 3 6 13 6 6
split_gain=329.611 139.631 82.0047 65.3501 57.7506 48.117 34.4257 15.0663 19.7962 16.473 15.1335 14.9045 19.2576 10.3179 9.175 8.70487 8.07139 16.7776 7.31103 6.49811 6.02185 6.01431 5.05802 4.82505 4.62796 4.23623 3.74732 3.52529 3.36843 3.07083 2.93729
threshold=2.5000000000000004 1.0000000180025095e-35 5036.5000000000009 4668.5000000000009 6.5000000000000009 1789.0000000000002 7364.0000000000009 4462.0000000000009 4003.0000000000005 3120.0000000000005 1568.5000000000002 10.500000000000002 11.500000000000002 14.500000000000002 1.0000000180025095e-35 1990.5000000000002 3.5000000000000004 8.5000000000000018 8.5000000000000018 8.5000000000000018 2.5000000000000004 3.5000000000000004 2001.5000000000002 1.0000000180025095e-35 1748.0000000000002 8.5000000000000018 1.0000000180025095e-35 1.5000000000000002 37.500000000000007 3.5000000000000004 2.5000000000000004
decision_type=2 2 2 2 2 2 2 2 2 2 2 2 2 2 2 2 2 2 2 2 2 2 2 2 2 2 2 2 2 2 2
left_child=1 6 4 15 26 7 24 8 9 10 11 14 21 28 -6 18 20 -18 -2 -16 -15 23 -7 -13 27 -23 -3 -1 -14 -28 -25
right_child=3 2 -4 -5 5 22 -8 -9 -10 -11 -12 12 13 16 19 -17 17 -19 -20 -21 -22 25 -24 30 -26 -27 29 -29 -30 -31 -32
leaf_value=-0.053853060969344696 -0.050820755618789785 -0.0067588685607207037 0.077041235104391287 0.064715513705777938 0.058160616710230456 0.082165626970421124 0.080530015579827308 -0.072755300413171978 0.12202185127773367 -0.068303063657998819 -0.070564766081351593 0.045887281818987227 0.0092342784171971868 0.018672458770200077 0.010989799789898835 0.027839708248573094 -0.027132588506955314 0.023039933408150789 -0.036478377232143443 0.032850978908645793 0.051152330364633049 -0.013517565059751114 0.037351067760536559 0.0044861203260029604 0.014072015329745011 0.0052602335549830747 -0.016389795434799664 -0.032437409448077763 0.045664579771881555 -0.045770605641767742 0.027391234081088723
leaf_weight=22.913879282772541 220.16736783087254 12.949107579886912 64.303977206349373 14.293467581272123 27.382020086050034 34.408394083380699 6.8353761285543433 4.4641418009996405 4.6668485254049292 5.3986681178212157 4.6378735527396193 10.42999906092882 7.1012671664357176 35.852297335863113 46.352297723293304 4.1440623775124541 24.439168885350227 52.362931475043297 148.97716994583607 127.47669683396816 23.706784591078758 54.38758634775877 7.7064186483621588 61.30280028283596 4.7907728776335707 67.079335719347 12.442738950252531 119.08771060407162 59.591810181736946 31.177140548825264 18.137790471315384
leaf_count=194 2001 90 278 63 117 147 28 22 24 29 24 54 31 169 211 23 122 249 1234 527 107 298 33 319 26 354 88 909 241 225 89
internal_value=0 0.2899 0.458017 -0.804121 0.363084 0.444203 -0.583099 0.375528 0.388493 0.373187 0.388326 0.401884 0.293459 0.513386 0.625184 -0.884471 0.355739 0.141491 -0.900651 0.540432 0.632014 0.0821527 1.4793 0.278274 -0.685249 -0.0629529 -0.60756 -0.717862 0.835712 -0.747792 0.194316
internal_weight=0 951.386 797.758 387.582 733.454 676.885 153.628 634.77 630.306 625.639 620.241 615.603 414.392 203.054 201.211 373.289 136.361 76.8021 369.145 173.829 59.5591 211.338 42.1148 89.8706 146.792 121.467 56.569 142.002 66.6931 43.6199 79.4406
internal_count=8326 5005 3848 3321 3570 3167 1157 2987 2965 2941 2912 2888 2033 919 855 3258 647 371 3235 738 276 1114 180 462 1129 652 403 1103 272 313 408
shrinkage=0.05


Tree=18
num_leaves=32
num_cat=0
split_feature=5 5 3 12 11 11 12 12 11 3 1 3 11 1 11 12 2 3 12 3 2 2 7 3 2 6 6 6 12 6 2
split_gain=323.355 108.348 42.8378 24.2019 22.8768 24.8637 18.1548 17.9212 17.8105 11.5122 13.3491 13.2174 11.2983 10.8585 10.5059 9.09885 8.75669 8.50689 11.1019 7.8606 7.13953 6.4145 7.16203 5.71477 6.25189 5.34474 6.89016 6.38109 5.33538 5.13697 5.09285
threshold=2.5000000000000004 1.0000000180025095e-35 6.5000000000000009 46.500000000000007 1789.0000000000002 1521.5000000000002 44.500000000000007 41.500000000000007 2001.5000000000002 10.500000000000002 1.5000000000000002 11.500000000000002 2234.5000000000005 4.5000000000000009 1990.5000000000002 35.500000000000007 198351.50000000003 10.500000000000002 67.000000000000014 14.500000000000002 286381.50000000006 100665.50000000001 1.5000000000000002 11.500000000000002 61010.500000000007 2.5000000000000004 3.5000000000000004 8.5000000000000018 47.500000000000007 11.500000000000002 132722.00000000003
decision_type=2 2 2 2 2 2 2 2 2 2 2 2 2 2 2 2 2 2 2 2 2 2 2 2 2 2 2 2 2 2 2
left_child=1 6 16 14 5 7 -1 9 -6 25 19 15 -10 17 -2 -12 -3 18 -9 -11 28 -5 -23 -19 -25 -4 -27 -28 -15 -29 -17
right_child=3 2 4 21 8 -7 -8 13 12 10 11 -13 -14 20 -16 30 -18 23 -20 -21 -22 22 -24 24 -26 26 27 29 -30 -31 -32
leaf_value=-0.036477266697806425 -0.046285112077370898 -0.0024401541788421658 0.0083356434923222093 -0.041748892432711869 0.07773914166753082 -0.068508656519097141 0.0017054603815200191 0.055079997872851706 -0.054222947916891522 0.055756894331555354 -0.032213622158739401 0.020193985653130533 0.048589859780405045 0.040230343413163214 0.037606926833618826 -0.014288465747759688 -0.042565286995563993 0.020123865031377738 -0.021418623837296182 0.0070445124965947794 0.056014614170624116 0.0080105763861685123 -0.032882582440674345 0.0026269708597946445 0.044650238760983146 0.057352405065420546 -0.0070473268608685679 0.039212662476793642 -0.0026885622598839623 -0.0013270870543974028 0.009723549501607226
leaf_weight=98.771478243172169 303.64728239923716 31.259248569607735 22.669438377022743 14.182492412626742 34.452141106128693 7.2693320810794821 45.459442645311356 83.529791593551636 4.6847662031650525 25.404640942811966 22.075090102851391 116.59451884776354 6.2199541479349136 9.0291774123907071 3.7783411592245093 30.707623735070229 24.064838029444218 65.639934673905373 5.028225064277648 12.287136748433111 8.3836865425109846 37.011636659502983 15.065498411655424 10.023755893111227 75.62039490044117 26.095624044537544 11.320645876228808 56.482096135616302 36.566638514399529 9.0688800364732725 78.616425395011902
leaf_count=826 2809 217 100 99 149 39 286 350 20 117 138 545 26 40 22 163 182 324 21 56 37 240 123 44 331 109 52 241 166 40 414
internal_value=0 0.309917 0.451608 -0.786933 0.513628 0.469786 -0.488853 0.488754 1.20224 0.354015 0.243071 0.158799 0.088411 0.677377 -0.905081 -0.058669 -0.397875 0.768577 1.01473 0.797543 0.272157 -0.238761 -0.0763897 0.624485 0.794637 0.606289 0.703067 0.552349 0.11621 0.672081 0.0595781
internal_weight=0 957.325 813.094 373.685 757.77 712.413 144.231 705.144 45.3569 411.322 285.685 247.994 10.9047 293.822 307.426 131.399 55.3241 239.842 88.558 37.6918 53.9795 66.2596 52.0771 151.284 85.6442 125.637 102.967 76.8716 45.5958 65.551 109.324
internal_count=8326 5033 3921 3293 3522 3327 1112 3288 195 1975 1433 1260 46 1313 2831 715 399 1070 371 173 243 462 363 699 375 542 442 333 206 281 577
shrinkage=0.05


Tree=19
num_leaves=32
num_cat=0
split_feature=5 5 0 12 11 11 12 12 11 0 1 0 11 0 12 1 0 0 2 0 1 2 2 12 0 2 7 7 1 2 2
split_gain=298.409 98.1297 64.0163 23.5864 21.8334 23.5562 17.2973 17.0877 15.3605 12.4692 13.9579 11.5896 10.7063 9.87545 8.61102 8.27682 8.0277 7.72291 5.87127 5.78761 5.64995 5.4522 5.91447 5.81394 5.34704 5.03499 5.23403 4.38702 6.236 6.06252 6.123
threshold=2.5000000000000004 1.0000000180025095e-35 29.500000000000004 44.500000000000007 1789.0000000000002 1521.5000000000002 40.500000000000007 44.500000000000007 2001.5000000000002 35.500000000000007 4.5000000000000009 42.500000000000007 2234.5000000000005 27.500000000000004 19.500000000000004 5.5000000000000009 36.500000000000007 45.500000000000007 68344.000000000015 47.500000000000007 1.0000000180025095e-35 95255.500000000015 177414.00000000003 49.500000000000007 27.500000000000004 177414.00000000003 4.5000000000000009 2.5000000000000004 3.5000000000000004 224127.50000000003 137436.00000000003
decision_type=2 2 2 2 2 2 2 2 2 2 2 2 2 2 2 2 2 2 2 2 2 2 2 2 2 2 2 2 2 2 2
left_child=1 7 24 11 5 6 14 -1 -6 -8 18 -2 -10 -5 -4 17 25 -12 -11 -9 -18 -15 -23 -24 -3 26 -16 29 -29 30 -22
right_child=3 2 4 13 8 -7 9 19 12 10 15 -13 -14 21 16 -17 20 -19 -20 -21 27 22 23 -25 -26 -27 -28 28 -30 -31 -32
leaf_value=-0.035562821582501646 -0.05070565706657465 -0.027971737406893717 -0.014362012404897283 -0.04342544883452773 0.077639279504330708 -0.066633075430000091 0.014561570338668792 -0.010836108462897155 -0.050211393580703867 0.019455040527502493 -0.019801313549718935 -0.025446785371764466 0.052072863181104767 -0.035118792589328388 -0.014769204757002916 0.073786793463524222 0.05029871487190022 0.026022717019657762 0.049899504928360684 0.027151578636348442 0.014499789973664398 0.024257156020607136 -0.046902313687611441 0.0020585229363019957 -0.003523066072631443 0.017606380329738016 0.036238319105329701 0.029822841975641841 0.08877917567406976 0.0069765789626477963 0.033380953229116668
leaf_weight=96.308966681361198 221.37684316933155 53.840605989098549 18.957085110247135 22.898274317383766 32.882673814892769 7.0551820397377005 59.399842262268066 30.581455856561661 4.4946904182434064 17.639980852603912 15.862151369452475 57.13312391191721 5.9385316371917725 12.070081703364847 32.225049756467342 5.2462914288043967 19.252127438783646 21.874202206730843 154.88417081534863 14.917552486062048 78.661170601844788 19.010701879858971 8.3253063336014765 22.316715009510517 38.252536199986935 47.243283703923225 5.9593685120344153 28.079144135117531 5.3378824889659873 65.782573319971561 94.550252087414265
leaf_count=826 2216 327 105 204 146 40 276 202 20 77 71 477 25 79 163 22 83 101 681 84 380 119 58 140 195 238 28 134 24 331 454
internal_value=0 0.29497 0.428796 -0.770001 0.529035 0.485061 0.504174 -0.472663 1.21735 0.696893 0.808705 -0.910482 0.160165 -0.307641 0.370403 0.298838 0.403464 0.13522 0.935733 0.0323748 0.482429 -0.099567 0.0469698 -0.224879 -0.356331 0.133868 -0.136171 0.445428 0.784805 0.397975 0.496128
internal_weight=0 955.227 813.419 363.131 721.326 678.01 670.955 141.808 43.3159 274.907 215.507 278.51 10.4332 84.6211 396.048 42.9826 377.091 37.7364 172.524 45.499 291.663 61.7228 49.6527 30.642 92.0931 85.4277 38.1844 272.411 33.417 238.994 173.211
internal_count=8326 5033 3921 3293 3399 3208 3168 1112 191 1228 952 2693 45 600 1940 194 1835 172 758 286 1406 396 317 198 522 429 191 1323 158 1165 834
shrinkage=0.05


Tree=20
num_leaves=32
num_cat=0
split_feature=7 10 7 10 4 4 12 12 11 11 12 4 11 12 4 11 4 10 10 1 1 12 1 4 9 10 12 12 12 12 12
split_gain=232.065 114.316 86.6245 81.0519 58.3095 46.369 25.173 23.1618 12.1727 11.5782 11.1701 10.8488 10.2272 9.67859 8.91149 7.78564 6.36242 6.3535 8.96657 5.26581 4.78366 4.50652 4.33276 4.32728 5.94464 4.30516 4.00563 3.60614 3.55848 3.54674 7.10207
threshold=1.0000000180025095e-35 4668.5000000000009 4.5000000000000009 5036.5000000000009 10.500000000000002 12.500000000000002 49.500000000000007 37.500000000000007 1789.0000000000002 1494.5000000000002 28.500000000000004 8.5000000000000018 1836.5000000000002 45.500000000000007 9.5000000000000018 1576.0000000000002 13.500000000000002 3120.0000000000005 2741.0000000000005 3.5000000000000004 4.5000000000000009 72.500000000000014 3.5000000000000004 14.500000000000002 1.0000000180025095e-35 7073.5000000000009 43.500000000000007 45.500000000000007 45.500000000000007 64.500000000000014 55.500000000000007
decision_type=2 2 2 2 2 2 2 2 2 2 2 2 2 2 2 2 2 2 2 2 2 2 2 2 2 2 2 2 2 2 2
left_child=3 2 5 4 7 13 9 -1 11 -7 -6 19 16 -2 -4 17 20 18 21 -9 26 29 -15 24 -8 -3 -12 -16 -10 30 -13
right_child=1 25 14 -5 10 6 23 8 28 -11 12 15 -14 22 27 -17 -18 -19 -20 -21 -22 -23 -24 -25 -26 -27 -28 -29 -30 -31 -32
leaf_value=-0.036078725866438489 -0.049127420144226691 0.031454238150767311 -0.0046611011962635106 0.073638813505866041 -0.017323636682421827 -0.028073549282690863 -0.01020203525472458 -0.027460739712836236 0.032828847955777361 0.061482667381242688 0.020969041447580439 0.005683049311118368 0.067260115199774595 -0.033472031095823078 0.026764651105146489 -0.063983554271316231 0.044744710663900698 -0.036730895526968226 0.081806461444891898 0.018407061397018996 0.0034896513193068204 0.046981146838885122 0.00130977292507197 0.06563219318109545 0.036538350124568374 0.078777763744823051 0.038099256096560646 0.064110509264443796 0.08723905941458493 -0.02488954699012709 0.036144940458590853
leaf_weight=37.22221514582634 307.03092521429062 5.9440368413925198 23.965475834906101 61.542828917503357 10.861159011721609 84.344663068652153 11.183087401092054 36.421443283557892 8.0236109346151334 3.7703608423471442 70.15953417122364 242.99031367897987 21.697111040353775 42.659786887466908 44.932270154356956 3.8088706731796256 62.714905634522438 7.7387583106756201 4.1879863739013663 7.5553700923919669 20.665733978152275 7.25860871374607 11.332087807357309 5.7912356555461875 17.367173716425896 25.099400237202644 66.445482909679413 7.5501092821359626 4.8042988479137412 8.416633188724516 20.769744992256165
leaf_count=241 3117 31 132 279 54 666 69 262 36 20 297 1201 100 340 197 23 254 40 20 52 87 33 83 28 97 107 272 32 21 41 94
internal_value=0 -0.47356 -0.57712 0.376532 0.271402 -0.733524 -0.201782 0.0285889 0.10792 -0.48483 0.645604 0.0717527 0.690188 -0.913887 0.412028 0.140788 0.625584 0.159357 0.18375 -0.39161 0.518191 0.161982 -0.523437 0.524479 0.364604 1.39433 0.586026 0.642744 1.06413 0.141244 0.161635
internal_weight=0 590.971 559.927 703.285 641.742 483.479 122.457 389.198 351.976 88.115 252.544 339.148 241.683 361.023 76.4479 295.171 219.986 291.362 283.623 43.9768 157.271 279.435 53.9919 34.3415 28.5503 31.0434 136.605 52.4824 12.8279 272.177 263.76
internal_count=8326 4919 4781 3407 3128 4420 880 2064 1823 686 1064 1766 1010 3540 361 1452 910 1429 1389 314 656 1369 423 194 166 138 569 229 57 1336 1295
shrinkage=0.05


Tree=21
num_leaves=32
num_cat=0
split_feature=0 4 12 4 3 0 12 12 12 11 0 12 4 6 6 6 6 4 6 4 12 11 6 1 11 6 6 0 3 0 6
split_gain=183.468 120.277 28.193 19.1444 17.893 14.8896 12.3212 12.1406 11.7771 10.9191 9.42657 8.64086 6.89075 6.85601 5.83236 9.89855 5.63269 5.55815 6.07437 5.11447 4.84489 4.4612 4.08386 11.1441 4.05315 3.50709 4.00182 3.75243 3.5884 3.39225 4.28775
threshold=28.500000000000004 12.500000000000002 45.500000000000007 7.5000000000000009 9.5000000000000018 38.500000000000007 33.500000000000007 43.500000000000007 44.500000000000007 1836.5000000000002 35.500000000000007 15.500000000000002 10.500000000000002 1.5000000000000002 3.5000000000000004 8.5000000000000018 3.5000000000000004 9.5000000000000018 11.500000000000002 12.500000000000002 28.500000000000004 1836.5000000000002 3.5000000000000004 3.5000000000000004 1881.5000000000002 3.5000000000000004 1.5000000000000002 46.500000000000007 1.0000000180025095e-35 51.500000000000007 2.5000000000000004
decision_type=2 2 2 2 2 2 2 2 2 2 2 2 2 2 2 2 2 2 2 2 2 2 2 2 2 2 2 2 2 2 2
left_child=8 2 3 16 7 -5 -7 11 19 10 -4 -3 25 -8 29 -16 -2 -17 -19 -1 -6 -13 23 -9 -22 26 -12 -28 -27 30 -15
right_child=1 4 9 5 20 6 13 22 -10 -11 12 21 -14 14 15 17 -18 18 -20 -21 24 -23 -24 -25 -26 28 27 -29 -30 -31 -32
leaf_value=-0.050145686197391043 -0.010668621808968147 -0.052289108596493397 -0.0098627192978122755 -0.01843013613014392 0.0043508625304084251 -0.023131185255888014 -0.014261773444283227 0.061663609009533826 -0.019256496183443078 0.075835459807011119 -0.025679589727863522 0.012377789073997303 0.047816593762811069 0.0011822771037353008 -0.015033850689299137 -0.00019862910340307703 -0.044052663866243701 0.01448118643189455 0.059385648706761322 -0.027209326361590087 0.045439714189584361 0.054375648619425315 0.027061560056775503 0.0025288858665464048 0.078698028507161621 -0.0463607644671052 0.014355583011020032 0.04663979492491329 0.0088133527562890904 0.032488499970413441 0.030548773862421448
leaf_weight=154.19364170730114 17.239889152348042 5.0016281306743613 39.077311649918556 158.06440542638302 6.6999771893024436 46.275236941874027 39.159549713134766 32.594641387462616 50.501009732484818 6.8673258423805228 3.5316370800137511 106.98457634449005 17.102811112999916 35.730399258434772 51.907331705093384 37.70058249682188 47.304393954575062 27.027000598609447 10.440431922674177 28.852689988911152 122.11483057588339 6.7204125374555579 60.317758575081825 10.544474780559538 9.90373846888542 3.1035290881991378 18.464535735547543 17.56062974780798 58.404634520411491 29.241704344749451 19.060588419437408
leaf_count=1614 136 28 232 1097 37 341 277 149 375 32 21 555 78 190 337 219 410 154 57 254 569 31 275 48 46 20 90 85 309 153 107
internal_value=0 0.167794 -0.0788664 -0.193075 0.634801 -0.120718 0.0114111 0.45885 -0.812656 0.282421 0.228516 0.240615 0.369315 0.0990615 0.170347 0.0351822 -0.702715 0.26711 0.539879 -0.930607 0.916592 0.297201 0.709254 0.944187 0.958694 0.269977 0.502266 0.601853 0.120588 0.374745 0.227965
internal_weight=0 1044.15 683.264 519.152 360.882 454.607 296.543 222.163 233.547 164.112 157.245 118.707 118.168 250.268 211.108 127.075 64.5443 75.168 37.4674 183.046 138.719 113.705 103.457 43.1391 132.019 101.065 39.5568 36.0252 61.5082 84.0327 54.791
internal_count=8326 6083 4345 3478 1738 2932 1835 1086 2243 867 835 614 603 1494 1217 767 546 430 211 1868 652 586 472 197 615 525 196 175 329 450 297
shrinkage=0.05


Tree=22
num_leaves=32
num_cat=0
split_feature=7 10 7 10 4 4 0 0 0 0 13 4 0 0 7 8 4 8 0 0 3 5 0 4 4 0 10 0 0 4 7
split_gain=230.291 112.797 78.7682 76.5292 43.0553 25.3801 16.8488 14.865 12.6563 7.74685 7.65743 7.61183 10.3974 7.30677 5.79104 5.66703 5.26249 5.44862 5.06747 7.95404 4.56414 4.29289 4.15174 3.97013 3.59217 3.50605 3.40503 3.05531 3.9459 7.37628 2.96029
threshold=1.0000000180025095e-35 4668.5000000000009 4.5000000000000009 5036.5000000000009 9.5000000000000018 12.500000000000002 36.500000000000007 27.500000000000004 24.500000000000004 35.500000000000007 37.500000000000007 11.500000000000002 34.500000000000007 62.500000000000007 1.5000000000000002 3.5000000000000004 7.5000000000000009 3.5000000000000004 59.500000000000007 44.500000000000007 1.0000000180025095e-35 4.5000000000000009 27.500000000000004 14.500000000000002 13.500000000000002 49.500000000000007 7073.5000000000009 36.500000000000007 54.500000000000007 14.500000000000002 3.5000000000000004
decision_type=2 2 2 2 2 2 2 2 2 2 2 2 2 2 2 2 2 2 2 2 2 2 2 2 2 2 2 2 2 2 2
left_child=3 2 5 4 6 9 22 -7 -6 -2 -8 12 -4 20 15 -9 -14 -18 19 23 -12 27 -1 -10 -21 -13 -3 -17 29 -29 -16
right_child=1 26 11 -5 8 7 10 14 18 -11 13 25 16 -15 30 21 17 -19 -20 24 -22 -23 -24 -25 -26 -27 -28 28 -30 -31 -32
leaf_value=-0.042842533559329959 -0.050187724489183107 0.033207646223773701 -0.027101324080846808 0.071195925095674184 -0.043922678473594802 -0.0480502823437641 -0.029513520438894211 -0.04527169417595598 0.020327716901128404 -0.034948204855554242 0.059159350972444846 0.044436990923554673 -0.043606549678541127 -0.018437894861468573 -0.050195198685467103 -0.01307414549196205 -0.020519373766473017 0.036531870689143035 0.0081406142817095177 0.033003739296645573 0.01222596330468877 0.049828541482378065 -0.014876387670860256 0.046443637922814307 0.052186081036372546 0.0027245882906483413 0.071909338927418381 0.0081144935533646861 -0.027762408628182994 0.080280084941174057 -0.013180685109294335
leaf_weight=17.241160340607166 186.36096177250147 7.1237681210041037 16.940213359892368 66.339710518717766 6.5455388575792304 27.893476143479347 13.243960201740263 5.9280925393104544 206.04384756088257 150.92809689044952 5.3848480582237235 25.269827529788021 2.8780013695359221 19.771278984844685 9.0353936776518822 20.993064567446709 5.0105720013380077 25.399949327111244 35.389689713716507 101.54341305792332 136.21010337024927 5.1056950688362113 57.632406800985336 15.658291354775427 32.127625972032547 6.2919764518737784 28.106625616550446 23.901802815496925 5.4291764721274367 4.15672443807125 13.431673802435398
leaf_count=126 2122 36 98 310 37 269 87 42 904 1366 36 104 20 130 66 139 25 120 161 430 694 30 333 65 137 26 122 145 34 20 92
internal_value=0 -0.451496 -0.565637 0.401039 0.296125 -0.728657 -0.0294664 -0.324896 0.500576 -0.867369 0.140707 0.337582 0.0957587 0.200702 -0.123225 0.0270152 0.420322 0.542637 0.523676 0.559612 0.280217 0.119782 -0.426323 0.443444 0.752284 0.722429 1.28167 0.0376132 0.225113 0.376109 -0.56133
internal_weight=0 570.185 534.955 713.132 646.792 453.164 249.484 115.875 397.308 337.289 174.61 81.7905 50.2287 161.366 87.9816 65.5146 33.2885 30.4105 390.763 355.373 141.595 59.5865 74.8736 221.702 133.671 31.5618 35.2304 54.4808 33.4877 28.0585 22.4671
internal_count=8326 4876 4718 3450 3140 4325 1406 837 1734 3488 947 393 263 860 568 410 165 145 1697 1536 730 368 459 969 567 130 158 338 199 165 158
shrinkage=0.05


Tree=23
num_leaves=32
num_cat=0
split_feature=7 10 7 10 11 11 7 10 10 10 11 10 10 3 3 3 2 9 2 2 13 11 2 2 2 2 3 5 3 10 2
split_gain=210.853 103.856 73.6708 72.2802 35.8133 28.2089 15.1456 12.5821 22.9834 17.5934 11.9704 8.77948 11.5534 7.8107 9.21586 18.1421 7.95785 6.84385 6.2416 5.98362 5.62924 4.86593 4.62328 5.80556 4.97256 3.91702 3.76072 5.07276 5.10504 3.39995 3.24524
threshold=1.0000000180025095e-35 4668.5000000000009 4.5000000000000009 5036.5000000000009 1789.0000000000002 2218.5000000000005 1.5000000000000002 4462.0000000000009 4243.5000000000009 3120.0000000000005 1521.5000000000002 2857.0000000000005 1162.0000000000002 6.5000000000000009 10.500000000000002 11.500000000000002 336008.50000000006 1.0000000180025095e-35 116500.50000000001 146179.50000000003 37.500000000000007 2001.5000000000002 288558.50000000006 116500.50000000001 128797.00000000001 124761.00000000001 5.5000000000000009 4.5000000000000009 9.5000000000000018 7073.5000000000009 111247.50000000001
decision_type=2 2 2 2 2 2 2 2 2 2 2 2 2 2 2 2 2 2 2 2 2 2 2 2 2 2 2 2 2 2 2
left_child=3 2 5 4 7 6 17 8 9 10 11 12 13 19 18 20 22 -2 -15 25 -16 -6 23 -17 -25 -1 -19 28 30 -3 -28
right_child=1 29 -4 -5 21 -7 -8 -9 -10 -11 -12 -13 -14 14 15 16 -18 26 -20 -21 -22 -23 -24 24 -26 -27 27 -29 -30 -31 -32
leaf_value=0.0042854031184614066 -0.038080993475796868 0.031116700386359525 0.016021966628493037 0.069545479412023367 0.071605048568648397 0.076343962644677979 -0.046707709397243537 -0.075375095140332513 0.11904914432220447 -0.0682792000238477 -0.066090737295633487 0.074323565944412542 -0.068540519895334648 0.0074157679543958082 -0.039047963164575095 0.0057786043643859109 0.057926396265472427 -0.047705315129770373 0.029240342993688873 -0.02171236600942042 0.00059809926117005514 0.028194082008174737 -0.011549881348081978 0.069926486455033507 0.024051917343030776 0.067400449451683206 -0.03361742092703953 0.020637087438294864 -0.028862397918806244 0.069659232000173155 0.0011276138679849582
leaf_weight=11.552112288773058 96.602372474968433 7.2197711616754523 81.816915720701218 64.563448175787926 28.666194036602974 5.552459478378295 210.47058185189962 4.1712807565927497 4.9509935677051535 6.9385514482855788 4.8916587010025969 5.6778832226991645 4.43562939018011 44.053065493702888 9.4368752092123014 47.78133125603199 13.420022755861281 11.514279700815676 127.79399383068085 27.947847127914429 174.77545594424009 8.3312195092439634 12.33731524646282 6.2771910130977622 100.199652120471 3.1227969229221335 8.562627822160719 8.0136199668049795 68.517577670514584 27.577219694852829 31.238240458071232
leaf_count=82 898 36 393 310 138 27 2296 21 22 39 29 26 27 185 55 214 60 121 535 217 909 36 56 27 440 22 61 63 621 122 238
internal_value=0 -0.439538 -0.550985 0.381995 0.281279 -0.712851 -0.741445 0.223316 0.235238 0.21755 0.236052 0.248995 0.236946 0.249269 0.282028 0.191966 0.417733 -0.560737 0.472912 -0.162744 -0.028658 1.23659 0.358059 0.405171 0.535128 0.354324 -0.408948 -0.354989 -0.411788 1.23325 -0.126946
internal_weight=0 557.086 522.289 711.325 646.761 440.472 434.919 609.764 605.592 600.641 593.703 588.811 583.133 578.698 536.075 364.228 180.016 224.449 171.847 42.6228 184.212 36.9974 166.595 154.258 106.477 14.6749 127.846 116.332 108.318 34.797 39.8009
internal_count=8326 4876 4718 3450 3140 4325 4298 2966 2945 2923 2884 2855 2829 2802 2481 1761 797 2002 720 321 964 174 737 681 467 104 1104 983 920 158 299
shrinkage=0.05


Tree=24
num_leaves=32
num_cat=0
split_feature=5 10 4 5 10 4 4 11 12 11 11 4 1 5 5 12 5 12 1 1 12 12 12 12 12 13 10 8 1 12 4
split_gain=181.487 90.3965 67.0177 52.2966 47.4474 30.7173 21.6761 17.1322 13.4083 11.7785 9.3107 9.18373 8.93013 8.65416 7.72781 7.79487 7.35155 6.86304 6.27836 6.36637 5.75777 5.56797 4.98211 4.80487 4.64475 4.20043 4.10462 3.88811 3.83855 3.61687 3.39445
threshold=2.5000000000000004 5036.5000000000009 12.500000000000002 1.5000000000000002 7792.0000000000009 12.500000000000002 7.5000000000000009 1789.0000000000002 35.500000000000007 1789.0000000000002 2001.5000000000002 15.500000000000002 4.5000000000000009 1.5000000000000002 4.5000000000000009 44.500000000000007 5.5000000000000009 39.500000000000007 3.5000000000000004 1.0000000180025095e-35 34.500000000000007 41.500000000000007 39.500000000000007 44.500000000000007 71.000000000000014 18.500000000000004 3120.0000000000005 2.5000000000000004 4.5000000000000009 28.500000000000004 4.5000000000000009
decision_type=2 2 2 2 2 2 2 2 2 2 2 2 2 2 2 2 2 2 2 2 2 2 2 2 2 2 2 2 2 2 2
left_child=1 2 3 21 5 16 30 8 27 13 -9 14 18 17 15 -7 23 -4 19 -10 -18 -1 -16 -2 26 -15 -21 -8 -19 -27 -5
right_child=4 -3 9 6 -6 11 7 10 12 -11 -12 -13 -14 25 22 -17 20 28 -20 24 -22 -23 -24 -25 -26 29 -28 -29 -30 -31 -32
leaf_value=-0.045480237608833268 -0.052168429787334908 0.066425788174230518 -0.059592223785557612 -0.044558653836409723 0.07849335560269767 -0.032416662822343935 -0.065979653801961566 0.074718944803132986 0.037846389335692614 0.062630985904282871 0.0013896735667887027 0.067178485127134022 -0.012660137918744423 -0.003187229252815157 -0.016791705127370059 0.001568573705441681 -0.055702381135778238 0.016913458671068023 0.03762942654965884 0.0071014802953276793 -0.00016615148902981408 -0.018480071371006247 0.061021460844541554 -0.03243206458102179 0.056108802525585477 0.0030626999296388541 -0.034302408825485207 -0.016495132064260596 -0.033415050578074139 0.030605362850071399 -0.017629597867513055
leaf_weight=66.146087042987347 170.22343430668116 67.339751243591309 4.2740433663129833 19.50156707316637 9.2741443514823896 43.608918234705925 4.4069861471652976 13.841002181172373 17.788960732519627 21.163374975323677 6.2987469285726538 3.6582006588578215 47.278098225593567 10.71946746110916 3.3656791448593122 27.519055105745792 6.8516591712832478 22.778031758964065 20.141991153359413 278.57870940119028 14.637333720922468 26.843083173036575 5.2906139865517616 37.66077521443367 4.7416267842054358 12.699898675084112 6.1173614785075179 39.990434877574444 4.5444755479693404 193.9964946359396 29.260120168328285
leaf_count=698 2091 330 32 150 41 403 26 63 78 104 27 21 233 44 24 165 75 144 87 1360 138 209 36 356 21 57 35 240 27 793 218
internal_value=0 0.213181 0.124936 -0.0664285 -0.65921 -0.725296 0.0645511 0.134781 0.0914816 0.53641 1.0357 -0.205749 0.153059 0.47554 -0.276788 -0.385359 -0.9143 -0.0134814 0.211731 0.176272 -0.357472 -0.753723 0.615334 -0.971859 0.140585 0.546608 0.124236 -0.428142 0.170849 0.578262 -0.56799
internal_weight=0 918.45 851.111 580.935 322.09 312.816 487.946 439.184 419.044 270.176 20.1397 83.4425 374.647 249.012 79.7843 71.128 229.373 31.5966 327.369 307.227 21.489 92.9892 8.65629 207.884 289.438 217.416 284.696 44.3974 27.3225 206.696 48.7617
internal_count=8326 4976 4646 3445 3350 3309 2538 2170 2080 1201 90 649 1814 1097 628 568 2660 203 1581 1494 213 907 60 2447 1416 894 1395 266 171 850 368
shrinkage=0.05


Tree=25
num_leaves=32
num_cat=0
split_feature=5 10 5 10 0 0 0 12 0 12 0 3 10 10 3 3 3 10 12 3 0 3 13 13 0 3 7 0 9 3 3
split_gain=168.073 84.5394 60.1744 44.0641 30.002 21.7611 21.1181 16.9301 14.5585 13.553 11.2066 11.1636 9.09578 8.72964 5.73346 5.60052 7.78502 5.22398 5.12977 4.66291 5.09031 4.3343 4.22113 4.12222 4.00477 3.97153 3.96379 3.6292 6.88695 4.30474 9.24207
threshold=2.5000000000000004 5036.5000000000009 1.5000000000000002 7792.0000000000009 35.500000000000007 27.500000000000004 59.500000000000007 47.500000000000007 25.500000000000004 43.500000000000007 45.500000000000007 5.5000000000000009 3120.0000000000005 3120.0000000000005 2.5000000000000004 6.5000000000000009 9.5000000000000018 2857.0000000000005 54.500000000000007 6.5000000000000009 73.500000000000014 8.5000000000000018 28.500000000000004 22.500000000000004 42.500000000000007 13.500000000000002 2.5000000000000004 32.500000000000007 1.0000000180025095e-35 10.500000000000002 4.5000000000000009
decision_type=2 2 2 2 2 2 2 2 2 2 2 2 2 2 2 2 2 2 2 2 2 2 2 2 2 2 2 2 2 2 2
left_child=1 2 9 5 8 -2 11 27 -4 -1 -11 14 17 15 -6 -10 21 22 -12 -8 -21 -17 23 -13 25 26 -9 -7 -29 30 -30
right_child=3 -3 4 -5 6 7 19 24 13 10 18 12 -14 -15 -16 16 -18 -19 -20 20 -22 -23 -24 -25 -26 -27 -28 28 29 -31 -32
leaf_value=-0.037777320101137456 -0.051221355458258983 0.064918789572034133 -0.042552572344537604 0.076393817737878164 0.0092220715918086751 -0.046297278544588878 -0.042283220981606758 0.014153152462647065 -0.034224287583038422 -0.023089573057044177 0.010591332355356522 0.013643259983733376 -0.028887468539492468 -0.069015814086943364 -0.03964099793937783 -0.002670202692783234 -0.0044618789116408035 0.077042664563047758 0.071890448928913234 -0.0072735785391092938 0.052167175896907315 0.025449555683632892 0.025378197129004888 -0.041579255328624137 0.027418028245807698 -0.043568350927088745 -0.043970856137474264 -0.038330576760987528 -0.055440757097116794 -0.024975410347820644 0.030210831498359604
leaf_weight=83.410045839846134 127.79752214252949 65.5044786632061 22.375240668654442 9.0580419450998289 14.746791295707228 34.92601539939642 8.8318273872137052 16.614603169262416 10.196571476757525 24.877881094813347 10.070980854332445 16.012637801468376 8.0355086326599103 4.4590023905038825 10.125373266637324 19.281825318932533 106.8177577033639 4.7344975322484961 5.162443831562995 52.964697673916817 3.8645665198564521 47.368481352925301 389.14158174395561 4.2833768650889388 13.155314840376375 5.6401941776275626 3.5620390698313704 60.770532689988613 4.2510279566049602 24.885541163384914 12.154239796102045
leaf_count=843 1666 330 157 41 100 382 69 109 82 183 64 74 40 26 80 91 567 20 27 259 20 195 1726 23 77 43 32 610 50 244 96
internal_value=0 0.203881 0.119212 -0.645549 0.22938 -0.71036 0.35988 -0.482257 -0.0884968 -0.525841 -0.048178 0.437655 0.476008 0.00220073 -0.213398 0.0357654 0.0781023 0.496452 0.627299 -0.169683 -0.0646285 0.346291 0.484375 0.0397762 0.0992924 -0.129536 0.0778357 -0.647704 -0.552489 -0.237349 0.160326
internal_weight=0 912.266 846.761 312.815 723.24 303.757 512.741 175.96 210.499 123.521 40.1113 447.08 422.208 188.124 24.8722 183.665 173.468 414.172 15.2334 65.6611 56.8293 66.6503 409.438 20.296 38.9722 25.8168 20.1766 136.987 102.061 41.2908 16.4053
internal_count=8326 4976 4646 3350 3529 3309 2411 1643 1118 1117 274 2063 1883 961 180 935 853 1843 91 348 279 286 1823 97 261 184 141 1382 1000 390 146
shrinkage=0.05


Tree=26
num_leaves=32
num_cat=0
split_feature=0 10 4 9 11 11 4 0 10 10 0 0 10 6 6 6 6 4 6 6 6 11 0 6 6 11 10 10 6 0 0
split_gain=126.575 97.7449 58.8942 22.6862 19.4748 16.1785 13.571 10.9711 10.6986 19.0539 10.3309 8.22219 7.7478 7.07349 12.6854 10.2754 6.20936 5.69612 5.51403 5.13114 4.55551 4.43532 5.45582 4.306 8.05435 4.23502 3.65876 5.09828 3.56394 5.14586 4.31014
threshold=27.500000000000004 4243.5000000000009 12.500000000000002 1.0000000180025095e-35 1881.5000000000002 1836.5000000000002 8.5000000000000018 24.500000000000004 4462.0000000000009 5036.5000000000009 38.500000000000007 63.500000000000007 754.00000000000011 3.5000000000000004 8.5000000000000018 2.5000000000000004 2.5000000000000004 9.5000000000000018 3.5000000000000004 8.5000000000000018 8.5000000000000018 1584.5000000000002 67.500000000000014 3.5000000000000004 8.5000000000000018 1978.5000000000002 7073.5000000000009 5316.5000000000009 12.500000000000002 57.500000000000007 46.500000000000007
decision_type=2 2 2 2 2 2 2 2 2 2 2 2 2 2 2 2 2 2 2 2 2 2 2 2 2 2 2 2 2 2 2
left_child=7 2 3 18 12 6 -5 -1 -3 20 -8 13 16 15 -15 -12 -4 -9 -2 -20 -10 22 23 -18 -25 -7 27 -11 29 -16 -30
right_child=1 8 4 5 -6 25 10 17 9 26 11 -13 -14 14 28 -17 21 -19 19 -21 -22 -23 -24 24 -26 -27 -28 -29 30 -31 -32
leaf_value=-0.050360298296532546 -0.012954564283867077 0.13579207142380786 -0.0073531700217695853 -0.027459093515134637 0.067544511802744997 0.059035953927776913 -0.01141481764694828 -0.042325910042357619 -0.065062356145441272 0.069954560250591949 0.0065998118095392773 -0.026058594949641817 -0.039644089796305376 -0.020266315920541213 0.024967935838087121 0.04051583116850066 0.031209084538454269 -0.012241993430452812 -0.044372174348153465 -0.020772370138705941 0.013321835395594598 -0.035099679495938736 -0.031103722208169517 -0.018199756535995173 0.019871001859231227 0.010478365611443559 0.066638921405308402 -0.0052027859562240424 -0.026299479101736318 -0.013405238067530198 0.013897611308889042
leaf_weight=109.38760272413492 62.182016849517822 4.2110430970787993 24.516254656016827 55.961274832487106 19.159079164266586 12.745728276669981 155.79358996450901 26.486579410731792 3.3563905507326117 4.5265215784311277 70.894181311130524 19.853647015988827 6.2314178720116606 49.481790661811829 49.570933140814304 32.601993083953857 71.164082914590836 38.759586863219738 44.731791354715824 47.479214482009411 4.1399826481938362 3.7401696369051924 5.1705138385295859 15.152180068194864 167.13857755064964 6.9328075870871535 59.873361498117447 4.4992564916610718 11.82285498827696 10.605824202299116 15.297045223414896
leaf_count=1427 542 21 130 477 98 64 995 271 21 23 372 124 33 287 246 148 334 332 447 409 22 21 27 80 818 36 307 22 63 57 72
internal_value=0 0.106505 0.0175392 -0.154833 0.374102 -0.0498053 -0.0868529 -0.813629 1.16411 1.07858 -0.0246476 0.0973198 0.310255 0.148425 -0.000825548 0.345672 0.334217 -0.48909 -0.489225 -0.644414 -0.435471 0.379189 0.394825 0.41557 0.33413 0.838579 1.24331 0.649788 0.228455 0.364097 -0.0725243
internal_weight=0 1038.83 958.227 645.955 312.272 491.562 471.883 174.634 80.6066 76.3955 415.922 260.128 293.113 240.275 136.778 103.496 286.882 65.2462 154.393 92.211 7.49637 262.366 258.625 253.455 182.291 19.6785 68.8991 9.02578 87.2967 60.1768 27.1199
internal_count=8326 6296 5880 4339 1541 2941 2841 2030 416 395 2364 1369 1443 1245 725 520 1410 603 1398 856 43 1280 1259 1232 898 100 352 45 438 303 135
shrinkage=0.05


Tree=27
num_leaves=32
num_cat=0
split_feature=5 10 5 10 11 3 10 10 10 11 6 6 6 6 6 6 11 11 6 6 6 6 13 3 6 3 6 8 11 13 3
split_gain=171.638 69.5713 61.9431 41.6199 34.2919 26.0389 11.2409 15.1077 12.2696 10.0721 10.4178 42.0842 17.8326 9.96836 8.55625 8.44783 6.16086 3.98022 3.65214 3.42259 3.76845 3.30773 3.98474 3.52314 3.54477 3.01589 2.76276 2.48699 2.29815 2.12775 2.11619
threshold=3.5000000000000004 5036.5000000000009 1.0000000180025095e-35 4668.5000000000009 1789.0000000000002 6.5000000000000009 4462.0000000000009 4003.0000000000005 3120.0000000000005 1568.5000000000002 3.5000000000000004 8.5000000000000018 2.5000000000000004 9.5000000000000018 1.5000000000000002 8.5000000000000018 2001.5000000000002 1521.5000000000002 1.5000000000000002 3.5000000000000004 10.500000000000002 12.500000000000002 28.500000000000004 7.5000000000000009 11.500000000000002 7.5000000000000009 7.5000000000000009 3.5000000000000004 1748.0000000000002 19.500000000000004 8.5000000000000018
decision_type=2 2 2 2 2 2 2 2 2 2 2 2 2 2 2 2 2 2 2 2 2 2 2 2 2 2 2 2 2 2 2
left_child=1 2 18 15 5 19 7 8 9 10 12 29 14 -13 25 -2 -6 27 -1 -4 -21 22 -15 -24 -25 -7 -5 -17 -20 -12 -16
right_child=3 -3 4 26 16 6 -8 -9 -10 -11 11 13 -14 21 30 17 -18 -19 28 20 -22 -23 23 24 -26 -27 -28 -29 -30 -31 -32
leaf_value=-0.048160618200655141 -0.04678053058710685 0.061877325591053439 -0.0065209042392691784 0.023222232964141887 0.069109455072251358 0.066025440071809591 -0.070821721813200941 0.097814577534242456 -0.066321455695510956 -0.066709089772620619 -0.064215560087854243 0.027565691708059316 0.034912159286885035 -0.037381403201115521 -0.02111306931248538 -0.047744274464622996 0.020768444479414623 0.014794685439723052 -0.025345677588821142 -0.044497893913627747 -0.0078916279250278859 -0.003961462349679902 -0.021985190349457343 0.013211086951673286 0.040547814945884164 0.022555234054950087 0.071045597276346947 -0.027586249022920686 0.012799912761998294 -0.019473514336104308 0.0028576187445527612
leaf_weight=18.127299785614014 157.26965564489365 58.879263833165169 16.033000268042088 4.8645924180746061 28.571820214390755 4.4499140605330458 4.1336619779467574 5.0759202390909186 5.0621320009231559 4.0558345913887015 2.7316301092505446 125.20103477686644 113.30750603228807 3.7949136793613425 10.249772742390631 18.351523198187351 8.5672837197780591 4.9721272960305205 98.724799402058125 25.470682635903358 9.7111072018742544 39.73825316131115 6.1257955878972998 83.065856568515301 13.83354916423559 38.605009593069553 7.9642124176025391 92.045718647539616 4.1129786744713774 97.560100026428699 90.53241765499115
leaf_count=196 1943 312 125 24 148 20 22 24 30 24 20 560 491 21 46 216 39 41 905 219 76 193 26 384 64 190 38 948 23 514 444
internal_value=0 0.186063 0.113808 -0.702018 0.22282 0.173052 0.227342 0.237903 0.224239 0.236635 0.24676 0.139785 0.401538 0.344099 0.167809 -0.784845 1.15916 -0.579325 -0.549352 -0.513359 -0.687872 0.167081 0.258711 0.295779 0.342275 0.540961 1.05823 -0.618743 -0.476401 -0.413843 0.00839493
internal_weight=0 915.722 856.842 285.468 735.877 698.738 647.523 643.39 638.314 633.252 629.196 372.051 257.145 271.759 143.837 272.639 37.1391 115.369 120.965 51.2148 35.1818 146.558 106.82 103.025 96.8994 43.0549 12.8288 110.397 102.838 100.292 100.782
internal_count=8326 5116 4804 3210 3680 3493 3073 3051 3027 2997 2973 1782 1191 1248 700 3148 187 1205 1124 420 295 688 495 474 448 210 62 1164 928 534 490
shrinkage=0.05


Tree=28
num_leaves=32
num_cat=0
split_feature=5 5 12 3 11 11 11 12 1 6 11 12 11 2 6 6 1 6 6 6 2 2 3 3 12 12 2 2 6 5 2
split_gain=170.186 47.4025 19.0113 18.8419 12.8656 16.4855 15.6614 12.5147 12.0406 15.54 10.1711 10.1505 8.47512 8.16681 7.58854 7.43688 6.22498 6.38117 11.661 10.0577 6.17052 6.08631 5.74187 9.10903 5.57483 5.43393 7.08314 4.97893 4.41593 6.93715 4.34124
threshold=2.5000000000000004 1.0000000180025095e-35 46.500000000000007 6.5000000000000009 1789.0000000000002 1521.5000000000002 2001.5000000000002 44.500000000000007 4.5000000000000009 8.5000000000000018 1990.5000000000002 41.500000000000007 2234.5000000000005 198351.50000000003 12.500000000000002 9.5000000000000018 1.5000000000000002 3.5000000000000004 8.5000000000000018 2.5000000000000004 100665.50000000001 77878.500000000015 11.500000000000002 14.500000000000002 60.500000000000007 50.500000000000007 63506.000000000007 189889.00000000003 8.5000000000000018 4.5000000000000009 137436.00000000003
decision_type=2 2 2 2 2 2 2 2 2 2 2 2 2 2 2 2 2 2 2 2 2 2 2 2 2 2 2 2 2 2 2
left_child=1 7 10 13 5 8 -6 22 11 -10 28 14 -8 -3 16 -11 -5 19 30 21 -4 -18 -1 -24 -22 26 -13 -21 -2 -30 -19
right_child=2 3 20 4 6 -7 12 -9 9 15 -12 25 -14 -15 -16 -17 17 18 -20 27 24 -23 23 -25 -26 -27 -28 -29 29 -31 -32
leaf_value=-0.039069720578104684 -0.047028596367510021 0.0023673782606862918 -0.039817767309548259 0.031053406624157311 0.06462174640581593 -0.064968656361443708 -0.057376641700586109 0.0035036491619290511 -0.016699949152558732 0.041498924082936761 0.045456423767667307 -0.0055597204389895389 0.033111079003683576 -0.039008180587000459 -0.0197176498450953 0.0030002480508262291 -0.031525449094766698 -0.035977940507319055 0.015106440445987676 0.026848359588136896 0.0073854532488764673 0.015214204038402577 0.045908321687355876 -0.027202728899632513 -0.041273280754778652 0.017824658408900608 0.036622326319417878 0.062045779407886303 -0.03912624808229765 -0.0024355083970980917 -0.0042416188746331194
